{"learner":{"attributes":{"best_iteration":"164","best_score":"0.08539511220112941"},"feature_names":[],"feature_types":[],"gradient_booster":{"model":{"gbtree_model_param":{"num_parallel_tree":"1","num_trees":"215"},"iteration_indptr":[0,1,2,3,4,5,6,7,8,9,10,11,12,13,14,15,16,17,18,19,20,21,22,23,24,25,26,27,28,29,30,31,32,33,34,35,36,37,38,39,40,41,42,43,44,45,46,47,48,49,50,51,52,53,54,55,56,57,58,59,60,61,62,63,64,65,66,67,68,69,70,71,72,73,74,75,76,77,78,79,80,81,82,83,84,85,86,87,88,89,90,91,92,93,94,95,96,97,98,99,100,101,102,103,104,105,106,107,108,109,110,111,112,113,114,115,116,117,118,119,120,121,122,123,124,125,126,127,128,129,130,131,132,133,134,135,136,137,138,139,140,141,142,143,144,145,146,147,148,149,150,151,152,153,154,155,156,157,158,159,160,161,162,163,164,165,166,167,168,169,170,171,172,173,174,175,176,177,178,179,180,181,182,183,184,185,186,187,188,189,190,191,192,193,194,195,196,197,198,199,200,201,202,203,204,205,206,207,208,209,210,211,212,213,214,215],"tree_info":[0,0,0,0,0,0,0,0,0,0,0,0,0,0,0,0,0,0,0,0,0,0,0,0,0,0,0,0,0,0,0,0,0,0,0,0,0,0,0,0,0,0,0,0,0,0,0,0,0,0,0,0,0,0,0,0,0,0,0,0,0,0,0,0,0,0,0,0,0,0,0,0,0,0,0,0,0,0,0,0,0,0,0,0,0,0,0,0,0,0,0,0,0,0,0,0,0,0,0,0,0,0,0,0,0,0,0,0,0,0,0,0,0,0,0,0,0,0,0,0,0,0,0,0,0,0,0,0,0,0,0,0,0,0,0,0,0,0,0,0,0,0,0,0,0,0,0,0,0,0,0,0,0,0,0,0,0,0,0,0,0,0,0,0,0,0,0,0,0,0,0,0,0,0,0,0,0,0,0,0,0,0,0,0,0,0,0,0,0,0,0,0,0,0,0,0,0,0,0,0,0,0,0,0,0,0,0,0,0,0,0,0,0,0,0],"trees":[{"base_weights":[1.5966747E-2,-1.5248126E0,1.1231968E0,-2.0974205E0,1.3174889E0,1.3125969E0,-4.6164423E-1,-2.4356751E0,1.2684658E0,1.4419583E0,-1.3449286E-1,1.499653E0,8.7022847E-1,-1.0996609E0,1.2140453E0,7.650617E-2,-2.4856696E0,-5.707283E-1,1.1015924E-1,-4.3983477E-1,1.1548308E-1,9.593727E-1,1.144199E-1,-5.960542E-1,1.4319117E0,-2.0087552E0,5.0125366E-1,-1.3400747E-2,1.3856208E0,-2.5198877E0,8.200188E-2,-1.11083694E-1,3.6809757E-2,-9.940051E-2,6.297142E-2,-1.1357194E0,1.3940738E0,1.061998E0,-1.3700883E0,1.4502007E0,5.3683314E-3,-2.4255147E0,7.241605E-1,1.03882656E-1,-5.230639E-1,1.08481154E-1,2.8160397E-2,7.624167E-2,-1.9107608E-1,-1.2039737E-1,-6.650625E-3,1.08938E-1,2.8160397E-2,2.1996325E-2,1.04238346E-1,8.975148E-2,-1.3260075E-1,3.6670692E-2,1.1010559E-1,-1.9089806E-1,-6.650625E-3,-6.650625E-3,7.933782E-2,-1.471661E-1,8.975148E-2],"categories":[],"categories_nodes":[],"categories_segments":[],"categories_sizes":[],"default_left":[0,0,0,0,0,0,0,0,0,0,0,0,0,0,0,0,0,0,0,0,0,0,0,0,0,0,0,0,0,0,0,0,0,0,0,0,0,0,0,0,0,0,0,0,0,0,0,0,0,0,0,0,0,0,0,0,0,0,0,0,0,0,0,0,0],"id":0,"left_children":[1,3,5,7,9,11,13,15,17,19,-1,21,23,25,27,-1,29,31,-1,33,-1,35,-1,37,39,41,43,-1,45,47,-1,-1,-1,-1,-1,49,51,53,55,57,-1,59,61,-1,63,-1,-1,-1,-1,-1,-1,-1,-1,-1,-1,-1,-1,-1,-1,-1,-1,-1,-1,-1,-1],"loss_changes":[1.503827E3,6.02652E2,1.5456293E2,3.5281165E2,2.6753769E1,3.662726E1,6.0662453E1,5.0817993E1,1.1415218E1,1.182666E1,0E0,3.0332642E0,1.1501513E2,6.0261997E1,4.0177174E0,0E0,3.6528076E1,4.147863E0,0E0,5.384931E0,0E0,1.742445E1,0E0,5.1633194E1,2.3969574E0,3.1560852E1,1.4799456E1,0E0,3.2657242E-1,2.9467896E1,0E0,0E0,0E0,0E0,0E0,1.5981016E0,3.3872223E-1,2.8703308E0,2.9786304E1,9.854126E-1,0E0,6.1947174E0,1.241782E0,0E0,2.1967175E1,0E0,0E0,0E0,0E0,0E0,0E0,0E0,0E0,0E0,0E0,0E0,0E0,0E0,0E0,0E0,0E0,0E0,0E0,0E0,0E0],"parents":[2147483647,0,0,1,1,2,2,3,3,4,4,5,5,6,6,7,7,8,8,9,9,11,11,12,12,13,13,14,14,16,16,17,17,19,19,21,21,23,23,24,24,25,25,26,26,28,28,29,29,35,35,36,36,37,37,38,38,39,39,41,41,42,42,44,44],"right_children":[2,4,6,8,10,12,14,16,18,20,-1,22,24,26,28,-1,30,32,-1,34,-1,36,-1,38,40,42,44,-1,46,48,-1,-1,-1,-1,-1,50,52,54,56,58,-1,60,62,-1,64,-1,-1,-1,-1,-1,-1,-1,-1,-1,-1,-1,-1,-1,-1,-1,-1,-1,-1,-1,-1],"split_conditions":[3.645E3,1.79E0,2E0,1.414E1,3E0,2E-3,1.44E0,-2.475E0,9.2633E-2,1.1609E1,-1.3449286E-1,1.192E0,5.765E3,2.364805E1,1.0875E1,7.650617E-2,3.94E0,1.761E1,1.1015924E-1,8.98E-1,1.1548308E-1,4E-1,1.144199E-1,5.22E0,5.086348E1,7.666E3,2.389117E1,-1.3400747E-2,5E-2,8.518518E0,8.200188E-2,-1.11083694E-1,3.6809757E-2,-9.940051E-2,6.297142E-2,4.7E-1,1.7144103E0,8.5E-1,9.156626E0,2.8238327E2,5.3683314E-3,1.796E3,1.089E3,1.03882656E-1,4.9706E-2,1.08481154E-1,2.8160397E-2,7.624167E-2,-1.9107608E-1,-1.2039737E-1,-6.650625E-3,1.08938E-1,2.8160397E-2,2.1996325E-2,1.04238346E-1,8.975148E-2,-1.3260075E-1,3.6670692E-2,1.1010559E-1,-1.9089806E-1,-6.650625E-3,-6.650625E-3,7.933782E-2,-1.471661E-1,8.975148E-2],"split_indices":[0,52,20,9,20,40,49,43,7,33,0,5,0,18,37,0,43,9,0,4,0,52,0,14,31,0,18,0,27,18,0,0,0,0,0,4,1,49,18,30,0,12,12,0,7,0,0,0,0,0,0,0,0,0,0,0,0,0,0,0,0,0,0,0,0],"split_type":[0,0,0,0,0,0,0,0,0,0,0,0,0,0,0,0,0,0,0,0,0,0,0,0,0,0,0,0,0,0,0,0,0,0,0,0,0,0,0,0,0,0,0,0,0,0,0,0,0,0,0,0,0,0,0,0,0,0,0,0,0,0,0,0,0],"sum_hessian":[8.7949054E2,3.6758966E2,5.119009E2,3.0617078E2,6.1418873E1,4.57409E2,5.4491932E1,2.78463E2,2.7707764E1,5.957169E1,1.8471842E0,3.1979376E2,1.3761522E2,3.971446E1,1.4777473E1,3.6943684E0,2.7476865E2,2.5398784E0,2.5167885E1,2.7707763E0,5.6800915E1,1.6393759E1,3.034E2,3.8098175E1,9.9517044E1,2.5167885E1,1.4546576E1,1.6162862E0,1.3161187E1,2.7245966E2,2.3089802E0,1.1544901E0,1.3853881E0,1.6162862E0,1.1544901E0,2.5398784E0,1.3853882E1,1.2006697E1,2.6091476E1,9.813166E1,1.3853881E0,2.1935312E1,3.2325723E0,7.6196346E0,6.926941E0,1.2006697E1,1.1544901E0,1.8471842E0,2.706125E2,1.3853881E0,1.1544901E0,1.2699391E1,1.1544901E0,4.156164E0,7.8505325E0,3.2325723E0,2.2858904E1,2.3089802E0,9.582268E1,2.0780823E1,1.1544901E0,1.1544901E0,2.078082E0,3.6943684E0,3.2325723E0],"tree_param":{"num_deleted":"0","num_feature":"53","num_nodes":"65","size_leaf_vector":"1"}},{"base_weights":[1.8047484E-2,-1.3716208E0,1.0690258E0,-1.8672034E0,1.2573285E0,1.2535486E0,-4.2119074E-1,-2.1582766E0,1.1829684E0,1.3810195E0,-1.2511571E-1,1.4373789E0,8.247463E-1,-9.816396E-1,1.2116404E0,2.1691182E-1,-2.2199526E0,-5.455111E-1,1.3752767E0,-4.1355687E-1,1.1085805E-1,9.0901405E-1,1.0973013E-1,-6.54153E-1,1.3307748E0,-1.7522539E0,4.739552E-1,1.04523644E-1,4.6883025E-3,-1.3030131E-1,9.881573E-2,2.3821926E-1,-2.2538846E0,-1.0658444E-1,3.6383E-2,1.0559559E-1,2.6490454E-2,-9.468772E-2,6.2087793E-2,-1.072314E0,1.3379916E0,-1.3868719E0,1.2030425E0,4.873667E-1,1.4065775E0,-2.0981474E0,6.9500214E-1,9.980756E-2,-4.8630768E-1,8.1191E-2,-6.20968E-2,5.1920082E-2,-1.7084329E-1,-1.1535333E-1,-4.492446E-3,1.0485042E-1,2.485294E-2,8.143641E-2,-1.2724961E-1,2.9607175E-2,1.0146972E-1,9.367262E-2,-2.423514E-2,2.4757877E-2,1.06212445E-1,-1.6949186E-1,-2.9037625E-2,-8.494745E-3,7.757715E-2,-1.344787E-1,8.641264E-2],"categories":[],"categories_nodes":[],"categories_segments":[],"categories_sizes":[],"default_left":[0,0,0,0,0,0,0,0,0,0,0,0,0,0,0,0,0,0,0,0,0,0,0,0,0,0,0,0,0,0,0,0,0,0,0,0,0,0,0,0,0,0,0,0,0,0,0,0,0,0,0,0,0,0,0,0,0,0,0,0,0,0,0,0,0,0,0,0,0,0,0],"id":1,"left_children":[1,3,5,7,9,11,13,15,17,19,-1,21,23,25,27,29,31,33,35,37,-1,39,-1,41,43,45,47,-1,-1,-1,-1,49,51,-1,-1,-1,-1,-1,-1,53,55,57,59,61,63,65,67,-1,69,-1,-1,-1,-1,-1,-1,-1,-1,-1,-1,-1,-1,-1,-1,-1,-1,-1,-1,-1,-1,-1,-1],"loss_changes":[1.2819733E3,4.9480408E2,1.3795477E2,2.8526404E2,2.4214317E1,3.388916E1,5.2265247E1,4.311731E1,1.0185822E1,1.0828239E1,0E0,2.8790894E0,1.0254585E2,4.805845E1,2.9894009E0,2.0092695E1,2.4206177E1,3.900227E0,3.6498642E-1,5.040423E0,0E0,1.5899692E1,0E0,4.9714043E1,5.807251E0,2.4941765E1,1.3286125E1,0E0,0E0,0E0,0E0,5.1885715E0,2.1396484E1,0E0,0E0,0E0,0E0,0E0,0E0,1.5977893E0,4.0875053E-1,2.159208E1,7.409315E-1,6.517769E0,4.8883057E-1,5.9205627E0,1.2655303E0,0E0,1.9142742E1,0E0,0E0,0E0,0E0,0E0,0E0,0E0,0E0,0E0,0E0,0E0,0E0,0E0,0E0,0E0,0E0,0E0,0E0,0E0,0E0,0E0,0E0],"parents":[2147483647,0,0,1,1,2,2,3,3,4,4,5,5,6,6,7,7,8,8,9,9,11,11,12,12,13,13,14,14,15,15,16,16,17,17,18,18,19,19,21,21,23,23,24,24,25,25,26,26,31,31,32,32,39,39,40,40,41,41,42,42,43,43,44,44,45,45,46,46,48,48],"right_children":[2,4,6,8,10,12,14,16,18,20,-1,22,24,26,28,30,32,34,36,38,-1,40,-1,42,44,46,48,-1,-1,-1,-1,50,52,-1,-1,-1,-1,-1,-1,54,56,58,60,62,64,66,68,-1,70,-1,-1,-1,-1,-1,-1,-1,-1,-1,-1,-1,-1,-1,-1,-1,-1,-1,-1,-1,-1,-1,-1],"split_conditions":[3.645E3,1.79E0,2E0,1.361E1,3E0,2E-3,1.63E0,3.521E0,9.2633E-2,1.1609E1,-1.2511571E-1,1.192E0,5.374E3,2.364805E1,3E0,4.6E-1,1.03E1,-1E-2,1.203E-2,2.094E0,1.1085805E-1,4E-1,1.0973013E-1,1.6E0,6.111E3,7.666E3,2.389117E1,1.04523644E-1,4.6883025E-3,-1.3030131E-1,9.881573E-2,4.457E0,-2.475E0,-1.0658444E-1,3.6383E-2,1.0559559E-1,2.6490454E-2,-9.468772E-2,6.2087793E-2,2.26E1,9.63E-1,9.091377E0,3.153E-1,8.663E1,9E0,4.57E2,2.61E-1,9.980756E-2,4.9706E-2,8.1191E-2,-6.20968E-2,5.1920082E-2,-1.7084329E-1,-1.1535333E-1,-4.492446E-3,1.0485042E-1,2.485294E-2,8.143641E-2,-1.2724961E-1,2.9607175E-2,1.0146972E-1,9.367262E-2,-2.423514E-2,2.4757877E-2,1.06212445E-1,-1.6949186E-1,-2.9037625E-2,-8.494745E-3,7.757715E-2,-1.344787E-1,8.641264E-2],"split_indices":[0,52,20,9,20,40,49,14,7,33,0,5,0,18,20,52,19,43,45,28,0,52,0,52,0,0,18,0,0,0,0,26,43,0,0,0,0,0,0,19,4,18,16,11,23,21,15,0,7,0,0,0,0,0,0,0,0,0,0,0,0,0,0,0,0,0,0,0,0,0,0],"split_type":[0,0,0,0,0,0,0,0,0,0,0,0,0,0,0,0,0,0,0,0,0,0,0,0,0,0,0,0,0,0,0,0,0,0,0,0,0,0,0,0,0,0,0,0,0,0,0,0,0,0,0,0,0,0,0,0,0,0,0,0,0,0,0,0,0,0,0,0,0,0,0],"sum_hessian":[8.757526E2,3.769806E2,4.9877203E2,3.1743143E2,5.954917E1,4.4395865E2,5.4813393E1,2.9004526E2,2.7386173E1,5.7640106E1,1.9090642E0,3.090954E2,1.3486325E2,4.110383E1,1.3709564E1,7.2772217E0,2.8276804E2,2.558005E0,2.4828169E1,2.7910285E0,5.484908E1,1.6018677E1,2.9307672E2,3.43068E1,1.0055646E2,2.6742258E1,1.4361569E1,1.1651346E1,2.0582182E0,2.4134448E0,4.863777E0,3.768117E0,2.789999E2,1.1781447E0,1.3798605E0,2.3693413E1,1.1347566E0,1.6474149E0,1.1436136E0,2.584036E0,1.343464E1,2.4782581E1,9.524221E0,8.905047E0,9.1651405E1,2.355558E1,3.1866772E0,7.3857036E0,6.975866E0,2.0942683E0,1.6738486E0,2.031869E0,2.7696805E2,1.4142634E0,1.1697727E0,1.2311807E1,1.122834E0,2.4802887E0,2.2302292E1,2.0583103E0,7.465911E0,4.3121157E0,4.592932E0,1.1219264E0,9.052948E1,2.1228018E1,2.3275626E0,1.1393325E0,2.0473447E0,3.8283134E0,3.1475525E0],"tree_param":{"num_deleted":"0","num_feature":"53","num_nodes":"71","size_leaf_vector":"1"}},{"base_weights":[1.9330004E-2,-1.2539158E0,1.0220306E0,-1.6934983E0,1.205022E0,1.2020911E0,-3.884737E-1,-1.9606677E0,1.0288274E0,1.3281938E0,-1.1710164E-1,1.3834314E0,7.850107E-1,-9.199263E-1,1.1149354E0,-2.1669765E0,-1.3194001E0,-4.466241E-1,1.0184228E-1,-3.891924E-1,1.06877975E-1,8.637965E-1,1.05677955E-1,-4.9734226E-1,1.3176575E0,-1.6382514E0,4.5057526E-1,-1.2437169E-2,1.2828915E0,-2.177256E0,-2.3767164E-2,6.049597E-1,-1.6911002E0,7.064062E-2,-1.10420875E-1,-8.90659E-2,6.0226694E-2,-1.0145575E0,1.2881999E0,9.9423987E-1,-1.147185E0,1.3361125E0,2.4846406E-3,-1.9621282E0,6.6730154E-1,9.619878E-2,-4.5452222E-1,1.008802E-1,2.3423273E-2,-3.5105515E-2,-1.6382757E-1,-7.021797E-2,8.7182604E-2,9.570612E-3,-1.455567E-1,-1.0970589E-1,-3.3779538E-3,1.0125067E-1,2.1746434E-2,2.2603052E-2,9.754391E-2,-1.151782E-1,5.7047497E-2,1.03012666E-1,5.297434E-2,-1.5405563E-1,-5.1826853E-3,7.558074E-2,-9.545304E-3,-1.2404283E-1,8.33776E-2],"categories":[],"categories_nodes":[],"categories_segments":[],"categories_sizes":[],"default_left":[0,0,0,0,0,0,0,0,0,0,0,0,0,0,0,0,0,0,0,0,0,0,0,0,0,0,0,0,0,0,0,0,0,0,0,0,0,0,0,0,0,0,0,0,0,0,0,0,0,0,0,0,0,0,0,0,0,0,0,0,0,0,0,0,0,0,0,0,0,0,0],"id":2,"left_children":[1,3,5,7,9,11,13,15,17,19,-1,21,23,25,27,29,31,33,-1,35,-1,37,-1,39,41,43,45,-1,47,49,-1,51,53,-1,-1,-1,-1,55,57,59,61,63,-1,65,67,-1,69,-1,-1,-1,-1,-1,-1,-1,-1,-1,-1,-1,-1,-1,-1,-1,-1,-1,-1,-1,-1,-1,-1,-1,-1],"loss_changes":[1.1066198E3,4.1482172E2,1.2362106E2,2.3794934E2,2.2007027E1,3.1455627E1,4.548909E1,3.6266724E1,1.5000334E1,9.959534E0,0E0,2.7557373E0,9.128972E1,4.1754166E1,3.43647E0,3.5357666E0,5.4342117E1,1.0157396E1,0E0,4.574306E0,0E0,1.4545335E1,0E0,3.9589687E1,2.1847076E0,2.1882378E1,1.1963849E1,0E0,3.8638115E-1,1.6612549E0,0E0,1.2089174E1,2.873413E1,0E0,0E0,0E0,0E0,1.5071182E0,4.7153664E-1,2.276783E0,2.199228E1,1.2119751E0,0E0,4.107071E0,1.2481016E0,0E0,1.6822798E1,0E0,0E0,0E0,0E0,0E0,0E0,0E0,0E0,0E0,0E0,0E0,0E0,0E0,0E0,0E0,0E0,0E0,0E0,0E0,0E0,0E0,0E0,0E0,0E0],"parents":[2147483647,0,0,1,1,2,2,3,3,4,4,5,5,6,6,7,7,8,8,9,9,11,11,12,12,13,13,14,14,15,15,16,16,17,17,19,19,21,21,23,23,24,24,25,25,26,26,28,28,29,29,31,31,32,32,37,37,38,38,39,39,40,40,41,41,43,43,44,44,46,46],"right_children":[2,4,6,8,10,12,14,16,18,20,-1,22,24,26,28,30,32,34,-1,36,-1,38,-1,40,42,44,46,-1,48,50,-1,52,54,-1,-1,-1,-1,56,58,60,62,64,-1,66,68,-1,70,-1,-1,-1,-1,-1,-1,-1,-1,-1,-1,-1,-1,-1,-1,-1,-1,-1,-1,-1,-1,-1,-1,-1,-1],"split_conditions":[3.645E3,1.79E0,2E0,1.02818E-1,3E0,2E-3,1.44E0,5.3E-1,1.414E1,1.1609E1,-1.1710164E-1,1.192E0,5.765E3,2.364805E1,1.0875E1,1.572E1,5.4E-1,-8E-2,1.0184228E-1,2.094E0,1.06877975E-1,4E-1,1.05677955E-1,5.22E0,5.086348E1,7.666E3,2.389117E1,-1.2437169E-2,4.806561E1,1E1,-2.3767164E-2,2.8777356E2,5.8E0,7.064062E-2,-1.10420875E-1,-8.90659E-2,6.0226694E-2,1.934678E1,5.567E-1,8.5E-1,1.246E2,1.8E-1,2.4846406E-3,1.796E3,1.35E1,9.619878E-2,4.9706E-2,1.008802E-1,2.3423273E-2,-3.5105515E-2,-1.6382757E-1,-7.021797E-2,8.7182604E-2,9.570612E-3,-1.455567E-1,-1.0970589E-1,-3.3779538E-3,1.0125067E-1,2.1746434E-2,2.2603052E-2,9.754391E-2,-1.151782E-1,5.7047497E-2,1.03012666E-1,5.297434E-2,-1.5405563E-1,-5.1826853E-3,7.558074E-2,-9.545304E-3,-1.2404283E-1,8.33776E-2],"split_indices":[0,52,20,7,20,40,49,49,9,33,0,5,0,18,37,9,49,27,0,28,0,52,0,14,31,0,18,0,31,19,0,30,14,0,0,0,0,41,16,49,14,27,0,12,19,0,7,0,0,0,0,0,0,0,0,0,0,0,0,0,0,0,0,0,0,0,0,0,0,0,0],"split_type":[0,0,0,0,0,0,0,0,0,0,0,0,0,0,0,0,0,0,0,0,0,0,0,0,0,0,0,0,0,0,0,0,0,0,0,0,0,0,0,0,0,0,0,0,0,0,0,0,0,0,0,0,0,0,0,0,0,0,0,0,0,0,0,0,0,0,0,0,0,0,0],"sum_hessian":[8.6478815E2,3.8088434E2,4.8390384E2,3.2338443E2,5.7499905E1,4.2925433E2,5.4649498E1,2.9473853E2,2.8645908E1,5.5546593E1,1.9533097E0,2.975619E2,1.3169243E2,4.0663223E1,1.3986276E1,2.2119612E2,7.354241E1,5.158677E0,2.348723E1,2.8040018E0,5.274259E1,1.5606517E1,2.8195538E2,3.866714E1,9.302529E1,2.6551395E1,1.4111828E1,1.6229541E0,1.2363321E1,2.19798E2,1.3981158E0,1.1803901E1,6.173851E1,2.2263699E0,2.9323072E0,1.6817524E0,1.1222492E0,2.6200354E0,1.2986481E1,1.1573213E1,2.7093931E1,9.166812E1,1.3571696E0,2.3411568E1,3.1398273E0,7.1351733E0,6.976655E0,1.1256371E1,1.1069505E0,1.1875801E0,2.1861043E2,2.9550154E0,8.848886E0,7.510971E0,5.422754E1,1.4438432E0,1.1761922E0,1.1897443E1,1.0890381E0,4.1563997E0,7.416813E0,2.267188E1,4.4220495E0,8.5416176E1,6.251944E0,2.2245975E1,1.1655916E0,2.010239E0,1.1295884E0,3.9193296E0,3.0573254E0],"tree_param":{"num_deleted":"0","num_feature":"53","num_nodes":"71","size_leaf_vector":"1"}},{"base_weights":[1.9941617E-2,-1.1607531E0,9.8066694E-1,-1.5578272E0,1.1591165E0,1.1564825E0,-3.6040527E-1,-1.7975471E0,9.855765E-1,1.2819989E0,-1.10180885E-1,1.336223E0,7.490301E-1,-8.377567E-1,1.1192267E0,1.8838356E-1,-1.8503215E0,-4.181716E-1,9.836114E-2,-3.6669865E-1,1.03421174E-1,8.2289E-1,1.0214137E-1,-4.5713502E-1,1.2697474E0,-1.4691489E0,4.303436E-1,9.75864E-2,3.0704732E-3,-1.0292358E-1,9.3618065E-2,2.7311733E-1,-1.8794205E0,6.7391634E-2,-1.0333147E-1,-8.521941E-2,5.9431043E-2,-9.620353E-1,1.2435719E0,-9.9847096E-1,1.1433835E0,1.288222E0,2.3784398E-3,-1.7520568E0,6.411132E-1,9.297414E-2,-4.2668182E-1,8.136465E-2,-5.7125885E-2,4.873475E-2,-1.4244E-1,-1.05585106E-1,-1.4774633E-3,9.805319E-2,1.8814478E-2,-1.0388096E-1,5.4974496E-2,2.5549028E-2,9.686335E-2,9.941501E-2,5.045491E-2,-1.41172E-1,-2.525338E-2,7.372129E-2,-1.0534574E-2,-1.1529564E-1,8.060002E-2],"categories":[],"categories_nodes":[],"categories_segments":[],"categories_sizes":[],"default_left":[0,0,0,0,0,0,0,0,0,0,0,0,0,0,0,0,0,0,0,0,0,0,0,0,0,0,0,0,0,0,0,0,0,0,0,0,0,0,0,0,0,0,0,0,0,0,0,0,0,0,0,0,0,0,0,0,0,0,0,0,0,0,0,0,0,0,0],"id":3,"left_children":[1,3,5,7,9,11,13,15,17,19,-1,21,23,25,27,29,31,33,-1,35,-1,37,-1,39,41,43,45,-1,-1,-1,-1,47,49,-1,-1,-1,-1,51,53,55,57,59,-1,61,63,-1,65,-1,-1,-1,-1,-1,-1,-1,-1,-1,-1,-1,-1,-1,-1,-1,-1,-1,-1,-1,-1],"loss_changes":[9.64498E2,3.5320898E2,1.109516E2,2.0062885E2,2.0074173E1,2.937024E1,3.985442E1,3.1624207E1,1.36960125E1,9.192001E0,0E0,2.6531982E0,8.173776E1,3.444541E1,2.667183E0,1.599202E1,1.8480774E1,9.037897E0,0E0,4.2972193E0,0E0,1.3335577E1,0E0,3.5537395E1,2.0294952E0,1.8090336E1,1.0801926E1,0E0,0E0,0E0,0E0,4.8616776E0,1.5590698E1,0E0,0E0,0E0,0E0,1.5043623E0,5.2832603E-1,2.1230488E1,8.08527E-1,1.1558533E0,0E0,4.034958E0,1.2312713E0,0E0,1.4886851E1,0E0,0E0,0E0,0E0,0E0,0E0,0E0,0E0,0E0,0E0,0E0,0E0,0E0,0E0,0E0,0E0,0E0,0E0,0E0,0E0],"parents":[2147483647,0,0,1,1,2,2,3,3,4,4,5,5,6,6,7,7,8,8,9,9,11,11,12,12,13,13,14,14,15,15,16,16,17,17,19,19,21,21,23,23,24,24,25,25,26,26,31,31,32,32,37,37,38,38,39,39,40,40,41,41,43,43,44,44,46,46],"right_children":[2,4,6,8,10,12,14,16,18,20,-1,22,24,26,28,30,32,34,-1,36,-1,38,-1,40,42,44,46,-1,-1,-1,-1,48,50,-1,-1,-1,-1,52,54,56,58,60,-1,62,64,-1,66,-1,-1,-1,-1,-1,-1,-1,-1,-1,-1,-1,-1,-1,-1,-1,-1,-1,-1,-1,-1],"split_conditions":[3.645E3,1.79E0,2E0,1.02818E-1,3E0,2E-3,1.63E0,3.521E0,1.414E1,1.1609E1,-1.10180885E-1,1.192E0,5.765E3,2.364805E1,3E0,4.6E-1,1.03E1,-8E-2,9.836114E-2,8.98E-1,1.03421174E-1,4E-1,1.0214137E-1,1.6E0,5.086348E1,7.666E3,2.389117E1,9.75864E-2,3.0704732E-3,-1.0292358E-1,9.3618065E-2,-6E-2,-2.475E0,6.7391634E-2,-1.0333147E-1,-8.521941E-2,5.9431043E-2,2.25E0,4.619E0,4.02E0,3.153E-1,1.8E-1,2.3784398E-3,4.57E2,4.362934E1,9.297414E-2,4.9706E-2,8.136465E-2,-5.7125885E-2,4.873475E-2,-1.4244E-1,-1.05585106E-1,-1.4774633E-3,9.805319E-2,1.8814478E-2,-1.0388096E-1,5.4974496E-2,2.5549028E-2,9.686335E-2,9.941501E-2,5.045491E-2,-1.41172E-1,-2.525338E-2,7.372129E-2,-1.0534574E-2,-1.1529564E-1,8.060002E-2],"split_indices":[0,52,20,7,20,40,49,14,9,33,0,5,0,18,20,52,19,27,0,4,0,52,0,52,31,0,18,0,0,0,0,27,43,0,0,0,0,9,26,9,16,27,0,21,31,0,7,0,0,0,0,0,0,0,0,0,0,0,0,0,0,0,0,0,0,0,0],"split_type":[0,0,0,0,0,0,0,0,0,0,0,0,0,0,0,0,0,0,0,0,0,0,0,0,0,0,0,0,0,0,0,0,0,0,0,0,0,0,0,0,0,0,0,0,0,0,0,0,0,0,0,0,0,0,0,0,0,0,0,0,0,0,0,0,0,0,0],"sum_hessian":[8.482814E2,3.80479E2,4.6780237E2,3.2515347E2,5.5325504E1,4.1370322E2,5.409915E1,2.974149E2,2.7738588E1,5.3343616E1,1.9818901E0,2.8548642E2,1.282168E2,4.1231167E1,1.2867986E1,7.6324253E0,2.8978247E2,5.173226E0,2.2565363E1,2.8080776E0,5.0535538E1,1.5166529E1,2.703199E2,3.86988E1,8.9518E1,2.7420065E1,1.3811101E1,1.0833506E1,2.0344796E0,2.9676247E0,4.6648006E0,3.8040605E0,2.8597842E2,2.207591E0,2.9656348E0,1.6994753E0,1.1086024E0,2.6473124E0,1.2519217E1,2.9199087E1,9.499713E0,8.8161865E1,1.3561337E0,2.4328287E1,3.0917788E0,6.873661E0,6.93744E0,2.104671E0,1.6993896E0,1.9719379E0,2.8400647E2,1.4618462E0,1.1854662E0,1.1465339E1,1.0538776E0,2.403296E1,5.1661253E0,1.9939402E0,7.5057726E0,8.20352E1,6.126656E0,2.1976177E1,2.3521097E0,1.9717426E0,1.1200361E0,3.9738977E0,2.9635425E0],"tree_param":{"num_deleted":"0","num_feature":"53","num_nodes":"67","size_leaf_vector":"1"}},{"base_weights":[2.0606585E-2,-1.083806E0,9.4380367E-1,-1.4472008E0,1.1184068E0,1.1157137E0,-3.3674058E-1,-1.6573659E0,1.0563605E0,1.2411945E0,-1.04146354E-1,1.2945237E0,7.16469E-1,-7.830202E-1,1.0935185E0,-1.8388398E0,-1.0898342E0,-3.9294213E-1,1.2389659E0,-3.4572944E-1,1.0039436E-1,7.855183E-1,9.9026814E-2,-4.2093083E-1,1.226757E0,-1.3824042E0,4.2550287E-1,-3.9605893E-2,9.662304E-2,-1.8598044E0,-5.9152067E-1,-1.9004452E-1,-1.7053808E0,-9.192215E-2,4.085712E-2,1.9908842E-2,9.546078E-2,-8.056826E-2,5.77292E-2,-9.138086E-1,1.2032187E0,9.472019E-1,-9.8967373E-1,4.2006326E-1,1.2644734E0,-1.5732921E0,7.15017E-2,9.0051934E-2,-3.5825107E-1,-3.2320995E-2,-1.3992038E-1,5.5184443E-2,-1.0880348E-1,5.5552248E-2,-1.0742251E-1,6.813815E-2,-1.3569272E-1,-1.0182106E-1,3.4378155E-4,9.5146105E-2,1.6575439E-2,2.3846736E-2,9.2694186E-2,8.4298335E-2,-9.667609E-2,7.814548E-2,-5.285054E-2,6.539008E-2,9.966582E-2,6.2160406E-2,-1.2820339E-1,-1.07843526E-1,7.926913E-2],"categories":[],"categories_nodes":[],"categories_segments":[],"categories_sizes":[],"default_left":[0,0,0,0,0,0,0,0,0,0,0,0,0,0,0,0,0,0,0,0,0,0,0,0,0,0,0,0,0,0,0,0,0,0,0,0,0,0,0,0,0,0,0,0,0,0,0,0,0,0,0,0,0,0,0,0,0,0,0,0,0,0,0,0,0,0,0,0,0,0,0,0,0],"id":4,"left_children":[1,3,5,7,9,11,13,15,17,19,-1,21,23,25,27,29,31,33,35,37,-1,39,-1,41,43,45,47,-1,-1,49,51,53,55,-1,-1,-1,-1,-1,-1,57,59,61,63,65,67,69,-1,-1,71,-1,-1,-1,-1,-1,-1,-1,-1,-1,-1,-1,-1,-1,-1,-1,-1,-1,-1,-1,-1,-1,-1,-1,-1],"loss_changes":[8.45972E2,3.0395346E2,9.98616E1,1.7260333E2,1.83694E1,2.7532959E1,3.5488346E1,2.888916E1,7.3038063E0,8.512016E0,0E0,2.5671692E0,7.3391235E1,3.0965672E1,4.8879337E0,4.8051147E0,4.1287888E1,3.5110023E0,4.237938E-1,3.919847E0,0E0,1.2249635E1,0E0,3.1774311E1,2.1137238E0,1.4103893E1,9.341823E0,0E0,0E0,1.032898E0,6.996765E0,3.7648594E1,1.372023E1,0E0,0E0,0E0,0E0,0E0,0E0,1.5011501E0,5.572796E-1,1.814023E0,1.94696E1,4.4974275E0,9.286804E-1,1.0082687E1,0E0,0E0,1.38406925E1,0E0,0E0,0E0,0E0,0E0,0E0,0E0,0E0,0E0,0E0,0E0,0E0,0E0,0E0,0E0,0E0,0E0,0E0,0E0,0E0,0E0,0E0,0E0,0E0],"parents":[2147483647,0,0,1,1,2,2,3,3,4,4,5,5,6,6,7,7,8,8,9,9,11,11,12,12,13,13,14,14,15,15,16,16,17,17,18,18,19,19,21,21,23,23,24,24,25,25,26,26,29,29,30,30,31,31,32,32,39,39,40,40,41,41,42,42,43,43,44,44,45,45,48,48],"right_children":[2,4,6,8,10,12,14,16,18,20,-1,22,24,26,28,30,32,34,36,38,-1,40,-1,42,44,46,48,-1,-1,50,52,54,56,-1,-1,-1,-1,-1,-1,58,60,62,64,66,68,70,-1,-1,72,-1,-1,-1,-1,-1,-1,-1,-1,-1,-1,-1,-1,-1,-1,-1,-1,-1,-1,-1,-1,-1,-1,-1,-1],"split_conditions":[3.645E3,1.79E0,2E0,1.361E1,3E0,2E-3,1.64E0,5.3E-1,9.2633E-2,1.1609E1,-1.04146354E-1,1.192E0,5.765E3,2.364805E1,6.7E-1,1.02818E-1,2E-3,4E-2,-4.9E-1,2.094E0,1.0039436E-1,4E-1,9.9026814E-2,5.22E0,6.111E3,1.901E3,2.389117E1,-3.9605893E-2,9.662304E-2,1E1,1.13214E0,2E0,8.518518E0,-9.192215E-2,4.085712E-2,1.9908842E-2,9.546078E-2,-8.056826E-2,5.77292E-2,2.329E-1,4.8960556E1,8.5E-1,9.156626E0,4.340441E1,1.2E-2,8.071877E0,7.15017E-2,9.0051934E-2,4.9706E-2,-3.2320995E-2,-1.3992038E-1,5.5184443E-2,-1.0880348E-1,5.5552248E-2,-1.0742251E-1,6.813815E-2,-1.3569272E-1,-1.0182106E-1,3.4378155E-4,9.5146105E-2,1.6575439E-2,2.3846736E-2,9.2694186E-2,8.4298335E-2,-9.667609E-2,7.814548E-2,-5.285054E-2,6.539008E-2,9.966582E-2,6.2160406E-2,-1.2820339E-1,-1.07843526E-1,7.926913E-2],"split_indices":[0,52,20,9,20,40,52,49,7,33,0,5,0,18,9,7,40,49,48,28,0,52,0,14,0,12,18,0,0,19,8,20,18,0,0,0,0,0,0,15,42,49,18,31,40,18,0,0,7,0,0,0,0,0,0,0,0,0,0,0,0,0,0,0,0,0,0,0,0,0,0,0,0],"split_type":[0,0,0,0,0,0,0,0,0,0,0,0,0,0,0,0,0,0,0,0,0,0,0,0,0,0,0,0,0,0,0,0,0,0,0,0,0,0,0,0,0,0,0,0,0,0,0,0,0,0,0,0,0,0,0,0,0,0,0,0,0,0,0,0,0,0,0,0,0,0,0,0,0],"sum_hessian":[8.277141E2,3.767898E2,4.5092432E2,3.2371524E2,5.3074535E1,3.9766714E2,5.3257153E1,2.9895688E2,2.475837E1,5.107779E1,1.9967463E0,2.7310776E2,1.2455939E2,4.0936413E1,1.2320739E1,2.2482635E2,7.413052E1,2.6414943E0,2.2116877E1,2.8061683E0,4.827162E1,1.4708614E1,2.5839917E2,3.8630207E1,8.5929184E1,2.7268393E1,1.3668022E1,1.1377816E0,1.1182957E1,2.2062709E2,4.1992736E0,3.0644276E1,4.3486244E1,1.2364585E0,1.4050357E0,1.0401771E0,2.1076698E1,1.7198553E0,1.0863129E0,2.6677434E0,1.2040871E1,1.1147951E1,2.7482254E1,4.380246E0,8.1548935E1,2.551004E1,1.7583525E0,6.604106E0,7.063916E0,1.1964663E0,2.1943062E2,1.7065512E0,2.4927225E0,1.7749489E1,1.2894787E1,1.3657004E0,4.2120544E1,1.4761536E0,1.1915898E0,1.1015844E1,1.0250264E0,4.1671696E0,6.980782E0,3.0675275E0,2.4414726E1,2.8680773E0,1.512169E0,1.35409775E1,6.800796E1,1.0948182E0,2.4415222E1,3.9978273E0,3.0660892E0],"tree_param":{"num_deleted":"0","num_feature":"53","num_nodes":"73","size_leaf_vector":"1"}},{"base_weights":[2.0936182E-2,-1.0206319E0,9.110485E-1,-1.3570505E0,1.0820285E0,1.0793138E0,-3.144293E-1,-1.5511514E0,1.018324E0,1.2048992E0,-9.8837376E-2,1.2072718E0,5.38604E-1,-7.5129783E-1,1.0012553E0,-1.7223226E0,-1.0177705E0,-3.7783056E-1,1.2012548E0,-3.0237845E-1,9.787188E-2,1.2273422E0,5.119013E-1,-8.5158026E-1,1.179321E0,-1.3139061E0,3.968607E-1,-1.2730283E-2,1.1707479E0,-1.7419624E0,-5.5941045E-1,6.033152E-1,-1.3163425E0,-8.7767996E-2,3.9295122E-2,9.27067E-2,1.7816283E-2,5.4990057E-2,-7.0070006E-2,7.9338735E-1,1.2499566E0,8.414889E-2,-1.678977E-1,-1.3477125E0,8.806765E-1,3.09345E-1,1.2700598E0,-1.5742273E0,6.041089E-1,8.7425545E-2,-3.8042936E-1,9.277631E-2,1.7466025E-2,-3.0906701E-2,-1.3105603E-1,5.287521E-2,-1.0309351E-1,-5.5777807E-2,8.354293E-2,1.5689671E-2,-1.1436314E-1,-4.633297E-2,8.553295E-2,9.675543E-2,6.840947E-2,6.937257E-2,-8.488047E-2,2.3112556E-2,-1.2433373E-1,1.3509794E-4,8.445552E-2,-4.350581E-2,7.9445794E-2,9.817367E-2,3.9184846E-2,-1.2390752E-1,-1.909728E-3,-1.1374034E-2,7.0771754E-2,-1.01403676E-1,7.5636566E-2],"categories":[],"categories_nodes":[],"categories_segments":[],"categories_sizes":[],"default_left":[0,0,0,0,0,0,0,0,0,0,0,0,0,0,0,0,0,0,0,0,0,0,0,0,0,0,0,0,0,0,0,0,0,0,0,0,0,0,0,0,0,0,0,0,0,0,0,0,0,0,0,0,0,0,0,0,0,0,0,0,0,0,0,0,0,0,0,0,0,0,0,0,0,0,0,0,0,0,0,0,0],"id":5,"left_children":[1,3,5,7,9,11,13,15,17,19,-1,21,23,25,27,29,31,33,35,37,-1,39,41,43,45,47,49,-1,51,53,55,57,59,-1,-1,-1,-1,-1,-1,61,63,-1,65,67,69,71,73,75,77,-1,79,-1,-1,-1,-1,-1,-1,-1,-1,-1,-1,-1,-1,-1,-1,-1,-1,-1,-1,-1,-1,-1,-1,-1,-1,-1,-1,-1,-1,-1,-1],"loss_changes":[7.472271E2,2.641864E2,8.995004E1,1.4940338E2,1.6857208E1,2.580252E1,3.1353394E1,2.5344238E1,6.793745E0,7.902725E0,0E0,3.6753235E0,6.778057E1,2.670856E1,2.9178257E0,4.1241455E0,3.687742E1,3.2115939E0,4.5118713E-1,3.244215E0,0E0,1.9425049E0,4.4875283E0,2.201284E1,3.6912537E0,1.4651604E1,8.869497E0,0E0,4.6361732E-1,8.6798096E-1,6.308843E0,9.274881E0,2.0443413E1,0E0,0E0,0E0,0E0,0E0,0E0,9.298226E0,2.6511536E0,0E0,7.1275153E0,1.0385548E1,1.2919941E0,4.7555833E0,6.6999817E-1,2.9052925E0,1.1699442E0,0E0,1.1842785E1,0E0,0E0,0E0,0E0,0E0,0E0,0E0,0E0,0E0,0E0,0E0,0E0,0E0,0E0,0E0,0E0,0E0,0E0,0E0,0E0,0E0,0E0,0E0,0E0,0E0,0E0,0E0,0E0,0E0,0E0],"parents":[2147483647,0,0,1,1,2,2,3,3,4,4,5,5,6,6,7,7,8,8,9,9,11,11,12,12,13,13,14,14,15,15,16,16,17,17,18,18,19,19,21,21,22,22,23,23,24,24,25,25,26,26,28,28,29,29,30,30,31,31,32,32,39,39,40,40,42,42,43,43,44,44,45,45,46,46,47,47,48,48,50,50],"right_children":[2,4,6,8,10,12,14,16,18,20,-1,22,24,26,28,30,32,34,36,38,-1,40,42,44,46,48,50,-1,52,54,56,58,60,-1,-1,-1,-1,-1,-1,62,64,-1,66,68,70,72,74,76,78,-1,80,-1,-1,-1,-1,-1,-1,-1,-1,-1,-1,-1,-1,-1,-1,-1,-1,-1,-1,-1,-1,-1,-1,-1,-1,-1,-1,-1,-1,-1,-1],"split_conditions":[3.645E3,1.79E0,2E0,1.361E1,3E0,8.5E-2,1.44E0,5.3E-1,9.2633E-2,9.852E0,-9.8837376E-2,8.996E1,5.374E3,2.364805E1,1.0875E1,1.02818E-1,5.4E-1,4E-2,6.3E-3,3.823E0,9.787188E-2,1.192E0,1.9514542E1,1.38E0,6.065E3,7.666E3,2.389117E1,-1.2730283E-2,5E-2,1E1,1.13214E0,2.8777356E2,5.8E0,-8.7767996E-2,3.9295122E-2,9.27067E-2,1.7816283E-2,5.4990057E-2,-7.0070006E-2,4E-1,6E-3,8.414889E-2,9E-3,1.3333E1,1.3424E1,5.729E3,1.6E-1,1.796E3,2.9049316E2,8.7425545E-2,4.9706E-2,9.277631E-2,1.7466025E-2,-3.0906701E-2,-1.3105603E-1,5.287521E-2,-1.0309351E-1,-5.5777807E-2,8.354293E-2,1.5689671E-2,-1.1436314E-1,-4.633297E-2,8.553295E-2,9.675543E-2,6.840947E-2,6.937257E-2,-8.488047E-2,2.3112556E-2,-1.2433373E-1,1.3509794E-4,8.445552E-2,-4.350581E-2,7.9445794E-2,9.817367E-2,3.9184846E-2,-1.2390752E-1,-1.909728E-3,-1.1374034E-2,7.0771754E-2,-1.01403676E-1,7.5636566E-2],"split_indices":[0,52,20,9,20,40,49,49,7,38,0,11,0,18,37,7,49,49,46,26,0,5,41,52,0,0,18,0,27,19,8,30,14,0,0,0,0,0,0,52,40,0,4,32,36,25,27,12,30,0,7,0,0,0,0,0,0,0,0,0,0,0,0,0,0,0,0,0,0,0,0,0,0,0,0,0,0,0,0,0,0],"split_type":[0,0,0,0,0,0,0,0,0,0,0,0,0,0,0,0,0,0,0,0,0,0,0,0,0,0,0,0,0,0,0,0,0,0,0,0,0,0,0,0,0,0,0,0,0,0,0,0,0,0,0,0,0,0,0,0,0,0,0,0,0,0,0,0,0,0,0,0,0,0,0,0,0,0,0,0,0,0,0,0,0],"sum_hessian":[8.039693E2,3.70399E2,4.3357034E2,3.196161E2,5.0782898E1,3.813307E2,5.223966E1,2.9579276E2,2.3823349E1,4.8783173E1,1.9997255E0,3.0736136E2,7.396932E1,3.953963E1,1.2700029E1,2.2224222E2,7.3550514E1,2.6364152E0,2.1186934E1,2.9109507E0,4.5872223E1,2.9799533E2,9.366032E0,2.3232317E1,5.0737007E1,2.6439615E1,1.3100015E1,1.605625E0,1.1094404E1,2.1806157E2,4.180655E0,1.1280852E1,6.2269665E1,1.2448266E0,1.3915887E0,2.0175034E1,1.0119007E0,1.042349E0,1.8686017E0,1.6547247E1,2.814481E2,4.593311E0,4.7727213E0,1.82324E1,4.9999156E0,5.208515E0,4.5528496E1,2.343778E1,3.0018344E0,6.3347173E0,6.765298E0,1.0064294E1,1.0301101E0,1.2028805E0,2.1685869E2,1.6917384E0,2.4889166E0,2.9752119E0,8.30564E0,7.486853E0,5.478281E1,3.112271E0,1.3434975E1,2.4905524E2,3.239284E1,2.2555583E0,2.5171628E0,2.8765895E0,1.5355812E1,1.3112152E0,3.6887004E0,2.486276E0,2.722239E0,4.2561665E1,2.9668288E0,2.2252203E1,1.1855768E0,1.1020286E0,1.8998059E0,3.996254E0,2.7690437E0],"tree_param":{"num_deleted":"0","num_feature":"53","num_nodes":"81","size_leaf_vector":"1"}},{"base_weights":[2.1206925E-2,-9.6691495E-1,8.809151E-1,-1.2811174E0,1.0489463E0,1.0455523E0,-2.957391E-1,-1.4602481E0,1.0101389E0,1.1719944E0,-9.4127975E-2,1.2241737E0,6.592605E-1,-6.9316834E-1,1.0240974E0,-1.6227577E0,-9.584929E-1,-3.6376682E-1,9.010013E-2,-3.245636E-1,9.539255E-2,7.17656E-1,1.2507577E0,-4.601209E-1,1.1173639E0,-1.2146212E0,3.9516255E-1,-3.821298E-2,9.17054E-2,-1.6596195E0,-8.41654E-1,-1.5707062E-1,-1.5135878E0,-8.5003644E-2,3.8711667E-2,-7.488873E-2,5.503155E-2,-8.3229613E-1,1.1325073E0,9.853443E-1,9.54839E-2,-9.672221E-1,1.037595E0,3.7525064E-1,1.1934031E0,-1.3861376E0,6.775166E-2,-6.5358466E-1,8.9265543E-1,-1.2509598E-1,-3.8056873E-2,3.537552E-2,-9.508267E-2,4.9791194E-2,-9.467526E-2,6.911656E-2,-1.2109774E-1,-9.444714E-2,2.2170292E-3,1.8903028E-2,9.0088874E-2,8.79838E-2,2.272022E-2,7.785319E-2,-9.0436354E-2,2.1730397E-2,8.9371316E-2,8.518055E-2,-2.8412135E-2,5.936002E-2,9.460204E-2,6.13462E-2,-1.1351756E-1,-8.002049E-2,2.7685698E-2,8.269704E-2,-2.0189589E-2],"categories":[],"categories_nodes":[],"categories_segments":[],"categories_sizes":[],"default_left":[0,0,0,0,0,0,0,0,0,0,0,0,0,0,0,0,0,0,0,0,0,0,0,0,0,0,0,0,0,0,0,0,0,0,0,0,0,0,0,0,0,0,0,0,0,0,0,0,0,0,0,0,0,0,0,0,0,0,0,0,0,0,0,0,0,0,0,0,0,0,0,0,0,0,0,0,0],"id":6,"left_children":[1,3,5,7,9,11,13,15,17,19,-1,21,23,25,27,29,31,33,-1,35,-1,37,39,41,43,45,47,-1,-1,49,51,53,55,-1,-1,-1,-1,57,59,61,-1,63,65,67,69,71,-1,73,75,-1,-1,-1,-1,-1,-1,-1,-1,-1,-1,-1,-1,-1,-1,-1,-1,-1,-1,-1,-1,-1,-1,-1,-1,-1,-1,-1,-1],"loss_changes":[6.6279895E2,2.3127176E2,8.1131714E1,1.305614E2,1.5504509E1,2.4462128E1,2.7980865E1,2.2263672E1,6.582983E0,7.5160446E0,0E0,2.4586792E0,6.1004776E1,2.3495096E1,4.411395E0,4.914795E0,3.2641174E1,3.0403762E0,0E0,3.421468E0,0E0,1.0443437E1,1.4309692E-1,2.7559261E1,4.2921753E0,1.13013115E1,7.8310695E0,0E0,0E0,1.1520996E0,7.2617826E0,2.9292505E1,1.2203827E1,0E0,0E0,0E0,0E0,1.3974657E0,4.276886E-1,2.5561142E0,0E0,1.3996796E1,7.290344E-1,5.7437186E0,1.070282E0,8.536434E0,0E0,2.5273461E0,2.6984363E0,0E0,0E0,0E0,0E0,0E0,0E0,0E0,0E0,0E0,0E0,0E0,0E0,0E0,0E0,0E0,0E0,0E0,0E0,0E0,0E0,0E0,0E0,0E0,0E0,0E0,0E0,0E0,0E0],"parents":[2147483647,0,0,1,1,2,2,3,3,4,4,5,5,6,6,7,7,8,8,9,9,11,11,12,12,13,13,14,14,15,15,16,16,17,17,19,19,21,21,22,22,23,23,24,24,25,25,26,26,29,29,30,30,31,31,32,32,37,37,38,38,39,39,41,41,42,42,43,43,44,44,45,45,47,47,48,48],"right_children":[2,4,6,8,10,12,14,16,18,20,-1,22,24,26,28,30,32,34,-1,36,-1,38,40,42,44,46,48,-1,-1,50,52,54,56,-1,-1,-1,-1,58,60,62,-1,64,66,68,70,72,-1,74,76,-1,-1,-1,-1,-1,-1,-1,-1,-1,-1,-1,-1,-1,-1,-1,-1,-1,-1,-1,-1,-1,-1,-1,-1,-1,-1,-1,-1],"split_conditions":[3.645E3,1.79E0,2E0,1.414E1,3E0,2E-3,1.64E0,5.3E-1,9.2633E-2,1.1609E1,-9.4127975E-2,1.192E0,5.374E3,2.364805E1,6.7E-1,2.3676962E2,2E-3,-1E-2,9.010013E-2,8.98E-1,9.539255E-2,4E-1,1.37E-1,1.6E0,6.111E3,1.901E3,-8E-3,-3.821298E-2,9.17054E-2,9.71E-1,3.8686E-1,2E0,8.518518E0,-8.5003644E-2,3.8711667E-2,-7.488873E-2,5.503155E-2,2.329E-1,6.2E1,0E0,9.54839E-2,9.091377E0,3.153E-1,8.663E1,1.2E-2,8.071877E0,6.775166E-2,9.526E-1,4.632464E1,-1.2509598E-1,-3.8056873E-2,3.537552E-2,-9.508267E-2,4.9791194E-2,-9.467526E-2,6.911656E-2,-1.2109774E-1,-9.444714E-2,2.2170292E-3,1.8903028E-2,9.0088874E-2,8.79838E-2,2.272022E-2,7.785319E-2,-9.0436354E-2,2.1730397E-2,8.9371316E-2,8.518055E-2,-2.8412135E-2,5.936002E-2,9.460204E-2,6.13462E-2,-1.1351756E-1,-8.002049E-2,2.7685698E-2,8.269704E-2,-2.0189589E-2],"split_indices":[0,52,20,9,20,40,52,49,7,33,0,5,0,18,9,18,40,43,0,4,0,52,4,52,0,12,48,0,0,4,8,20,18,0,0,0,0,15,23,27,0,18,16,11,40,18,0,4,42,0,0,0,0,0,0,0,0,0,0,0,0,0,0,0,0,0,0,0,0,0,0,0,0,0,0,0,0],"split_type":[0,0,0,0,0,0,0,0,0,0,0,0,0,0,0,0,0,0,0,0,0,0,0,0,0,0,0,0,0,0,0,0,0,0,0,0,0,0,0,0,0,0,0,0,0,0,0,0,0,0,0,0,0,0,0,0,0,0,0,0,0,0,0,0,0,0,0,0,0,0,0,0,0,0,0,0,0],"sum_hessian":[7.782231E2,3.6201248E2,4.162106E2,3.1351147E2,4.8501026E1,3.6522046E2,5.099014E1,2.9111478E2,2.2396704E1,4.650848E1,1.9925433E0,2.4825722E2,1.16963234E2,3.955434E1,1.1435798E1,2.1820718E2,7.290758E1,2.625768E0,1.9770935E1,2.769758E0,4.3738724E1,1.3775829E1,2.344814E2,3.3964973E1,8.299825E1,2.6663162E1,1.289118E1,1.1319153E0,1.0303883E1,2.0729962E2,1.0907561E1,3.0359213E1,4.2548367E1,1.2470238E0,1.378744E0,1.7266847E0,1.0430734E0,2.6961863E0,1.1079643E1,2.1721586E1,2.1275981E2,2.5638437E1,8.326537E0,8.265473E0,7.473278E1,2.4985352E1,1.6778094E0,4.0467057E0,8.844474E0,2.053678E2,1.9318258E0,2.6458569E0,8.261704E0,1.7649284E1,1.27099285E1,1.3717234E0,4.1176643E1,1.4945718E0,1.2016146E0,1.1395965E0,9.940047E0,1.6470451E1,5.251135E0,2.369925E0,2.3268513E1,1.9140424E0,6.412495E0,3.8632498E0,4.402223E0,1.2637039E1,6.209574E1,1.069415E0,2.3915937E1,2.851134E0,1.1955715E0,7.533905E0,1.3105693E0],"tree_param":{"num_deleted":"0","num_feature":"53","num_nodes":"77","size_leaf_vector":"1"}},{"base_weights":[2.1470824E-2,-9.2094535E-1,8.5381544E-1,-1.2164212E0,1.0191103E0,1.0155538E0,-2.7833867E-1,-1.3950977E0,8.6113775E-1,1.1425298E0,-8.991839E-2,1.1941842E0,6.3526E-1,-6.723814E-1,9.3930227E-1,2.3507668E-1,-1.4384961E0,-2.8771436E-1,8.778682E-2,-3.0669287E-1,9.327167E-2,6.883093E-1,1.2211939E0,-3.461183E-1,1.1220266E0,-1.1707821E0,3.636509E-1,-1.3211331E-2,1.1125535E0,-8.261993E-2,8.742775E-2,7.634199E-2,-1.456893E0,6.531518E-2,-8.650841E-2,-7.1466E-2,5.3798404E-2,-7.94154E-1,1.1014801E0,9.529939E-1,9.330819E-2,8.8565147E-1,-8.326895E-1,1.142736E0,-4.185559E-3,-1.4090433E0,5.711611E-1,8.325587E-2,-3.6086708E-1,8.8272646E-2,1.7621873E-2,-1.1041305E-1,6.817888E-2,-9.1566056E-2,3.7328522E-3,8.797805E-2,1.6271498E-2,8.571319E-2,2.1512795E-2,7.5761765E-2,-1.3261264E-2,7.775866E-2,-8.111482E-2,1.2317923E-2,8.738672E-2,-7.143169E-3,-1.1270572E-1,6.801456E-2,-1.1915081E-2,-9.36249E-2,7.198159E-2],"categories":[],"categories_nodes":[],"categories_segments":[],"categories_sizes":[],"default_left":[0,0,0,0,0,0,0,0,0,0,0,0,0,0,0,0,0,0,0,0,0,0,0,0,0,0,0,0,0,0,0,0,0,0,0,0,0,0,0,0,0,0,0,0,0,0,0,0,0,0,0,0,0,0,0,0,0,0,0,0,0,0,0,0,0,0,0,0,0,0,0],"id":7,"left_children":[1,3,5,7,9,11,13,15,17,19,-1,21,23,25,27,29,31,33,-1,35,-1,37,39,41,43,45,47,-1,49,-1,-1,-1,51,-1,-1,-1,-1,53,55,57,-1,59,61,63,-1,65,67,-1,69,-1,-1,-1,-1,-1,-1,-1,-1,-1,-1,-1,-1,-1,-1,-1,-1,-1,-1,-1,-1,-1,-1],"loss_changes":[5.905881E2,2.0365887E2,7.3488525E1,1.1512546E2,1.4295086E1,2.3019379E1,2.4985697E1,2.0357788E1,9.194185E0,7.0092316E0,0E0,2.3980408E0,5.4848328E1,2.0528345E1,2.6748886E0,1.1481452E1,1.3945374E1,7.1127768E0,0E0,3.1662917E0,0E0,9.6369505E0,1.8930054E-1,2.3849686E1,1.92836E0,1.1812847E1,7.6518273E0,0E0,3.5883236E-1,0E0,0E0,0E0,1.1249451E1,0E0,0E0,0E0,0E0,1.3928883E0,4.8015213E-1,2.4397812E0,0E0,1.6871796E0,1.4220676E1,1.4576721E0,0E0,2.7645836E0,1.1005462E0,0E0,1.00569315E1,0E0,0E0,0E0,0E0,0E0,0E0,0E0,0E0,0E0,0E0,0E0,0E0,0E0,0E0,0E0,0E0,0E0,0E0,0E0,0E0,0E0,0E0],"parents":[2147483647,0,0,1,1,2,2,3,3,4,4,5,5,6,6,7,7,8,8,9,9,11,11,12,12,13,13,14,14,15,15,16,16,17,17,19,19,21,21,22,22,23,23,24,24,25,25,26,26,28,28,32,32,37,37,38,38,39,39,41,41,42,42,43,43,45,45,46,46,48,48],"right_children":[2,4,6,8,10,12,14,16,18,20,-1,22,24,26,28,30,32,34,-1,36,-1,38,40,42,44,46,48,-1,50,-1,-1,-1,52,-1,-1,-1,-1,54,56,58,-1,60,62,64,-1,66,68,-1,70,-1,-1,-1,-1,-1,-1,-1,-1,-1,-1,-1,-1,-1,-1,-1,-1,-1,-1,-1,-1,-1,-1],"split_conditions":[3.645E3,1.79E0,2E0,1.02818E-1,3E0,2E-3,1.44E0,3.521E0,1.414E1,1.1609E1,-8.991839E-2,1.192E0,5.765E3,2.364805E1,1.0875E1,4.6E-1,8.518518E0,-8E-2,8.778682E-2,2.094E0,9.327167E-2,4E-1,1.37E-1,5.22E0,5.086348E1,7.666E3,2.389117E1,-1.3211331E-2,4.806561E1,-8.261993E-2,8.742775E-2,7.634199E-2,3.94E0,6.531518E-2,-8.650841E-2,-7.1466E-2,5.3798404E-2,2.25E0,1.3244432E2,0E0,9.330819E-2,1.06758E0,9.156626E0,2.8238327E2,-4.185559E-3,6.628E-3,8.996354E0,8.325587E-2,4.9706E-2,8.8272646E-2,1.7621873E-2,-1.1041305E-1,6.817888E-2,-9.1566056E-2,3.7328522E-3,8.797805E-2,1.6271498E-2,8.571319E-2,2.1512795E-2,7.5761765E-2,-1.3261264E-2,7.775866E-2,-8.111482E-2,1.2317923E-2,8.738672E-2,-7.143169E-3,-1.1270572E-1,6.801456E-2,-1.1915081E-2,-9.36249E-2,7.198159E-2],"split_indices":[0,52,20,7,20,40,49,14,9,33,0,5,0,18,37,52,18,27,0,28,0,52,4,14,31,0,18,0,31,0,0,0,43,0,0,0,0,9,2,27,0,8,18,30,0,7,18,0,7,0,0,0,0,0,0,0,0,0,0,0,0,0,0,0,0,0,0,0,0,0,0],"split_type":[0,0,0,0,0,0,0,0,0,0,0,0,0,0,0,0,0,0,0,0,0,0,0,0,0,0,0,0,0,0,0,0,0,0,0,0,0,0,0,0,0,0,0,0,0,0,0,0,0,0,0,0,0,0,0,0,0,0,0,0,0,0,0,0,0,0,0,0,0,0,0],"sum_hessian":[7.509001E2,3.521145E2,3.9878555E2,3.0589835E2,4.6216167E1,3.4902692E2,4.9758636E1,2.81976E2,2.3922318E1,4.4239403E1,1.9767672E0,2.3602287E2,1.1300405E2,3.7931396E1,1.1827241E1,7.1975546E0,2.7477847E2,5.089876E0,1.8832441E1,2.7521296E0,4.148727E1,1.3305393E1,2.2271747E2,3.756253E1,7.544152E1,2.5523046E1,1.2408352E1,1.587784E0,1.0239456E1,2.878868E0,4.318687E0,1.6387542E0,2.731397E2,2.1742303E0,2.9156458E0,1.7299323E0,1.0221972E0,2.6990533E0,1.060634E1,2.0883585E1,2.018339E2,1.0404086E1,2.7158445E1,7.416726E1,1.2742585E0,2.2620188E1,2.902858E0,5.849649E0,6.558703E0,9.221476E0,1.0179809E0,2.7176224E2,1.3774685E0,1.4959595E0,1.2030938E0,9.510721E0,1.0956196E0,1.569506E1,5.1885247E0,9.35684E0,1.047246E0,2.8183773E0,2.4340069E1,1.8478129E0,7.231944E1,1.6401005E0,2.0980087E1,1.8225452E0,1.080313E0,3.9553952E0,2.603308E0],"tree_param":{"num_deleted":"0","num_feature":"53","num_nodes":"71","size_leaf_vector":"1"}},{"base_weights":[2.2069374E-2,-8.785961E-1,8.2876307E-1,-1.1573447E0,9.918342E-1,9.874878E-1,-2.6300192E-1,-1.3166137E0,9.538359E-1,1.1157544E0,-8.612886E-2,1.1668949E0,6.116442E-1,-6.2218165E-1,9.647611E-1,-1.4776648E0,-8.294839E-1,-2.963824E-1,1.142145E0,-2.7494034E-1,9.15156E-2,6.6078913E-1,1.1944029E0,-2.5441676E-1,1.1320946E0,-1.086917E0,3.639349E-1,-3.629924E-2,8.759591E-2,-1.5139194E0,-7.317509E-1,6.257405E-1,-1.1034874E0,-7.738103E-2,3.927462E-2,3.3905905E-2,8.911948E-2,2.99999E-2,-5.6383926E-2,-7.5867504E-1,1.0725427E0,9.224012E-1,9.1350734E-2,-6.715172E-1,1.0443232E0,7.123645E-1,1.2055553E0,-1.2484559E0,6.525296E-2,8.115468E-2,-3.0762354E-1,-2.1198146E-2,-1.14011E-1,3.729103E-2,-8.586567E-2,-4.4102527E-2,8.1215665E-2,2.01434E-2,-9.7419254E-2,-8.889649E-2,5.1893657E-3,8.60032E-2,1.4156689E-2,8.361333E-2,2.0363495E-2,-6.8239346E-2,7.5701945E-2,8.839696E-2,2.3618229E-2,-1.5378213E-3,7.70867E-2,9.1620125E-2,1.3821743E-2,5.9424732E-2,-1.0264257E-1,-8.8873655E-2,7.1136996E-2],"categories":[],"categories_nodes":[],"categories_segments":[],"categories_sizes":[],"default_left":[0,0,0,0,0,0,0,0,0,0,0,0,0,0,0,0,0,0,0,0,0,0,0,0,0,0,0,0,0,0,0,0,0,0,0,0,0,0,0,0,0,0,0,0,0,0,0,0,0,0,0,0,0,0,0,0,0,0,0,0,0,0,0,0,0,0,0,0,0,0,0,0,0,0,0,0,0],"id":8,"left_children":[1,3,5,7,9,11,13,15,17,19,-1,21,23,25,27,29,31,33,35,37,-1,39,41,43,45,47,49,-1,-1,51,53,55,57,-1,-1,-1,-1,-1,-1,59,61,63,-1,65,67,69,71,73,-1,-1,75,-1,-1,-1,-1,-1,-1,-1,-1,-1,-1,-1,-1,-1,-1,-1,-1,-1,-1,-1,-1,-1,-1,-1,-1,-1,-1],"loss_changes":[5.267156E2,1.7973785E2,6.652719E1,1.0164804E2,1.3206783E1,2.1812866E1,2.2353607E1,2.0587677E1,5.4058685E0,6.583439E0,0E0,2.3436584E0,4.9890293E1,1.8164066E1,3.967188E0,4.5083923E0,2.9146072E1,2.7181673E0,6.4647675E-2,1.5304543E0,0E0,8.902104E0,2.3904419E-1,2.3520105E1,1.2663116E0,9.496174E0,6.68358E0,0E0,0E0,1.0817566E0,6.439346E0,7.265176E0,1.6550056E1,0E0,0E0,0E0,0E0,0E0,0E0,1.3878503E0,5.1384735E-1,2.335991E0,0E0,1.39357E1,6.702986E-1,2.9595594E0,7.1242523E-1,7.2088547E0,0E0,0E0,9.481501E0,0E0,0E0,0E0,0E0,0E0,0E0,0E0,0E0,0E0,0E0,0E0,0E0,0E0,0E0,0E0,0E0,0E0,0E0,0E0,0E0,0E0,0E0,0E0,0E0,0E0,0E0],"parents":[2147483647,0,0,1,1,2,2,3,3,4,4,5,5,6,6,7,7,8,8,9,9,11,11,12,12,13,13,14,14,15,15,16,16,17,17,18,18,19,19,21,21,22,22,23,23,24,24,25,25,26,26,29,29,30,30,31,31,32,32,39,39,40,40,41,41,43,43,44,44,45,45,46,46,47,47,50,50],"right_children":[2,4,6,8,10,12,14,16,18,20,-1,22,24,26,28,30,32,34,36,38,-1,40,42,44,46,48,50,-1,-1,52,54,56,58,-1,-1,-1,-1,-1,-1,60,62,64,-1,66,68,70,72,74,-1,-1,76,-1,-1,-1,-1,-1,-1,-1,-1,-1,-1,-1,-1,-1,-1,-1,-1,-1,-1,-1,-1,-1,-1,-1,-1,-1,-1],"split_conditions":[3.645E3,1.79E0,2E0,1.414E1,3E0,2E-3,1.64E0,5.3E-1,9.2633E-2,9.852E0,-8.612886E-2,1.192E0,6.111E3,2.364805E1,6.7E-1,2.3676962E2,5.4E-1,4E-2,1.3194E1,5.31E1,9.15156E-2,4E-1,1.37E-1,1.6E0,1.2E-2,1.901E3,2.389117E1,-3.629924E-2,8.759591E-2,1E1,3.8686E-1,2.8777356E2,5.8E0,-7.738103E-2,3.927462E-2,3.3905905E-2,8.911948E-2,2.99999E-2,-5.6383926E-2,1.934678E1,1.278E1,0E0,9.1350734E-2,6.763E-2,6.198E3,4.9E-1,2.6E-1,8.071877E0,6.525296E-2,8.115468E-2,4.9706E-2,-2.1198146E-2,-1.14011E-1,3.729103E-2,-8.586567E-2,-4.4102527E-2,8.1215665E-2,2.01434E-2,-9.7419254E-2,-8.889649E-2,5.1893657E-3,8.60032E-2,1.4156689E-2,8.361333E-2,2.0363495E-2,-6.8239346E-2,7.5701945E-2,8.839696E-2,2.3618229E-2,-1.5378213E-3,7.70867E-2,9.1620125E-2,1.3821743E-2,5.9424732E-2,-1.0264257E-1,-8.8873655E-2,7.1136996E-2],"split_indices":[0,52,20,9,20,40,52,49,7,38,0,5,0,18,9,18,49,49,36,19,0,52,4,52,40,12,18,0,0,19,8,30,14,0,0,0,0,0,0,41,9,27,0,7,25,49,27,18,0,0,7,0,0,0,0,0,0,0,0,0,0,0,0,0,0,0,0,0,0,0,0,0,0,0,0,0,0],"split_type":[0,0,0,0,0,0,0,0,0,0,0,0,0,0,0,0,0,0,0,0,0,0,0,0,0,0,0,0,0,0,0,0,0,0,0,0,0,0,0,0,0,0,0,0,0,0,0,0,0,0,0,0,0,0,0,0,0,0,0,0,0,0,0,0,0,0,0,0,0,0,0,0,0,0,0,0,0],"sum_hessian":[7.2294104E2,3.4153333E2,3.814077E2,2.9756824E2,4.3965084E1,3.3307898E2,4.8328716E1,2.770442E2,2.0524055E1,4.2011276E1,1.9538087E0,2.2403313E2,1.0904587E2,3.7771866E1,1.0556849E1,2.0667986E2,7.036432E1,2.6115556E0,1.7912498E1,2.8209517E0,3.9190323E1,1.2838868E1,2.1119426E2,4.1124077E1,6.792179E1,2.5603344E1,1.2168523E1,1.1284825E0,9.428366E0,1.9611807E2,1.0561786E1,1.0946118E1,5.94182E1,1.2407594E0,1.3707963E0,1.7987721E0,1.6113728E1,1.2346098E0,1.586342E0,2.6974E0,1.0141468E1,2.0065853E1,1.911284E2,3.1492851E1,9.631226E0,1.1710295E1,5.62115E1,2.3985481E1,1.617862E0,5.5849814E0,6.5835414E0,1.2203165E0,1.9489775E2,2.6059754E0,7.9558105E0,2.9163496E0,8.029769E0,7.361592E0,5.205661E1,1.4951775E0,1.2022226E0,9.081833E0,1.0596353E0,1.4936795E1,5.1290574E0,2.7983603E1,3.5092478E0,7.6135345E0,2.0176916E0,3.8051689E0,7.9051256E0,5.5148827E1,1.0626698E0,1.0221307E0,2.296335E1,3.9095047E0,2.6740367E0],"tree_param":{"num_deleted":"0","num_feature":"53","num_nodes":"77","size_leaf_vector":"1"}},{"base_weights":[2.2514505E-2,-8.4272045E-1,8.057698E-1,-1.107498E0,9.658459E-1,9.614203E-1,-2.4787113E-1,-1.2694912E0,8.176178E-1,1.090258E0,-8.2695045E-2,1.1418937E0,5.901242E-1,-6.093052E-1,8.856431E-1,-1.429037E0,-7.9381543E-1,-2.1604681E-1,1.1165868E0,-2.9206434E-1,8.96814E-2,6.348829E-1,1.1699637E0,-2.3460321E-1,1.1047775E0,-1.0593231E0,3.423003E-1,-1.3631248E-2,1.0638855E0,-8.181103E-3,-1.4405723E0,6.081821E-1,-1.0671695E0,6.490758E-2,-7.862269E-2,3.2706738E-2,8.7262645E-2,-6.471028E-2,3.3307727E-2,-7.255634E-1,1.0454171E0,8.932966E-1,8.9579366E-2,8.51028E-1,-7.0851547E-1,6.840507E-1,1.1803663E0,6.486635E-1,-1.2688485E0,7.921167E-2,-3.2674617E-1,8.506042E-2,1.825208E-2,-1.8339206E-2,-1.0858805E-1,-4.1818097E-2,7.826136E-2,1.8127078E-2,-9.446335E-2,-8.568202E-2,5.7415687E-3,1.2119351E-2,8.41805E-2,8.165761E-2,1.9269846E-2,-3.0412557E-2,7.6619074E-2,-7.37164E-2,7.3934816E-2,-1.4454685E-3,7.4927755E-2,8.976735E-2,1.3341011E-2,2.1493684E-3,6.7027144E-2,-1.0557218E-1,4.6889357E-2,-8.460919E-2,6.811526E-2],"categories":[],"categories_nodes":[],"categories_segments":[],"categories_sizes":[],"default_left":[0,0,0,0,0,0,0,0,0,0,0,0,0,0,0,0,0,0,0,0,0,0,0,0,0,0,0,0,0,0,0,0,0,0,0,0,0,0,0,0,0,0,0,0,0,0,0,0,0,0,0,0,0,0,0,0,0,0,0,0,0,0,0,0,0,0,0,0,0,0,0,0,0,0,0,0,0,0,0],"id":9,"left_children":[1,3,5,7,9,11,13,15,17,19,-1,21,23,25,27,29,31,33,35,37,-1,39,41,43,45,47,49,-1,51,-1,53,55,57,-1,-1,-1,-1,-1,-1,59,61,63,-1,65,67,69,71,73,75,-1,77,-1,-1,-1,-1,-1,-1,-1,-1,-1,-1,-1,-1,-1,-1,-1,-1,-1,-1,-1,-1,-1,-1,-1,-1,-1,-1,-1,-1],"loss_changes":[4.7194183E2,1.5952267E2,6.0179367E1,9.1195435E1,1.2213898E1,2.0679016E1,2.0138681E1,1.9132812E1,7.363553E0,6.308563E0,0E0,2.2936707E0,4.537637E1,1.6149704E1,2.4713821E0,2.8687134E0,2.721695E1,6.3151765E0,6.850433E-2,1.9383097E0,0E0,8.230959E0,2.9138184E-1,2.2041294E1,1.2796631E0,9.867445E0,6.3590775E0,0E0,3.238516E-1,0E0,1.3578796E0,6.6449523E0,1.5000542E1,0E0,0E0,0E0,0E0,0E0,0E0,1.3218884E0,5.4586315E-1,2.2419682E0,0E0,3.2253065E0,1.4706815E1,2.7603955E0,6.8624115E-1,4.944576E-1,6.8862457E0,0E0,8.213194E0,0E0,0E0,0E0,0E0,0E0,0E0,0E0,0E0,0E0,0E0,0E0,0E0,0E0,0E0,0E0,0E0,0E0,0E0,0E0,0E0,0E0,0E0,0E0,0E0,0E0,0E0,0E0,0E0],"parents":[2147483647,0,0,1,1,2,2,3,3,4,4,5,5,6,6,7,7,8,8,9,9,11,11,12,12,13,13,14,14,15,15,16,16,17,17,18,18,19,19,21,21,22,22,23,23,24,24,25,25,26,26,28,28,30,30,31,31,32,32,39,39,40,40,41,41,43,43,44,44,45,45,46,46,47,47,48,48,50,50],"right_children":[2,4,6,8,10,12,14,16,18,20,-1,22,24,26,28,30,32,34,36,38,-1,40,42,44,46,48,50,-1,52,-1,54,56,58,-1,-1,-1,-1,-1,-1,60,62,64,-1,66,68,70,72,74,76,-1,78,-1,-1,-1,-1,-1,-1,-1,-1,-1,-1,-1,-1,-1,-1,-1,-1,-1,-1,-1,-1,-1,-1,-1,-1,-1,-1,-1,-1],"split_conditions":[3.645E3,1.79E0,2E0,1.02818E-1,3E0,2E-3,1.44E0,5.3E-1,1.414E1,1.1609E1,-8.2695045E-2,1.192E0,6.111E3,2.364805E1,1.0875E1,1.1426E1,5.4E-1,-8E-2,1.3194E1,4E-1,8.96814E-2,4E-1,1.37E-1,5.51E0,1.2E-2,8.996354E0,2.389117E1,-1.3631248E-2,4E-2,-8.181103E-3,1.1E-3,2.8777356E2,5.8E0,6.490758E-2,-7.862269E-2,3.2706738E-2,8.7262645E-2,-6.471028E-2,3.3307727E-2,2.26E1,4.905E3,0E0,8.9579366E-2,1.6235E0,1.487E2,4.9E-1,2.6E-1,8E1,1.378E0,7.921167E-2,4.9706E-2,8.506042E-2,1.825208E-2,-1.8339206E-2,-1.0858805E-1,-4.1818097E-2,7.826136E-2,1.8127078E-2,-9.446335E-2,-8.568202E-2,5.7415687E-3,1.2119351E-2,8.41805E-2,8.165761E-2,1.9269846E-2,-3.0412557E-2,7.6619074E-2,-7.37164E-2,7.3934816E-2,-1.4454685E-3,7.4927755E-2,8.976735E-2,1.3341011E-2,2.1493684E-3,6.7027144E-2,-1.0557218E-1,4.6889357E-2,-8.460919E-2,6.811526E-2],"split_indices":[0,52,20,7,20,40,49,49,9,33,0,5,0,18,37,32,49,27,36,43,0,52,4,14,40,18,18,0,27,0,24,30,14,0,0,0,0,0,0,19,25,27,0,5,14,49,27,6,29,0,7,0,0,0,0,0,0,0,0,0,0,0,0,0,0,0,0,0,0,0,0,0,0,0,0,0,0,0,0],"split_type":[0,0,0,0,0,0,0,0,0,0,0,0,0,0,0,0,0,0,0,0,0,0,0,0,0,0,0,0,0,0,0,0,0,0,0,0,0,0,0,0,0,0,0,0,0,0,0,0,0,0,0,0,0,0,0,0,0,0,0,0,0,0,0,0,0,0,0,0,0,0,0,0,0,0,0,0,0,0,0],"sum_hessian":[6.943857E2,3.2989084E2,3.6449487E2,2.8810007E2,4.179078E1,3.1765622E2,4.6838657E1,2.66053E2,2.2047058E1,3.9865852E1,1.9249271E0,2.1236024E2,1.05295975E2,3.5865112E1,1.0973541E1,1.9772885E2,6.832416E1,5.0083613E0,1.7038696E1,2.7012975E0,3.7164555E1,1.2379254E1,1.9998099E2,4.066877E1,6.4627205E1,2.4273085E1,1.159203E1,1.567426E0,9.406116E0,1.8036048E0,1.9592525E2,1.0948066E1,5.737609E1,2.1607246E0,2.8476367E0,1.762929E0,1.5275767E1,1.4247159E0,1.2765816E0,2.6917727E0,9.687482E0,1.9272362E1,1.8070862E2,1.2116566E1,2.8552202E1,1.1373276E1,5.325393E1,2.4232907E0,2.1849794E1,5.328287E0,6.263743E0,8.31221E0,1.0939054E0,1.3926814E0,1.9453256E2,2.9002366E0,8.047829E0,7.318424E0,5.0057667E1,1.4920733E0,1.1996994E0,1.0245633E0,8.662918E0,1.4199732E1,5.0726295E0,1.2834915E0,1.0833075E1,2.4934334E1,3.6178696E0,3.808406E0,7.5648694E0,5.2199196E1,1.0547328E0,1.002816E0,1.4204748E0,2.0597387E1,1.2524055E0,3.8511684E0,2.4125743E0],"tree_param":{"num_deleted":"0","num_feature":"53","num_nodes":"79","size_leaf_vector":"1"}},{"base_weights":[2.2955764E-2,-8.106241E-1,7.843956E-1,-1.063085E0,9.418194E-1,9.370861E-1,-2.3343673E-1,-1.2183281E0,7.9387605E-1,1.0668681E0,-7.956459E-2,5.419382E-1,1.1063652E0,4.663038E-1,-7.8482497E-1,-1.3765695E0,-7.5335443E-1,-2.044567E-1,1.092841E0,-2.6464725E-1,8.8252135E-2,9.319585E-1,-6.509053E-1,5.08829E-1,1.1302903E0,7.26097E-1,-7.186591E-1,-1.2448981E0,5.904622E-1,-7.793613E-3,-1.3881221E0,-2.6442047E-2,-1.2694818E0,7.09436E-1,-8.516306E-2,3.1550877E-2,8.5557714E-2,2.8932031E-2,-5.3712707E-2,3.9387572E-1,1.0661746E0,-1.0405484E0,6.975333E-1,-6.7248714E-1,8.2498506E-2,1.1493995E0,6.070095E-1,1.0229648E0,1.646812E-1,-7.667367E-2,-6.0097207E-3,-1.3098954E0,-8.278481E-3,-5.3445894E-2,9.3288547E-1,-1.7564574E-2,-1.04655184E-1,5.4482E-2,-8.1418045E-2,6.980959E-2,-1.0294015E-1,7.409823E-2,5.6590103E-3,-5.2804362E-2,8.4154636E-2,7.5397934E-3,8.2206346E-2,-9.481655E-2,7.651843E-2,7.731645E-2,-3.7147154E-3,-7.7481344E-2,1.3652043E-2,8.650025E-2,2.1626165E-2,-1.6128683E-2,6.841212E-2,1.0150937E-2,8.8582836E-2,-3.703161E-2,6.9950975E-2,-1.03031E-1,-8.7803295E-3,6.592035E-3,8.203083E-2],"categories":[],"categories_nodes":[],"categories_segments":[],"categories_sizes":[],"default_left":[0,0,0,0,0,0,0,0,0,0,0,0,0,0,0,0,0,0,0,0,0,0,0,0,0,0,0,0,0,0,0,0,0,0,0,0,0,0,0,0,0,0,0,0,0,0,0,0,0,0,0,0,0,0,0,0,0,0,0,0,0,0,0,0,0,0,0,0,0,0,0,0,0,0,0,0,0,0,0,0,0,0,0,0,0],"id":10,"left_children":[1,3,5,7,9,11,13,15,17,19,-1,21,23,25,27,29,31,33,35,37,-1,39,41,43,45,47,49,51,53,-1,55,57,59,61,-1,-1,-1,-1,-1,63,65,67,69,71,-1,73,75,77,79,-1,-1,81,-1,-1,83,-1,-1,-1,-1,-1,-1,-1,-1,-1,-1,-1,-1,-1,-1,-1,-1,-1,-1,-1,-1,-1,-1,-1,-1,-1,-1,-1,-1,-1,-1],"loss_changes":[4.2373795E2,1.4200824E2,5.4439438E1,8.141232E1,1.131522E1,1.9706268E1,1.8234003E1,1.7940002E1,6.829853E0,5.981312E0,0E0,4.3875496E1,2.4494324E0,6.9979725E0,1.7359325E1,2.6671448E0,2.5364922E1,5.8626447E0,7.3926926E-2,1.3836358E0,0E0,4.6714783E0,1.30757265E1,7.697673E0,1.3282166E0,2.7901354E0,7.48997E-1,1.3309155E0,3.9061694E0,0E0,1.2644653E0,2.4016462E1,1.0249214E1,5.637864E-1,0E0,0E0,0E0,0E0,0E0,1.3310321E1,1.5025826E0,9.880495E0,1.5124218E0,1.4032267E0,0E0,3.2629395E-1,2.5183308E0,1.4431019E0,4.1680956E0,0E0,0E0,1.273571E0,0E0,0E0,7.4466133E-1,0E0,0E0,0E0,0E0,0E0,0E0,0E0,0E0,0E0,0E0,0E0,0E0,0E0,0E0,0E0,0E0,0E0,0E0,0E0,0E0,0E0,0E0,0E0,0E0,0E0,0E0,0E0,0E0,0E0,0E0],"parents":[2147483647,0,0,1,1,2,2,3,3,4,4,5,5,6,6,7,7,8,8,9,9,11,11,12,12,13,13,14,14,15,15,16,16,17,17,18,18,19,19,21,21,22,22,23,23,24,24,25,25,26,26,27,27,28,28,30,30,31,31,32,32,33,33,39,39,40,40,41,41,42,42,43,43,45,45,46,46,47,47,48,48,51,51,54,54],"right_children":[2,4,6,8,10,12,14,16,18,20,-1,22,24,26,28,30,32,34,36,38,-1,40,42,44,46,48,50,52,54,-1,56,58,60,62,-1,-1,-1,-1,-1,64,66,68,70,72,-1,74,76,78,80,-1,-1,82,-1,-1,84,-1,-1,-1,-1,-1,-1,-1,-1,-1,-1,-1,-1,-1,-1,-1,-1,-1,-1,-1,-1,-1,-1,-1,-1,-1,-1,-1,-1,-1,-1],"split_conditions":[3.645E3,1.79E0,2E0,1.02818E-1,3E0,5.374E3,2E-3,5.3E-1,1.414E1,9.852E0,-7.956459E-2,7.4E-2,1.1627E0,1.2E-1,7.254E3,1.1426E1,2E-3,1.2043E0,1.3194E1,1.1906E-1,8.8252135E-2,4.9E-1,1.29E0,5.306E3,8.998E1,-5E-3,5.482E3,9.526E-1,2.8448245E2,-7.793613E-3,1.1E-3,2E0,8.518518E0,1.0331487E2,-8.516306E-2,3.1550877E-2,8.5557714E-2,2.8932031E-2,-5.3712707E-2,1.214E1,1.171E-1,1.332E0,5.601E-1,5.3E-1,8.2498506E-2,5.1417465E1,6.823E3,3.5E-1,1.01E0,-7.667367E-2,-6.0097207E-3,1.49E0,-8.278481E-3,-5.3445894E-2,3.5E1,-1.7564574E-2,-1.04655184E-1,5.4482E-2,-8.1418045E-2,6.980959E-2,-1.0294015E-1,7.409823E-2,5.6590103E-3,-5.2804362E-2,8.4154636E-2,7.5397934E-3,8.2206346E-2,-9.481655E-2,7.651843E-2,7.731645E-2,-3.7147154E-3,-7.7481344E-2,1.3652043E-2,8.650025E-2,2.1626165E-2,-1.6128683E-2,6.841212E-2,1.0150937E-2,8.8582836E-2,-3.703161E-2,6.9950975E-2,-1.03031E-1,-8.7803295E-3,6.592035E-3,8.203083E-2],"split_indices":[0,52,20,7,20,0,40,49,9,38,0,40,5,27,0,32,40,8,36,8,0,49,49,25,11,51,0,4,30,0,24,20,18,17,0,0,0,0,0,9,15,29,24,52,0,42,0,49,51,0,0,43,0,0,21,0,0,0,0,0,0,0,0,0,0,0,0,0,0,0,0,0,0,0,0,0,0,0,0,0,0,0,0,0,0],"split_type":[0,0,0,0,0,0,0,0,0,0,0,0,0,0,0,0,0,0,0,0,0,0,0,0,0,0,0,0,0,0,0,0,0,0,0,0,0,0,0,0,0,0,0,0,0,0,0,0,0,0,0,0,0,0,0,0,0,0,0,0,0,0,0,0,0,0,0,0,0,0,0,0,0,0,0,0,0,0,0,0,0,0,0,0,0],"sum_hessian":[6.655955E2,3.1771503E2,3.478805E2,2.7805167E2,3.9663372E1,3.025697E2,4.5310795E1,2.5691714E2,2.113452E1,3.7772137E1,1.8912354E0,9.200469E1,2.10565E2,2.0037045E1,2.5273748E1,1.9022021E2,6.669693E1,4.943344E0,1.6191175E1,2.7707384E0,3.5001396E1,6.94994E1,2.2505295E1,8.963612E0,2.0160138E2,1.675163E1,3.2854142E0,1.9009375E1,6.2643743E0,1.801101E0,1.8841911E2,2.8129976E1,3.856695E1,2.6147788E0,2.3285656E0,1.7284261E0,1.446275E1,1.1950049E0,1.5757334E0,1.4660191E1,5.483921E1,1.7637203E1,4.868092E0,2.9436438E0,6.019968E0,1.9334428E2,8.257105E0,1.0419727E1,6.3319035E0,1.8192244E0,1.4661899E0,1.7833122E1,1.1762527E0,1.0786275E0,5.185747E0,1.3892773E0,1.8702985E2,1.6625856E1,1.1504121E1,1.3661617E0,3.720079E1,1.4287096E0,1.186069E0,5.8591304E0,8.801061E0,1.7785887E0,5.306062E1,1.6259035E1,1.3781683E0,3.1033876E0,1.7647047E0,1.9231284E0,1.0205156E0,1.9212634E2,1.217939E0,2.315251E0,5.9418545E0,1.8563149E0,8.563413E0,3.6013823E0,2.7305214E0,1.6783058E1,1.0500643E0,1.0766274E0,4.1091194E0],"tree_param":{"num_deleted":"0","num_feature":"53","num_nodes":"85","size_leaf_vector":"1"}},{"base_weights":[2.291474E-2,-7.8190684E-1,7.6293105E-1,-1.0235788E0,9.1910815E-1,9.138621E-1,-2.2292471E-1,-1.1606461E0,9.334033E-1,1.044818E0,-7.669452E-2,1.0978938E0,5.4684216E-1,-5.4351294E-1,8.9650536E-1,3.0588904E-1,-1.202734E0,2.6283773E-2,1.0656362E0,-2.8183344E-1,8.672865E-2,5.8482325E-1,1.1273354E0,-2.1131437E-1,1.0536004E0,-9.536517E-1,3.4231102E-1,-3.3252023E-2,8.337043E-2,-7.6988125E-1,8.224618E-2,7.994545E-2,-1.2226279E0,6.729589E-2,-6.519562E-2,2.6664425E-2,8.38082E-2,-6.1298158E-2,3.1386536E-2,-6.792989E-1,9.9554676E-1,8.629234E-2,7.940901E-1,7.692989E-1,-6.536608E-1,6.109413E-1,1.1366291E0,-1.1076659E0,6.2166404E-2,-5.3574663E-1,7.9317063E-1,-7.571471E-2,-7.7002724E-3,-6.7380086E-2,-1.01479515E-1,-8.00924E-2,5.491129E-3,8.068494E-2,1.0990254E-2,-2.5937675E-2,7.226276E-2,-1.9537177E-2,6.907023E-2,7.799693E-2,-6.7340784E-2,-6.1936346E-3,7.0673324E-2,8.797823E-2,3.939836E-2,3.2290567E-2,-9.325852E-2,-6.612792E-2,2.5197105E-2,7.433964E-2,-1.5745834E-2],"categories":[],"categories_nodes":[],"categories_segments":[],"categories_sizes":[],"default_left":[0,0,0,0,0,0,0,0,0,0,0,0,0,0,0,0,0,0,0,0,0,0,0,0,0,0,0,0,0,0,0,0,0,0,0,0,0,0,0,0,0,0,0,0,0,0,0,0,0,0,0,0,0,0,0,0,0,0,0,0,0,0,0,0,0,0,0,0,0,0,0,0,0,0,0],"id":11,"left_children":[1,3,5,7,9,11,13,15,17,19,-1,21,23,25,27,29,31,33,35,37,-1,39,41,43,45,47,49,-1,-1,51,-1,-1,53,-1,-1,-1,-1,-1,-1,55,57,-1,59,61,63,65,67,69,-1,71,73,-1,-1,-1,-1,-1,-1,-1,-1,-1,-1,-1,-1,-1,-1,-1,-1,-1,-1,-1,-1,-1,-1,-1,-1],"loss_changes":[3.8070703E2,1.26822464E2,4.9753098E1,7.313107E1,1.0495335E1,1.8918625E1,1.66426E1,1.58888855E1,2.1473455E0,5.76762E0,0E0,2.2332E0,3.806774E1,1.3266529E1,3.489994E0,7.4899235E0,1.2344849E1,3.379486E0,1.8408012E-1,1.7130779E0,0E0,7.1505218E0,4.7979736E-1,1.7982038E1,1.4816589E0,7.6742783E0,5.1785793E0,0E0,0E0,5.195048E-1,0E0,0E0,9.060272E0,0E0,0E0,0E0,0E0,0E0,0E0,1.1462244E0,5.112524E-1,0E0,3.2218523E0,2.2677183E0,1.2643045E1,2.723773E0,4.6772766E-1,5.355871E0,0E0,1.7047892E0,1.864181E0,0E0,0E0,0E0,0E0,0E0,0E0,0E0,0E0,0E0,0E0,0E0,0E0,0E0,0E0,0E0,0E0,0E0,0E0,0E0,0E0,0E0,0E0,0E0,0E0],"parents":[2147483647,0,0,1,1,2,2,3,3,4,4,5,5,6,6,7,7,8,8,9,9,11,11,12,12,13,13,14,14,15,15,16,16,17,17,18,18,19,19,21,21,22,22,23,23,24,24,25,25,26,26,29,29,32,32,39,39,40,40,42,42,43,43,44,44,45,45,46,46,47,47,49,49,50,50],"right_children":[2,4,6,8,10,12,14,16,18,20,-1,22,24,26,28,30,32,34,36,38,-1,40,42,44,46,48,50,-1,-1,52,-1,-1,54,-1,-1,-1,-1,-1,-1,56,58,-1,60,62,64,66,68,70,-1,72,74,-1,-1,-1,-1,-1,-1,-1,-1,-1,-1,-1,-1,-1,-1,-1,-1,-1,-1,-1,-1,-1,-1,-1,-1],"split_conditions":[3.645E3,1.79E0,2E0,1.19641E-1,3E0,2E-3,1.64E0,3.521E0,1.361E1,1.1609E1,-7.669452E-2,1.192E0,6.111E3,2.364805E1,6.94E-1,4.6E-1,8.518518E0,1.2043E0,1.3194E1,4E-1,8.672865E-2,4E-1,1.2E-1,6.48E0,1.2E-2,1.901E3,-8E-3,-3.3252023E-2,8.337043E-2,1.92E3,8.224618E-2,7.994545E-2,2E-3,6.729589E-2,-6.519562E-2,2.6664425E-2,8.38082E-2,-6.1298158E-2,3.1386536E-2,2.329E-1,4.608E0,8.629234E-2,2.1E1,1.6235E0,8.896265E0,4.9E-1,1.8E-1,8.7930565E0,6.2166404E-2,2.82E0,4.632464E1,-7.571471E-2,-7.7002724E-3,-6.7380086E-2,-1.01479515E-1,-8.00924E-2,5.491129E-3,8.068494E-2,1.0990254E-2,-2.5937675E-2,7.226276E-2,-1.9537177E-2,6.907023E-2,7.799693E-2,-6.7340784E-2,-6.1936346E-3,7.0673324E-2,8.797823E-2,3.939836E-2,3.2290567E-2,-9.325852E-2,-6.612792E-2,2.5197105E-2,7.433964E-2,-1.5745834E-2],"split_indices":[0,52,20,7,20,40,52,14,9,33,0,5,0,18,29,52,18,8,36,43,0,52,27,14,40,12,48,0,0,12,0,0,40,0,0,0,0,0,0,15,26,0,21,5,18,49,27,18,0,9,42,0,0,0,0,0,0,0,0,0,0,0,0,0,0,0,0,0,0,0,0,0,0,0,0],"split_type":[0,0,0,0,0,0,0,0,0,0,0,0,0,0,0,0,0,0,0,0,0,0,0,0,0,0,0,0,0,0,0,0,0,0,0,0,0,0,0,0,0,0,0,0,0,0,0,0,0,0,0,0,0,0,0,0,0,0,0,0,0,0,0,0,0,0,0,0,0,0,0,0,0,0,0],"sum_hessian":[6.3721783E2,3.0521628E2,3.3200153E2,2.6759583E2,3.7620457E1,2.8798505E2,4.4016476E1,2.5046046E2,1.7135376E1,3.5766747E1,1.8537095E0,1.9048195E2,9.7503105E1,3.461712E1,9.399357E0,6.8125396E0,2.4364792E2,2.3325825E0,1.48027935E1,2.656077E0,3.3110672E1,1.146955E1,1.7901239E2,3.929589E1,5.820722E1,2.3609354E1,1.1007763E1,1.1534302E0,8.245927E0,2.8972464E0,3.915293E0,1.6608794E0,2.4198705E2,1.181535E0,1.1510476E0,1.5411296E0,1.3261664E1,1.4105219E0,1.245555E0,2.652327E0,8.817224E0,1.6505455E2,1.3957843E1,1.1985893E1,2.7309998E1,1.0513537E1,4.769368E1,2.208019E1,1.5291636E0,3.6707087E0,7.337054E0,1.7541381E0,1.1431081E0,7.168396E1,1.7030307E2,1.472709E0,1.1796181E0,7.8117037E0,1.0055197E0,1.6712418E0,1.2286601E1,1.4462552E0,1.0539638E1,3.031115E0,2.4278881E1,3.6419957E0,6.8715415E0,4.4145237E1,3.5484447E0,1.6148939E0,2.0465298E1,2.6195903E0,1.0511183E0,6.137362E0,1.1996918E0],"tree_param":{"num_deleted":"0","num_feature":"53","num_nodes":"75","size_leaf_vector":"1"}},{"base_weights":[2.3376651E-2,-7.53477E-1,7.435059E-1,-9.844382E-1,8.9787745E-1,8.9222157E-1,-2.1143825E-1,-1.1220149E0,8.461367E-1,1.0243833E0,-7.404938E-2,1.0776646E0,5.2912277E-1,-5.251257E-1,8.6056703E-1,-1.2871509E0,-6.501222E-1,-1.8379836E-1,1.0185707E0,-2.7013198E-1,8.541797E-2,5.629289E-1,1.107792E0,-1.9698395E-1,1.0311403E0,-9.129224E-1,3.1686863E-1,8.084486E-2,-7.66137E-3,-1.3223321E0,-5.9273833E-1,4.3374564E-2,-1.1747192E0,-6.67371E-2,4.1433055E-2,1.7596874E-2,1.058392E0,-5.8714826E-2,3.0263765E-2,-6.519908E-1,9.7262514E-1,7.9877347E-1,8.522804E-2,-5.465124E-1,9.681944E-1,5.8656245E-1,1.1170865E0,5.910738E-1,-1.1003428E0,7.435181E-2,-2.769511E-1,-9.990076E-2,-1.6554084E-2,3.4055334E-2,-7.948753E-2,5.4735657E-2,-7.0548825E-2,6.5030426E-2,-9.559003E-2,3.0711921E-2,8.361185E-2,-7.8158915E-2,6.726216E-3,1.146491E-2,7.931229E-2,7.632764E-2,1.1400386E-2,-6.115203E-2,4.856465E-2,8.349692E-2,1.7956158E-2,-5.8121877E-3,6.882012E-2,8.6628556E-2,3.7837096E-2,6.0328025E-2,4.041902E-3,-9.846482E-2,5.9353327E-3,-7.655216E-2,6.537039E-2],"categories":[],"categories_nodes":[],"categories_segments":[],"categories_sizes":[],"default_left":[0,0,0,0,0,0,0,0,0,0,0,0,0,0,0,0,0,0,0,0,0,0,0,0,0,0,0,0,0,0,0,0,0,0,0,0,0,0,0,0,0,0,0,0,0,0,0,0,0,0,0,0,0,0,0,0,0,0,0,0,0,0,0,0,0,0,0,0,0,0,0,0,0,0,0,0,0,0,0,0,0],"id":12,"left_children":[1,3,5,7,9,11,13,15,17,19,-1,21,23,25,27,29,31,33,35,37,-1,39,41,43,45,47,49,-1,-1,51,53,55,57,-1,-1,-1,59,-1,-1,61,63,65,-1,67,69,71,73,75,77,-1,79,-1,-1,-1,-1,-1,-1,-1,-1,-1,-1,-1,-1,-1,-1,-1,-1,-1,-1,-1,-1,-1,-1,-1,-1,-1,-1,-1,-1,-1,-1],"loss_changes":[3.422774E2,1.13143524E2,4.5276886E1,6.6101105E1,9.749229E0,1.7939926E1,1.5109892E1,1.794696E1,3.4999895E0,5.4705276E0,0E0,2.1832886E0,3.4795418E1,1.1502976E1,2.2543116E0,3.5534973E0,2.3518736E1,2.322474E0,2.5525665E-1,1.5727379E0,0E0,6.6277018E0,5.9342957E-1,1.6669416E1,1.4947281E0,7.350931E0,4.9093666E0,0E0,0E0,1.4988403E0,5.553414E0,2.0103065E1,8.597008E0,0E0,0E0,0E0,9.521294E-2,0E0,0E0,1.145318E0,4.927702E-1,2.359353E0,0E0,1.051963E1,7.3865986E-1,2.5378373E0,4.8807526E-1,3.3299446E-1,5.48979E0,0E0,6.814226E0,0E0,0E0,0E0,0E0,0E0,0E0,0E0,0E0,0E0,0E0,0E0,0E0,0E0,0E0,0E0,0E0,0E0,0E0,0E0,0E0,0E0,0E0,0E0,0E0,0E0,0E0,0E0,0E0,0E0,0E0],"parents":[2147483647,0,0,1,1,2,2,3,3,4,4,5,5,6,6,7,7,8,8,9,9,11,11,12,12,13,13,14,14,15,15,16,16,17,17,18,18,19,19,21,21,22,22,23,23,24,24,25,25,26,26,29,29,30,30,31,31,32,32,36,36,39,39,40,40,41,41,43,43,44,44,45,45,46,46,47,47,48,48,50,50],"right_children":[2,4,6,8,10,12,14,16,18,20,-1,22,24,26,28,30,32,34,36,38,-1,40,42,44,46,48,50,-1,-1,52,54,56,58,-1,-1,-1,60,-1,-1,62,64,66,-1,68,70,72,74,76,78,-1,80,-1,-1,-1,-1,-1,-1,-1,-1,-1,-1,-1,-1,-1,-1,-1,-1,-1,-1,-1,-1,-1,-1,-1,-1,-1,-1,-1,-1,-1,-1],"split_conditions":[3.645E3,1.79E0,2E0,1.361E1,3E0,2E-3,1.63E0,5.3E-1,9.2633E-2,1.1609E1,-7.404938E-2,1.192E0,6.111E3,2.364805E1,3E0,2.3676962E2,2E-3,1.761E1,-3.17E-1,4E-1,8.541797E-2,4E-1,1.37E-1,1.6E0,1.2E-2,8.996354E0,2.389117E1,8.084486E-2,-7.66137E-3,9.71E-1,-3.965E-2,2E0,8.518518E0,-6.67371E-2,4.1433055E-2,1.7596874E-2,4.845E-2,-5.8714826E-2,3.0263765E-2,2.25E0,4.69E2,0E0,8.522804E-2,4.02E0,6.198E3,4.9E-1,1.8E-1,9.87885E0,1.453E3,7.435181E-2,4.9706E-2,-9.990076E-2,-1.6554084E-2,3.4055334E-2,-7.948753E-2,5.4735657E-2,-7.0548825E-2,6.5030426E-2,-9.559003E-2,3.0711921E-2,8.361185E-2,-7.8158915E-2,6.726216E-3,1.146491E-2,7.931229E-2,7.632764E-2,1.1400386E-2,-6.115203E-2,4.856465E-2,8.349692E-2,1.7956158E-2,-5.8121877E-3,6.882012E-2,8.6628556E-2,3.7837096E-2,6.0328025E-2,4.041902E-3,-9.846482E-2,5.9353327E-3,-7.655216E-2,6.537039E-2],"split_indices":[0,52,20,9,20,40,49,49,7,33,0,5,0,18,20,18,40,9,47,43,0,52,4,52,40,18,18,0,0,4,43,20,18,0,0,0,8,0,0,9,21,27,0,9,25,49,27,1,12,0,7,0,0,0,0,0,0,0,0,0,0,0,0,0,0,0,0,0,0,0,0,0,0,0,0,0,0,0,0,0,0],"split_type":[0,0,0,0,0,0,0,0,0,0,0,0,0,0,0,0,0,0,0,0,0,0,0,0,0,0,0,0,0,0,0,0,0,0,0,0,0,0,0,0,0,0,0,0,0,0,0,0,0,0,0,0,0,0,0,0,0,0,0,0,0,0,0,0,0,0,0,0,0,0,0,0,0,0,0,0,0,0,0,0,0],"sum_hessian":[6.098255E2,2.9333658E2,3.1648892E2,2.576983E2,3.5638256E1,2.738996E2,4.258934E1,2.4004483E2,1.7653477E1,3.3825054E1,1.8131998E0,1.8000093E2,9.389866E1,3.33428E1,9.246538E0,1.7653859E2,6.3506252E1,2.5222657E0,1.513121E1,2.638776E0,3.118628E1,1.1041352E1,1.6895958E2,3.8631115E1,5.5267544E1,2.277096E1,1.0571842E1,7.445749E0,1.8007894E0,1.6716519E2,9.373393E0,2.7745327E1,3.576092E1,1.1810571E0,1.3412086E0,1.0646116E0,1.4066599E1,1.4062874E0,1.2324888E0,2.635273E0,8.406079E0,1.675509E1,1.5220448E2,3.0125172E1,8.505942E0,1.0221101E1,4.5046444E1,2.284528E0,2.0486431E1,4.6362777E0,5.935564E0,1.6550208E2,1.6631247E0,2.9006407E0,6.4727526E0,1.6496254E1,1.1249074E1,1.3084589E0,3.4452465E1,1.786024E0,1.2280575E1,1.4614463E0,1.1738266E0,1.0514538E0,7.3546257E0,1.2089373E1,4.665719E0,2.4847664E1,5.2775087E0,6.6536136E0,1.8523284E0,3.6550467E0,6.566054E0,4.158407E1,3.4623747E0,1.2791985E0,1.0053295E0,1.726288E1,3.2235506E0,3.6702359E0,2.2653282E0],"tree_param":{"num_deleted":"0","num_feature":"53","num_nodes":"81","size_leaf_vector":"1"}},{"base_weights":[2.3728864E-2,-7.2962487E-1,7.253185E-1,-9.5174223E-1,8.777654E-1,8.7143934E-1,-2.0033816E-1,-1.0928454E0,7.415732E-1,1.0051379E0,-7.159973E-2,4.8239213E-1,1.0446827E0,-5.3958017E-1,7.3710173E-1,-1.2564604E0,-6.344516E-1,-1.3714091E-1,1.031873E0,-2.5782812E-1,8.43706E-2,8.5575783E-1,-5.889583E-1,1.0822806E0,6.059225E-1,-9.460185E-1,2.984472E-1,-4.0258592E-1,1.0408834E0,-1.2736477E0,-2.0281532E-1,6.1539215E-1,-8.949528E-1,6.159774E-2,-6.919753E-2,2.736784E-2,8.136512E-2,2.7688725E-2,-5.138152E-2,5.7222986E-1,8.516308E-2,-9.4626504E-1,6.426915E-1,1.0962574E0,2.4203749E-1,-4.9281307E-2,7.313222E-1,-1.1139055E0,5.984195E-2,7.23204E-2,-2.6427263E-1,-6.0415726E-2,1.3554112E-2,8.385412E-2,1.5765633E-2,-9.623533E-2,-1.4763654E-2,3.508463E-2,-6.1626617E-2,-3.247844E-2,7.501901E-2,2.1665026E-2,-8.1463106E-2,-2.0962574E-2,7.801123E-2,3.558817E-2,-9.3136385E-2,7.33265E-2,-5.536797E-3,1.2068908E-2,8.25889E-2,-4.6330903E-2,5.879726E-2,-1.7421382E-2,6.9100946E-2,2.9700832E-2,-9.494598E-2,-7.33737E-2,6.374337E-2],"categories":[],"categories_nodes":[],"categories_segments":[],"categories_sizes":[],"default_left":[0,0,0,0,0,0,0,0,0,0,0,0,0,0,0,0,0,0,0,0,0,0,0,0,0,0,0,0,0,0,0,0,0,0,0,0,0,0,0,0,0,0,0,0,0,0,0,0,0,0,0,0,0,0,0,0,0,0,0,0,0,0,0,0,0,0,0,0,0,0,0,0,0,0,0,0,0,0,0],"id":13,"left_children":[1,3,5,7,9,11,13,15,17,19,-1,21,23,25,27,29,31,33,35,37,-1,39,41,43,45,47,49,51,53,55,57,59,61,-1,-1,-1,-1,-1,-1,63,-1,65,67,69,71,-1,73,75,-1,-1,77,-1,-1,-1,-1,-1,-1,-1,-1,-1,-1,-1,-1,-1,-1,-1,-1,-1,-1,-1,-1,-1,-1,-1,-1,-1,-1,-1,-1],"loss_changes":[3.088841E2,1.0145409E2,4.110103E1,6.0086166E1,9.066919E0,1.7122177E1,1.3775358E1,1.6408417E1,5.1613064E0,5.277939E0,0E0,3.347712E1,2.314972E0,1.0999569E1,4.43528E0,2.784851E0,2.0855593E1,5.1012754E0,1.3110638E-1,1.2360091E0,0E0,4.231083E0,1.0243895E1,1.6676788E0,3.091547E0,7.162634E0,4.389942E0,8.8889986E-1,3.699894E-1,1.4351501E0,1.9973928E0,5.0125012E0,1.2088539E1,0E0,0E0,0E0,0E0,0E0,0E0,1.3274241E1,0E0,7.88587E0,1.3969364E0,5.67749E-1,2.3370988E0,0E0,3.0466862E0,5.0844765E0,0E0,0E0,6.2145915E0,0E0,0E0,0E0,0E0,0E0,0E0,0E0,0E0,0E0,0E0,0E0,0E0,0E0,0E0,0E0,0E0,0E0,0E0,0E0,0E0,0E0,0E0,0E0,0E0,0E0,0E0,0E0,0E0],"parents":[2147483647,0,0,1,1,2,2,3,3,4,4,5,5,6,6,7,7,8,8,9,9,11,11,12,12,13,13,14,14,15,15,16,16,17,17,18,18,19,19,21,21,22,22,23,23,24,24,25,25,26,26,27,27,28,28,29,29,30,30,31,31,32,32,39,39,41,41,42,42,43,43,44,44,46,46,47,47,50,50],"right_children":[2,4,6,8,10,12,14,16,18,20,-1,22,24,26,28,30,32,34,36,38,-1,40,42,44,46,48,50,52,54,56,58,60,62,-1,-1,-1,-1,-1,-1,64,-1,66,68,70,72,-1,74,76,-1,-1,78,-1,-1,-1,-1,-1,-1,-1,-1,-1,-1,-1,-1,-1,-1,-1,-1,-1,-1,-1,-1,-1,-1,-1,-1,-1,-1,-1,-1],"split_conditions":[3.645E3,1.79E0,2E0,1.02818E-1,3E0,5.374E3,1.32E0,5.3E-1,1.414E1,9.852E0,-7.159973E-2,8E-2,1.2E-1,2.364805E1,4.924E3,2.314E0,5.4E-1,-8E-2,1.3194E1,3.97E0,8.43706E-2,1.9E0,1.29E0,5.105893E1,2.854243E2,1.901E3,2.389117E1,1.3419E1,5E-2,1.531E3,-3E-2,2.8777356E2,5.8E0,6.159774E-2,-6.919753E-2,2.736784E-2,8.136512E-2,2.7688725E-2,-5.138152E-2,5.6787224E0,8.516308E-2,1.3333E1,5.601E-1,2.8111176E2,6.111E3,-4.9281307E-2,8.2E-2,8.7930565E0,5.984195E-2,7.23204E-2,4.9706E-2,-6.0415726E-2,1.3554112E-2,8.385412E-2,1.5765633E-2,-9.623533E-2,-1.4763654E-2,3.508463E-2,-6.1626617E-2,-3.247844E-2,7.501901E-2,2.1665026E-2,-8.1463106E-2,-2.0962574E-2,7.801123E-2,3.558817E-2,-9.3136385E-2,7.33265E-2,-5.536797E-3,1.2068908E-2,8.25889E-2,-4.6330903E-2,5.879726E-2,-1.7421382E-2,6.9100946E-2,2.9700832E-2,-9.494598E-2,-7.33737E-2,6.374337E-2],"split_indices":[0,52,20,7,20,0,49,49,9,38,0,40,27,18,0,28,49,27,36,26,0,49,49,31,30,12,18,32,27,21,44,30,14,0,0,0,0,0,0,17,0,32,24,30,0,0,4,18,0,0,7,0,0,0,0,0,0,0,0,0,0,0,0,0,0,0,0,0,0,0,0,0,0,0,0,0,0,0,0],"split_type":[0,0,0,0,0,0,0,0,0,0,0,0,0,0,0,0,0,0,0,0,0,0,0,0,0,0,0,0,0,0,0,0,0,0,0,0,0,0,0,0,0,0,0,0,0,0,0,0,0,0,0,0,0,0,0,0,0,0,0,0,0,0,0,0,0,0,0,0,0,0,0,0,0,0,0,0,0,0,0],"sum_hessian":[5.824031E2,2.8082187E2,3.015812E2,2.4708614E2,3.3735725E1,2.605157E2,4.1065514E1,2.2840765E2,1.8678488E1,3.1965282E1,1.7704422E0,8.143166E1,1.7908403E2,3.046515E1,1.0600361E1,1.670436E2,6.1364067E1,4.76942E0,1.3909067E1,2.6696582E0,2.9295624E1,6.0536076E1,2.089559E1,1.6359839E2,1.5485637E1,2.0428558E1,1.0036593E1,2.1624234E0,8.437937E0,1.6415703E2,2.886562E0,1.0348971E1,5.1015095E1,2.1276772E0,2.6417427E0,1.6042701E0,1.2304797E1,1.1370056E0,1.5326526E0,3.157756E1,2.8958515E1,1.6376429E1,4.5191607E0,1.6062189E2,2.976509E0,1.0157043E0,1.4469933E1,1.8964132E1,1.4644245E0,4.270287E0,5.766307E0,1.0535936E0,1.1088297E0,7.40412E0,1.0338175E0,1.6253297E2,1.6240541E0,1.5025343E0,1.384028E0,2.7452283E0,7.6037436E0,7.023468E0,4.3991627E1,1.1339506E1,2.0238054E1,2.7157714E0,1.3660657E1,2.831048E0,1.6881125E0,1.018187E0,1.596037E2,1.0966815E0,1.8798276E0,2.346824E0,1.2123109E1,1.5880989E0,1.7376034E1,3.5885012E0,2.1778057E0],"tree_param":{"num_deleted":"0","num_feature":"53","num_nodes":"79","size_leaf_vector":"1"}},{"base_weights":[2.3830885E-2,-7.0717204E-1,7.072098E-1,-9.1748923E-1,8.866383E-1,8.5044587E-1,-1.9000134E-1,-1.0569901E0,7.3203343E-1,1.0031402E0,-6.5869085E-2,1.0404775E0,4.9078268E-1,4.2947748E-1,-6.79163E-1,-1.223248E0,-6.056841E-1,-1.3011299E-1,7.648269E-2,-2.6645202E-2,8.318554E-2,5.036843E-1,1.073372E0,-1.7857839E-1,9.871873E-1,6.473874E-1,-5.9644442E-2,-1.1001915E0,5.593468E-1,-1.244614E0,-3.188006E-1,1.9951241E-2,-1.1018473E0,6.878502E-1,-7.634395E-2,-6.501731E-1,9.286266E-1,7.43034E-1,8.2878664E-2,7.5620484E-1,-5.633359E-1,5.171767E-1,1.082423E0,9.6324235E-1,1.3744956E-1,-1.1612452E0,-5.4314244E-3,-3.5477437E-2,8.67993E-1,-9.408329E-2,-1.4126292E-2,4.7889378E-2,-5.7744052E-2,4.9047153E-2,-6.9911934E-2,6.5258585E-2,-9.048798E-2,7.072017E-2,6.3864426E-3,6.2111584E-3,-7.7259846E-2,7.643341E-2,9.016095E-3,7.897393E-2,1.7547602E-2,-2.5131872E-2,6.915189E-2,6.31642E-2,-6.1959647E-2,-1.0215132E-2,6.500149E-2,8.432384E-2,3.424139E-2,9.514099E-3,8.401539E-2,-3.8301114E-2,6.842735E-2,-9.1794565E-2,-1.2517871E-2,1.397326E-2,7.534557E-2],"categories":[],"categories_nodes":[],"categories_segments":[],"categories_sizes":[],"default_left":[0,0,0,0,0,0,0,0,0,0,0,0,0,0,0,0,0,0,0,0,0,0,0,0,0,0,0,0,0,0,0,0,0,0,0,0,0,0,0,0,0,0,0,0,0,0,0,0,0,0,0,0,0,0,0,0,0,0,0,0,0,0,0,0,0,0,0,0,0,0,0,0,0,0,0,0,0,0,0,0,0],"id":14,"left_children":[1,3,5,7,9,11,13,15,17,19,-1,21,23,25,27,29,31,33,-1,-1,-1,35,37,39,41,43,-1,45,47,49,51,53,55,57,-1,59,61,63,-1,65,67,69,71,73,75,77,-1,-1,79,-1,-1,-1,-1,-1,-1,-1,-1,-1,-1,-1,-1,-1,-1,-1,-1,-1,-1,-1,-1,-1,-1,-1,-1,-1,-1,-1,-1,-1,-1,-1,-1],"loss_changes":[2.786501E2,9.115994E1,3.7208466E1,5.5677246E1,7.445961E0,1.6492142E1,1.2565224E1,1.5796478E1,4.894554E0,4.7740326E0,0E0,2.317688E0,2.9381063E1,5.4478292E0,1.26189E1,2.696762E0,1.9055578E1,4.8323464E0,0E0,0E0,0E0,6.1106205E0,7.657318E-1,1.4191652E1,1.7060394E0,2.4838152E0,0E0,1.0150547E0,2.4827268E0,1.3839569E0,2.6677127E0,1.7573261E1,8.111061E0,4.6676302E-1,0E0,1.0910168E0,5.0803566E-1,2.3289633E0,0E0,2.405717E0,1.0922152E1,2.5029898E0,5.663643E-1,1.1528416E0,4.1721077E0,8.2211876E-1,0E0,0E0,3.1191063E-1,0E0,0E0,0E0,0E0,0E0,0E0,0E0,0E0,0E0,0E0,0E0,0E0,0E0,0E0,0E0,0E0,0E0,0E0,0E0,0E0,0E0,0E0,0E0,0E0,0E0,0E0,0E0,0E0,0E0,0E0,0E0,0E0],"parents":[2147483647,0,0,1,1,2,2,3,3,4,4,5,5,6,6,7,7,8,8,9,9,11,11,12,12,13,13,14,14,15,15,16,16,17,17,21,21,22,22,23,23,24,24,25,25,27,27,28,28,29,29,30,30,31,31,32,32,33,33,35,35,36,36,37,37,39,39,40,40,41,41,42,42,43,43,44,44,45,45,48,48],"right_children":[2,4,6,8,10,12,14,16,18,20,-1,22,24,26,28,30,32,34,-1,-1,-1,36,38,40,42,44,-1,46,48,50,52,54,56,58,-1,60,62,64,-1,66,68,70,72,74,76,78,-1,-1,80,-1,-1,-1,-1,-1,-1,-1,-1,-1,-1,-1,-1,-1,-1,-1,-1,-1,-1,-1,-1,-1,-1,-1,-1,-1,-1,-1,-1,-1,-1,-1,-1],"split_conditions":[3.645E3,1.889E0,2E0,1.02818E-1,3E0,2E-3,2E-3,5.3E-1,1.414E1,1.0661E1,-6.5869085E-2,1.192E0,6.111E3,1.4E-1,7.254E3,1.975E0,2E-3,1.2043E0,7.648269E-2,-2.6645202E-2,8.318554E-2,4E-1,1.37E-1,5.51E0,1.2E-2,-5E-3,-5.9644442E-2,9.526E-1,2.8639862E2,1.531E3,1.56E-2,2E0,8.518518E0,1.0331487E2,-7.634395E-2,3.81464E0,4.7863205E1,1.6373E1,8.2878664E-2,1.6235E0,9.752224E0,4.9E-1,1.8E-1,3.5E-1,1.01E0,1.41E0,-5.4314244E-3,-3.5477437E-2,6.6E1,-9.408329E-2,-1.4126292E-2,4.7889378E-2,-5.7744052E-2,4.9047153E-2,-6.9911934E-2,6.5258585E-2,-9.048798E-2,7.072017E-2,6.3864426E-3,6.2111584E-3,-7.7259846E-2,7.643341E-2,9.016095E-3,7.897393E-2,1.7547602E-2,-2.5131872E-2,6.915189E-2,6.31642E-2,-6.1959647E-2,-1.0215132E-2,6.500149E-2,8.432384E-2,3.424139E-2,9.514099E-3,8.401539E-2,-3.8301114E-2,6.842735E-2,-9.1794565E-2,-1.2517871E-2,1.397326E-2,7.534557E-2],"split_indices":[0,52,20,7,20,40,40,49,9,34,0,5,0,27,0,28,40,8,0,0,0,52,4,14,40,51,0,4,30,21,24,20,18,17,0,8,42,14,0,5,18,49,27,49,51,43,0,0,21,0,0,0,0,0,0,0,0,0,0,0,0,0,0,0,0,0,0,0,0,0,0,0,0,0,0,0,0,0,0,0,0],"split_type":[0,0,0,0,0,0,0,0,0,0,0,0,0,0,0,0,0,0,0,0,0,0,0,0,0,0,0,0,0,0,0,0,0,0,0,0,0,0,0,0,0,0,0,0,0,0,0,0,0,0,0,0,0,0,0,0,0,0,0,0,0,0,0,0,0,0,0,0,0,0,0,0,0,0,0,0,0,0,0,0,0],"sum_hessian":[5.557988E2,2.685254E2,2.8727347E2,2.3759676E2,3.0928623E1,2.4777013E2,3.950335E1,2.1940111E2,1.8195642E1,2.9418314E1,1.5103108E0,1.6087646E2,8.6893654E1,1.7483763E1,2.2019585E1,1.5908493E2,6.0316177E1,4.690184E0,1.3505459E1,1.9592066E0,2.7459106E1,1.0231074E1,1.506454E2,3.727356E1,4.962009E1,1.5243064E1,2.2406983E0,1.6516516E1,5.503069E0,1.5504614E2,4.0387974E0,2.7101908E1,3.321427E1,2.5583358E0,2.1318483E0,2.6110885E0,7.6199856E0,1.5321668E1,1.3532373E2,1.0586891E1,2.6686666E1,9.4437E0,4.017639E1,8.863858E0,6.379205E0,1.54678E1,1.0487162E0,1.1439867E0,4.359082E0,1.5343065E2,1.6154836E0,1.1605542E0,2.8782432E0,1.6456594E1,1.0645311E1,1.3053496E0,3.190892E1,1.4008961E0,1.1574396E0,1.1584086E0,1.4526799E0,6.618539E0,1.0014467E0,8.859174E0,6.462494E0,1.2618169E0,9.325075E0,3.8563783E0,2.2830288E1,3.5038538E0,5.939846E0,3.6909344E1,3.267049E0,1.6863273E0,7.1775312E0,3.6594565E0,2.7197487E0,1.4333345E1,1.1344541E0,1.1223779E0,3.2367046E0],"tree_param":{"num_deleted":"0","num_feature":"53","num_nodes":"81","size_leaf_vector":"1"}},{"base_weights":[2.3987425E-2,-6.869311E-1,6.8977326E-1,-8.90069E-1,8.6801994E-1,8.3143777E-1,-1.8122488E-1,-1.0187275E0,8.012722E-1,9.8569494E-1,-6.389429E-2,1.0233215E0,4.7526008E-1,-4.6371502E-1,8.202571E-1,-1.1885884E0,-5.65514E-1,-1.608594E-1,9.634739E-1,-2.528725E-2,8.2138345E-2,4.8462853E-1,1.0570638E0,-1.6682565E-1,9.67463E-1,-8.245912E-1,3.148391E-1,-3.0967716E-2,7.81711E-2,-1.2272308E0,-4.8134506E-1,-3.125608E-3,-1.1095713E0,3.0205226E-2,-5.2061144E-2,1.0363821E0,1.0651146E-3,-6.247784E-1,9.0812427E-1,7.1930045E-1,8.1775345E-2,-4.7122616E-1,9.0600395E-1,4.9604136E-1,1.066293E0,-9.712007E-1,5.7196144E-2,-4.5928007E-1,7.3193556E-1,-2.4315757E-3,-9.27439E-2,6.43474E-2,-6.091356E-2,5.7536084E-2,-5.883931E-2,6.327632E-2,-9.1819026E-2,3.368441E-2,8.27589E-2,-7.455327E-2,6.1327657E-3,7.501336E-2,9.166933E-3,7.201609E-2,5.783382E-3,7.6183036E-2,-4.9091753E-2,7.9571374E-2,1.3896046E-2,-2.0759672E-2,5.8664083E-2,8.3269246E-2,3.285949E-2,7.386968E-3,-8.654069E-2,-5.93634E-2,7.3588565E-3,-1.4964372E-2,7.052948E-2],"categories":[],"categories_nodes":[],"categories_segments":[],"categories_sizes":[],"default_left":[0,0,0,0,0,0,0,0,0,0,0,0,0,0,0,0,0,0,0,0,0,0,0,0,0,0,0,0,0,0,0,0,0,0,0,0,0,0,0,0,0,0,0,0,0,0,0,0,0,0,0,0,0,0,0,0,0,0,0,0,0,0,0,0,0,0,0,0,0,0,0,0,0,0,0,0,0,0,0],"id":15,"left_children":[1,3,5,7,9,11,13,15,17,19,-1,21,23,25,27,29,31,33,35,-1,-1,37,39,41,43,45,47,-1,-1,49,51,53,55,-1,-1,57,-1,59,61,63,-1,65,67,69,71,73,-1,75,77,-1,-1,-1,-1,-1,-1,-1,-1,-1,-1,-1,-1,-1,-1,-1,-1,-1,-1,-1,-1,-1,-1,-1,-1,-1,-1,-1,-1,-1,-1],"loss_changes":[2.5180446E2,8.204427E1,3.4045868E1,5.044333E1,6.9592056E0,1.5673798E1,1.1484472E1,1.5677353E1,2.7583075E0,4.534979E0,0E0,2.2651215E0,2.6914465E1,9.040556E0,2.8935523E0,3.6063843E0,1.829532E1,1.260435E0,9.8315716E-1,0E0,0E0,5.6666174E0,8.2225037E-1,1.270138E1,1.710495E0,5.7741995E0,3.765845E0,0E0,0E0,1.5802155E0,4.951187E0,1.8905437E1,7.8415604E0,0E0,0E0,3.1249046E-2,0E0,1.0181612E0,4.7550297E-1,2.3638697E0,0E0,8.825926E0,7.6935816E-1,2.4722092E0,5.86895E-1,4.0690365E0,0E0,8.801991E-1,1.6028163E0,0E0,0E0,0E0,0E0,0E0,0E0,0E0,0E0,0E0,0E0,0E0,0E0,0E0,0E0,0E0,0E0,0E0,0E0,0E0,0E0,0E0,0E0,0E0,0E0,0E0,0E0,0E0,0E0,0E0,0E0],"parents":[2147483647,0,0,1,1,2,2,3,3,4,4,5,5,6,6,7,7,8,8,9,9,11,11,12,12,13,13,14,14,15,15,16,16,17,17,18,18,21,21,22,22,23,23,24,24,25,25,26,26,29,29,30,30,31,31,32,32,35,35,37,37,38,38,39,39,41,41,42,42,43,43,44,44,45,45,47,47,48,48],"right_children":[2,4,6,8,10,12,14,16,18,20,-1,22,24,26,28,30,32,34,36,-1,-1,38,40,42,44,46,48,-1,-1,50,52,54,56,-1,-1,58,-1,60,62,64,-1,66,68,70,72,74,-1,76,78,-1,-1,-1,-1,-1,-1,-1,-1,-1,-1,-1,-1,-1,-1,-1,-1,-1,-1,-1,-1,-1,-1,-1,-1,-1,-1,-1,-1,-1,-1],"split_conditions":[3.645E3,1.889E0,2E0,1.361E1,3E0,2E-3,1.64E0,5.3E-1,3.68E-1,1.0661E1,-6.389429E-2,1.192E0,6.111E3,2.364805E1,6.94E-1,2.3676962E2,7E-3,4.251922E1,2.6E-1,-2.528725E-2,8.2138345E-2,4E-1,1.37E-1,1.6E0,1.2E-2,1.901E3,-8E-3,-3.0967716E-2,7.81711E-2,1E1,3.042E2,8.831E1,8.518518E0,3.0205226E-2,-5.2061144E-2,2.259E0,1.0651146E-3,1.934678E1,1.6576E1,0E0,8.1775345E-2,9.091377E0,6.198E3,9E0,1.8E-1,1.15E1,5.7196144E-2,0E0,3.2025E-1,-2.4315757E-3,-9.27439E-2,6.43474E-2,-6.091356E-2,5.7536084E-2,-5.883931E-2,6.327632E-2,-9.1819026E-2,3.368441E-2,8.27589E-2,-7.455327E-2,6.1327657E-3,7.501336E-2,9.166933E-3,7.201609E-2,5.783382E-3,7.6183036E-2,-4.9091753E-2,7.9571374E-2,1.3896046E-2,-2.0759672E-2,5.8664083E-2,8.3269246E-2,3.285949E-2,7.386968E-3,-8.654069E-2,-5.93634E-2,7.3588565E-3,-1.4964372E-2,7.052948E-2],"split_indices":[0,52,20,9,20,40,52,49,4,34,0,5,0,18,29,18,40,31,27,0,0,52,4,52,40,12,48,0,0,19,19,11,18,0,0,14,0,41,33,27,0,18,25,21,27,19,0,46,8,0,0,0,0,0,0,0,0,0,0,0,0,0,0,0,0,0,0,0,0,0,0,0,0,0,0,0,0,0,0],"split_type":[0,0,0,0,0,0,0,0,0,0,0,0,0,0,0,0,0,0,0,0,0,0,0,0,0,0,0,0,0,0,0,0,0,0,0,0,0,0,0,0,0,0,0,0,0,0,0,0,0,0,0,0,0,0,0,0,0,0,0,0,0,0,0,0,0,0,0,0,0,0,0,0,0,0,0,0,0,0,0],"sum_hessian":[5.299957E2,2.5629504E2,2.7370068E2,2.270597E2,2.9235367E1,2.3545091E2,3.8249775E1,2.1137807E2,1.5681626E1,2.7762796E1,1.4725708E0,1.5179909E2,8.365183E1,3.0253172E1,7.996604E0,1.5257254E2,5.8805523E1,2.2635005E0,1.3418126E1,1.9631294E0,2.5799665E1,9.853395E0,1.419457E2,3.658597E1,4.7065857E1,2.0631096E1,9.622078E0,1.0889071E0,6.9076967E0,1.43971E2,8.601543E0,2.9410172E1,2.9395351E1,1.2195019E0,1.0439987E0,1.2375843E1,1.0422823E0,2.5908942E0,7.2625012E0,1.4757726E1,1.2718796E2,2.8936426E1,7.6495457E0,9.20013E0,3.7865726E1,1.9241842E1,1.389253E0,3.3336961E0,6.2883816E0,1.1531271E0,1.4281787E2,1.3882427E0,7.213301E0,1.4819702E1,1.459047E1,1.2776613E0,2.8117691E1,2.057446E0,1.03183975E1,1.4343537E0,1.1565405E0,6.2569566E0,1.0055445E0,1.03716345E1,4.3860917E0,2.6776063E0,2.625882E1,5.9074454E0,1.7421005E0,2.494784E0,6.705346E0,3.4671703E1,3.1940234E0,2.8739045E0,1.6367937E1,1.8255703E0,1.5081258E0,1.1577961E0,5.130585E0],"tree_param":{"num_deleted":"0","num_feature":"53","num_nodes":"79","size_leaf_vector":"1"}},{"base_weights":[2.4379674E-2,-6.6682136E-1,6.7313373E-1,-9.1337323E-1,5.532849E-1,9.4883937E-1,2.3344618E-1,-1.0461191E0,6.690139E-1,9.3850213E-1,-5.206482E-1,9.868765E-1,-2.476502E-1,-4.2629588E-1,8.7658477E-1,6.0687177E-2,-1.0760621E0,-8.028855E-2,9.635756E-1,-3.5324037E-1,1.0692102E0,-8.239508E-1,5.471746E-2,1.0307273E0,4.8541108E-1,-7.394705E-2,5.129913E-1,8.205595E-1,-6.910652E-1,9.3204886E-1,-2.7356569E-2,-1.0988415E0,6.438555E-2,6.926886E-1,-7.202149E-2,2.0326847E-2,7.74049E-2,2.6689168E-2,-6.0519237E-2,1.1467874E0,-1.7691374E-2,4.5475952E-2,-8.2586326E-2,6.123463E-1,8.033392E-2,8.8185114E-1,-1.7168204E-1,3.039959E-3,5.2204754E-2,1.0193729E0,-1.4153607E-2,6.807241E-2,-8.499175E-1,-8.632347E-3,9.71978E-1,2.5153017E-2,-8.414087E-2,7.000159E-2,7.820589E-3,1.39985625E-2,8.8254884E-2,7.5340696E-2,-4.4973478E-2,7.2560824E-2,6.886061E-3,-1.1768784E-1,3.615297E-2,1.7634457E-2,8.3058745E-2,-7.285203E-2,6.523834E-2,4.3223344E-2,8.1472896E-2],"categories":[],"categories_nodes":[],"categories_segments":[],"categories_sizes":[],"default_left":[0,0,0,0,0,0,0,0,0,0,0,0,0,0,0,0,0,0,0,0,0,0,0,0,0,0,0,0,0,0,0,0,0,0,0,0,0,0,0,0,0,0,0,0,0,0,0,0,0,0,0,0,0,0,0,0,0,0,0,0,0,0,0,0,0,0,0,0,0,0,0,0,0],"id":16,"left_children":[1,3,5,7,9,11,13,15,17,19,21,23,25,27,29,-1,31,33,35,37,39,41,-1,43,45,-1,47,49,51,53,-1,55,-1,57,-1,-1,-1,-1,-1,59,-1,-1,-1,61,-1,63,65,-1,-1,67,-1,-1,69,-1,71,-1,-1,-1,-1,-1,-1,-1,-1,-1,-1,-1,-1,-1,-1,-1,-1,-1,-1],"loss_changes":[2.275678E2,7.442391E1,3.1510635E1,4.371794E1,1.7835E1,7.551483E0,4.3740913E1,1.1388687E1,3.7104197E0,5.6484528E0,5.04253E0,2.9258728E0,3.7328568E0,1.7445015E1,3.9258194E0,0E0,9.173187E0,4.452586E0,2.843752E-1,1.4517851E0,3.165844E0,4.591085E0,0E0,1.7503967E0,3.907616E0,0E0,2.734875E-1,2.080966E0,1.1618731E1,2.2081375E0,0E0,6.4892426E0,0E0,4.0470827E-1,0E0,0E0,0E0,0E0,0E0,5.613289E-1,0E0,0E0,0E0,7.671235E0,0E0,5.305834E-1,6.4780746E0,0E0,0E0,2.9353714E-1,0E0,0E0,9.067293E0,0E0,1.5633545E0,0E0,0E0,0E0,0E0,0E0,0E0,0E0,0E0,0E0,0E0,0E0,0E0,0E0,0E0,0E0,0E0,0E0,0E0],"parents":[2147483647,0,0,1,1,2,2,3,3,4,4,5,5,6,6,7,7,8,8,9,9,10,10,11,11,12,12,13,13,14,14,16,16,17,17,18,18,19,19,20,20,21,21,23,23,24,24,26,26,27,27,28,28,29,29,31,31,33,33,39,39,43,43,45,45,46,46,49,49,52,52,54,54],"right_children":[2,4,6,8,10,12,14,16,18,20,22,24,26,28,30,-1,32,34,36,38,40,42,-1,44,46,-1,48,50,52,54,-1,56,-1,58,-1,-1,-1,-1,-1,60,-1,-1,-1,62,-1,64,66,-1,-1,68,-1,-1,70,-1,72,-1,-1,-1,-1,-1,-1,-1,-1,-1,-1,-1,-1,-1,-1,-1,-1,-1,-1],"split_conditions":[3.645E3,1.1E0,2E-3,1.02818E-1,2E0,3E0,6.111E3,-2.475E0,1.414E1,9.852E0,4.8E0,1.2E-1,1.9803268E1,4.336E0,3E0,6.0687177E-2,3.94E0,1.2043E0,4.845E-2,1.1906E-1,7.4E-2,1.21E1,5.471746E-2,1.4446E0,4E-3,-7.394705E-2,9.668574E0,1.2E-1,8.896265E0,2.8238327E2,-2.7356569E-2,1.03E1,6.438555E-2,1.0331487E2,-7.202149E-2,2.0326847E-2,7.74049E-2,2.6689168E-2,-6.0519237E-2,4.313E3,-1.7691374E-2,4.5475952E-2,-8.2586326E-2,1E-3,8.033392E-2,4.569E0,7.55E2,3.039959E-3,5.2204754E-2,1.16E2,-1.4153607E-2,6.807241E-2,9.2633E-2,-8.632347E-3,4.468E-1,2.5153017E-2,-8.414087E-2,7.000159E-2,7.820589E-3,1.39985625E-2,8.8254884E-2,7.5340696E-2,-4.4973478E-2,7.2560824E-2,6.886061E-3,-1.1768784E-1,3.615297E-2,1.7634457E-2,8.3058745E-2,-7.285203E-2,6.523834E-2,4.3223344E-2,8.1472896E-2],"split_indices":[0,52,40,7,20,20,0,43,9,38,52,27,18,14,20,0,43,8,8,8,40,19,0,5,50,0,1,27,18,30,0,19,0,17,0,0,0,0,0,25,0,0,0,40,0,26,12,0,0,21,0,0,7,0,24,0,0,0,0,0,0,0,0,0,0,0,0,0,0,0,0,0,0],"split_type":[0,0,0,0,0,0,0,0,0,0,0,0,0,0,0,0,0,0,0,0,0,0,0,0,0,0,0,0,0,0,0,0,0,0,0,0,0,0,0,0,0,0,0,0,0,0,0,0,0,0,0,0,0,0,0,0,0,0,0,0,0,0,0,0,0,0,0,0,0,0,0,0,0],"sum_hessian":[5.0548767E2,2.4472397E2,2.6076373E2,2.0379388E2,4.0930073E1,1.5955618E2,1.01207535E2,1.8833356E2,1.5460339E1,3.0217304E1,1.0712769E1,1.5480988E2,4.746309E0,5.012532E1,5.108221E1,2.5779676E0,1.8575558E2,4.5679283E0,1.0892411E1,2.6202054E0,2.75971E1,8.895636E0,1.8171333E0,1.4139052E2,1.3419371E1,2.2581913E0,2.4881172E0,8.412046E0,4.1713272E1,4.9135933E1,1.9462785E0,1.840207E2,1.7348826E0,2.5451546E0,2.0227737E0,1.4263785E0,9.466032E0,1.106461E0,1.5137444E0,2.616321E1,1.4338889E0,1.2513789E0,7.6442566E0,1.3871204E1,1.2751931E2,8.156381E0,5.2629895E0,1.035969E0,1.4521482E0,7.019328E0,1.3927187E0,3.3441262E0,3.836915E1,1.7356522E0,4.740028E1,2.694708E0,1.8132599E2,1.3902935E0,1.154861E0,1.010047E0,2.5153164E1,1.0609254E1,3.2619512E0,7.1561766E0,1.0002046E0,1.2310197E0,4.0319695E0,1.0792371E0,5.9400907E0,3.6244854E1,2.1242936E0,1.1980108E1,3.5420174E1],"tree_param":{"num_deleted":"0","num_feature":"53","num_nodes":"73","size_leaf_vector":"1"}},{"base_weights":[2.5128368E-2,-6.460527E-1,6.56243E-1,-8.8515145E-1,5.3965276E-1,7.971706E-1,-1.8025972E-1,-1.0146508E0,6.5209955E-1,9.175949E-1,-4.9686155E-1,4.1649958E-1,9.755918E-1,-4.5266703E-1,7.641344E-1,5.854839E-2,-1.0443056E0,-7.4630186E-2,9.4606185E-1,-3.3862442E-1,1.0504935E0,-7.911245E-1,5.3558756E-2,7.754807E-1,-5.0696856E-1,1.0194671E0,5.0941145E-1,-7.884551E-1,2.7606532E-1,7.487598E-2,-9.3711745E-3,-1.0669004E0,6.2648E-2,5.8704697E-2,-6.2129032E-2,1.9605545E-2,7.625147E-2,2.6221646E-2,-5.844991E-2,1.1303508E0,-1.6961016E-2,4.3897122E-2,-7.984708E-2,4.8236322E-1,8.12669E-2,-8.205517E-1,5.8477074E-1,1.035664E0,1.5284161E-1,-1.6110945E-1,7.946055E-1,5.686425E-2,-9.322492E-1,6.7767136E-2,-2.3474586E-1,2.3761068E-2,-8.176316E-2,1.3504495E-2,8.713631E-2,-2.390373E-2,7.344201E-2,3.852273E-2,-8.35617E-2,6.895507E-2,-7.27691E-3,2.504816E-2,7.859032E-2,-4.4359043E-2,5.2218553E-2,5.701727E-2,-6.1076753E-2,-2.5092928E-2,7.1733765E-2,-8.052079E-2,4.5397166E-2,-6.6524275E-2,5.977349E-2],"categories":[],"categories_nodes":[],"categories_segments":[],"categories_sizes":[],"default_left":[0,0,0,0,0,0,0,0,0,0,0,0,0,0,0,0,0,0,0,0,0,0,0,0,0,0,0,0,0,0,0,0,0,0,0,0,0,0,0,0,0,0,0,0,0,0,0,0,0,0,0,0,0,0,0,0,0,0,0,0,0,0,0,0,0,0,0,0,0,0,0,0,0,0,0,0,0],"id":17,"left_children":[1,3,5,7,9,11,13,15,17,19,21,23,25,27,29,-1,31,33,35,37,39,41,-1,43,45,47,49,51,53,-1,-1,55,-1,-1,-1,-1,-1,-1,-1,57,-1,-1,-1,59,-1,61,63,65,67,69,71,-1,73,-1,75,-1,-1,-1,-1,-1,-1,-1,-1,-1,-1,-1,-1,-1,-1,-1,-1,-1,-1,-1,-1,-1,-1],"loss_changes":[2.050875E2,6.700177E1,2.9557442E1,3.9611023E1,1.6125076E1,1.4109421E1,9.810554E0,1.04431305E1,3.4481602E0,5.307831E0,4.604615E0,2.3581581E1,2.4417725E0,7.3584766E0,1.917285E0,0E0,8.464905E0,4.1899767E0,2.8207207E-1,1.362604E0,3.0152092E0,4.2350554E0,0E0,4.061468E0,7.3900313E0,1.6849823E0,2.891656E0,5.2073298E0,3.4000258E0,0E0,0E0,6.034683E0,0E0,0E0,0E0,0E0,0E0,0E0,0E0,5.575409E-1,0E0,0E0,0E0,1.138359E1,0E0,6.877716E0,1.2499979E0,7.527008E-1,1.8607137E0,3.7151022E0,2.2037983E0,0E0,4.771532E0,0E0,4.9305263E0,0E0,0E0,0E0,0E0,0E0,0E0,0E0,0E0,0E0,0E0,0E0,0E0,0E0,0E0,0E0,0E0,0E0,0E0,0E0,0E0,0E0,0E0],"parents":[2147483647,0,0,1,1,2,2,3,3,4,4,5,5,6,6,7,7,8,8,9,9,10,10,11,11,12,12,13,13,14,14,16,16,17,17,18,18,19,19,20,20,21,21,23,23,24,24,25,25,26,26,27,27,28,28,31,31,39,39,43,43,45,45,46,46,47,47,48,48,49,49,50,50,52,52,54,54],"right_children":[2,4,6,8,10,12,14,16,18,20,22,24,26,28,30,-1,32,34,36,38,40,42,-1,44,46,48,50,52,54,-1,-1,56,-1,-1,-1,-1,-1,-1,-1,58,-1,-1,-1,60,-1,62,64,66,68,70,72,-1,74,-1,76,-1,-1,-1,-1,-1,-1,-1,-1,-1,-1,-1,-1,-1,-1,-1,-1,-1,-1,-1,-1,-1,-1],"split_conditions":[3.645E3,1.1E0,2E0,1.02818E-1,2E0,5.374E3,1.63E0,-2.475E0,1.414E1,9.852E0,4.8E0,8E-2,1.2E-1,2.364805E1,3E0,5.854839E-2,3.94E0,-8E-2,4.845E-2,3.97E0,7.4E-2,1.21E1,5.3558756E-2,1.9E0,1.29E0,5.101348E1,7E1,8.268613E0,2.389117E1,7.487598E-2,-9.3711745E-3,1.03E1,6.2648E-2,5.8704697E-2,-6.2129032E-2,1.9605545E-2,7.625147E-2,2.6221646E-2,-5.844991E-2,4.313E3,-1.6961016E-2,4.3897122E-2,-7.984708E-2,5.6787224E0,8.12669E-2,1.3333E1,5.601E-1,1.8828272E1,6.111E3,1.2113E1,1.1627E0,5.686425E-2,1.378E0,6.7767136E-2,4.9706E-2,2.3761068E-2,-8.176316E-2,1.3504495E-2,8.713631E-2,-2.390373E-2,7.344201E-2,3.852273E-2,-8.35617E-2,6.895507E-2,-7.27691E-3,2.504816E-2,7.859032E-2,-4.4359043E-2,5.2218553E-2,5.701727E-2,-6.1076753E-2,-2.5092928E-2,7.1733765E-2,-8.052079E-2,4.5397166E-2,-6.6524275E-2,5.977349E-2],"split_indices":[0,52,20,7,20,0,49,43,9,38,52,40,27,18,20,0,43,27,8,26,40,19,0,49,49,42,21,18,18,0,0,19,0,0,0,0,0,0,0,25,0,0,0,17,0,32,24,41,0,38,5,0,29,0,7,0,0,0,0,0,0,0,0,0,0,0,0,0,0,0,0,0,0,0,0,0,0],"split_type":[0,0,0,0,0,0,0,0,0,0,0,0,0,0,0,0,0,0,0,0,0,0,0,0,0,0,0,0,0,0,0,0,0,0,0,0,0,0,0,0,0,0,0,0,0,0,0,0,0,0,0,0,0,0,0,0,0,0,0,0,0,0,0,0,0,0,0,0,0,0,0,0,0,0,0,0,0],"sum_hessian":[4.8216165E2,2.3365227E2,2.4850938E2,1.9465364E2,3.8998623E1,2.1271913E2,3.5790253E1,1.7984343E2,1.481022E1,2.8662283E1,1.0336341E1,6.894843E1,1.437707E2,2.8181946E1,7.608308E0,2.5108647E0,1.7733257E2,4.4802723E0,1.0329947E1,2.5940554E0,2.6068228E1,8.594595E0,1.7417465E0,4.9763893E1,1.9184536E1,1.303187E2,1.3452011E1,1.9236242E1,8.945704E0,5.9246726E0,1.6836352E0,1.7565341E2,1.6791538E0,2.0781019E0,2.4021707E0,1.4055439E0,8.924403E0,1.093318E0,1.5007373E0,2.4641428E1,1.4267998E0,1.235729E0,7.3588657E0,2.681591E1,2.2947983E1,1.5096678E1,4.087858E0,1.277363E2,2.5823946E0,4.144037E0,9.307975E0,1.2728413E0,1.79634E1,3.66932E0,5.276384E0,2.6971061E0,1.729563E2,1.0052484E0,2.363618E1,1.040261E1,1.64133E1,2.5878098E0,1.2508867E1,2.5082796E0,1.5795785E0,2.6690743E0,1.2506722E2,1.052449E0,1.5299457E0,1.6512887E0,2.492748E0,1.0330714E0,8.274903E0,1.6727242E1,1.2361594E0,3.3186553E0,1.9577286E0],"tree_param":{"num_deleted":"0","num_feature":"53","num_nodes":"77","size_leaf_vector":"1"}},{"base_weights":[2.611745E-2,-6.261742E-1,6.4072245E-1,-8.700058E-1,4.7792742E-1,9.155493E-1,2.1552378E-1,-9.8943293E-1,7.234407E-1,8.598122E-1,-5.1167226E-1,9.5363235E-1,-2.2371909E-1,-3.9073086E-1,8.357744E-1,-6.222812E-1,-1.1575091E0,-1.602297E-1,9.003812E-1,1.0294975E0,-3.3113915E-1,-7.7284265E-1,5.243089E-2,4.886714E-1,1.0074921E0,-6.99821E-2,4.9564376E-1,7.838249E-1,-6.3772583E-1,8.909045E-1,-2.4730505E-2,-1.0013593E0,3.5019517E-1,-1.1742002E0,-5.6010904E-3,2.557405E-2,-4.2361513E-2,1.3121493E-2,1.0013342E0,-1.9330832E-1,1.146976E0,5.2863393E-2,-6.321284E-2,5.6212783E-2,-7.774867E-2,-5.881039E-1,8.8600713E-1,7.835754E-2,5.592802E-1,4.1460134E-3,5.044742E-2,9.803919E-1,-1.2824842E-2,6.5502256E-2,-7.882897E-1,2.5767565E-1,9.7372496E-1,-8.621281E-2,-1.6501307E-2,6.820674E-2,-4.035854E-2,-1.4959234E-3,-8.891325E-2,7.8905866E-2,2.1524837E-2,2.5659602E-2,-4.7332074E-2,8.836166E-2,1.5772669E-2,3.8753614E-2,-9.4665326E-2,-1.8814083E-2,7.7251196E-2,-1.7827094E-2,7.4612975E-2,1.6415004E-2,8.0177724E-2,-6.7747444E-2,6.1585817E-2,-3.5983812E-2,5.4644078E-2,3.4390807E-2,7.8346655E-2],"categories":[],"categories_nodes":[],"categories_segments":[],"categories_sizes":[],"default_left":[0,0,0,0,0,0,0,0,0,0,0,0,0,0,0,0,0,0,0,0,0,0,0,0,0,0,0,0,0,0,0,0,0,0,0,0,0,0,0,0,0,0,0,0,0,0,0,0,0,0,0,0,0,0,0,0,0,0,0,0,0,0,0,0,0,0,0,0,0,0,0,0,0,0,0,0,0,0,0,0,0,0,0],"id":18,"left_children":[1,3,5,7,9,11,13,15,17,19,21,23,25,27,29,31,33,35,37,39,41,43,-1,45,47,-1,49,51,53,55,-1,57,59,61,-1,-1,-1,-1,63,65,67,-1,-1,-1,-1,69,71,-1,73,-1,-1,75,-1,-1,77,79,81,-1,-1,-1,-1,-1,-1,-1,-1,-1,-1,-1,-1,-1,-1,-1,-1,-1,-1,-1,-1,-1,-1,-1,-1,-1,-1],"loss_changes":[1.8508675E2,6.071765E1,2.7577469E1,3.569832E1,1.5996322E1,6.4637527E0,3.590706E1,9.858734E0,2.2386246E0,6.418682E0,4.3629236E0,3.0034332E0,3.2537513E0,1.4579464E1,3.3194923E0,2.0993746E1,2.0167084E0,8.179023E-1,6.531763E-1,4.038273E0,2.9834404E0,4.9612145E0,0E0,7.5518847E0,1.4900208E0,0E0,2.2538716E-1,1.8345037E0,9.937189E0,2.1213036E0,0E0,4.44088E0,8.659584E0,1.4723969E0,0E0,0E0,0E0,0E0,5.0302505E-2,9.6237946E-1,4.643402E-1,0E0,0E0,0E0,0E0,4.3987126E0,2.2889376E0,0E0,4.292605E0,0E0,0E0,2.7321434E-1,0E0,0E0,7.6817265E0,2.6386952E0,9.688835E-1,0E0,0E0,0E0,0E0,0E0,0E0,0E0,0E0,0E0,0E0,0E0,0E0,0E0,0E0,0E0,0E0,0E0,0E0,0E0,0E0,0E0,0E0,0E0,0E0,0E0,0E0],"parents":[2147483647,0,0,1,1,2,2,3,3,4,4,5,5,6,6,7,7,8,8,9,9,10,10,11,11,12,12,13,13,14,14,15,15,16,16,17,17,18,18,19,19,20,20,21,21,23,23,24,24,26,26,27,27,28,28,29,29,31,31,32,32,33,33,38,38,39,39,40,40,45,45,46,46,48,48,51,51,54,54,55,55,56,56],"right_children":[2,4,6,8,10,12,14,16,18,20,22,24,26,28,30,32,34,36,38,40,42,44,-1,46,48,-1,50,52,54,56,-1,58,60,62,-1,-1,-1,-1,64,66,68,-1,-1,-1,-1,70,72,-1,74,-1,-1,76,-1,-1,78,80,82,-1,-1,-1,-1,-1,-1,-1,-1,-1,-1,-1,-1,-1,-1,-1,-1,-1,-1,-1,-1,-1,-1,-1,-1,-1,-1],"split_conditions":[3.645E3,1E0,2E-3,1.361E1,2E0,3E0,6.111E3,2E-3,3.68E-1,1E-2,4.8E0,1.51E0,1.9803268E1,4.336E0,3E0,5E-1,1.661856E1,5.948E3,4.845E-2,9.852E0,8.033E1,8.518518E0,5.243089E-2,4E-1,1.2E-1,-6.99821E-2,3.8686E-1,1.2E-1,8.896265E0,2.854243E2,-2.4730505E-2,2.3676962E2,1.277E1,9.5E0,-5.6010904E-3,2.557405E-2,-4.2361513E-2,1.3121493E-2,8E-2,1.1906E-1,4.665E0,5.2863393E-2,-6.321284E-2,5.6212783E-2,-7.774867E-2,8.1857E-1,1.53E-1,7.835754E-2,7.55E2,4.1460134E-3,5.044742E-2,1.16E2,-1.2824842E-2,6.5502256E-2,9.2633E-2,3.5E1,1.948E-1,-8.621281E-2,-1.6501307E-2,6.820674E-2,-4.035854E-2,-1.4959234E-3,-8.891325E-2,7.8905866E-2,2.1524837E-2,2.5659602E-2,-4.7332074E-2,8.836166E-2,1.5772669E-2,3.8753614E-2,-9.4665326E-2,-1.8814083E-2,7.7251196E-2,-1.7827094E-2,7.4612975E-2,1.6415004E-2,8.0177724E-2,-6.7747444E-2,6.1585817E-2,-3.5983812E-2,5.4644078E-2,3.4390807E-2,7.8346655E-2],"split_indices":[0,52,40,9,20,20,0,40,4,40,52,5,18,14,20,52,8,25,8,38,11,18,0,52,27,0,8,27,18,30,0,18,14,19,0,0,0,0,27,8,26,0,0,0,0,8,15,0,12,0,0,21,0,0,7,21,24,0,0,0,0,0,0,0,0,0,0,0,0,0,0,0,0,0,0,0,0,0,0,0,0,0,0],"split_type":[0,0,0,0,0,0,0,0,0,0,0,0,0,0,0,0,0,0,0,0,0,0,0,0,0,0,0,0,0,0,0,0,0,0,0,0,0,0,0,0,0,0,0,0,0,0,0,0,0,0,0,0,0,0,0,0,0,0,0,0,0,0,0,0,0,0,0,0,0,0,0,0,0,0,0,0,0,0,0,0,0,0,0],"sum_hessian":[4.5967535E2,2.2299152E2,2.3668384E2,1.8282759E2,4.0163914E1,1.4306236E2,9.3621475E1,1.7043289E2,1.2394704E1,2.9075054E1,1.1088861E1,1.3859248E2,4.469876E0,4.753204E1,4.6089436E1,5.4997242E1,1.15435646E2,2.08355E0,1.0311153E1,2.5567759E1,3.5072947E0,9.418817E0,1.6700445E0,1.5433245E1,1.2315924E2,2.1009662E0,2.3689098E0,7.8810725E0,3.9650967E1,4.423279E1,1.8566439E0,3.9550484E1,1.5446759E1,1.1360019E2,1.8354585E0,1.0008613E0,1.0826888E0,1.5935125E0,8.717641E0,2.1844873E0,2.3383272E1,1.0347931E0,2.4725015E0,1.1191906E0,8.299626E0,4.030505E0,1.140274E1,1.12474464E2,1.0684781E1,1.0553756E0,1.3135341E0,6.5133967E0,1.3676759E0,3.1578217E0,3.6493145E1,5.5916224E0,3.8641167E1,3.28507E1,6.699783E0,9.464615E0,5.982144E0,1.1291096E0,1.12471085E2,7.697998E0,1.019643E0,1.080941E0,1.1035465E0,2.2380478E1,1.0027943E0,1.6157851E0,2.41472E0,1.1985986E0,1.0204142E1,3.9363794E0,6.7484016E0,1.0408353E0,5.472562E0,3.446877E1,2.0243766E0,2.1717572E0,3.4198651E0,5.5777397E0,3.3063427E1],"tree_param":{"num_deleted":"0","num_feature":"53","num_nodes":"83","size_leaf_vector":"1"}},{"base_weights":[2.6471712E-2,-6.092354E-1,6.2540156E-1,-8.4704715E-1,4.6762434E-1,3.7316963E-1,1.0811083E0,-9.645659E-1,7.022394E-1,8.419554E-1,-4.8821217E-1,-1.4088453E-1,9.1299355E-1,1.0898728E-2,1.0923342E0,-5.9806967E-1,-1.1360564E0,-1.5450324E-1,8.794735E-1,1.0108725E0,-3.1688812E-1,-7.426052E-1,5.1332217E-2,8.203354E-1,-4.4203788E-1,9.570744E-1,-4.51362E-2,8.2706735E-2,1.3773338E-2,-9.713145E-1,3.2895917E-1,-1.1533878E0,-5.342437E-3,2.2658056E-2,-3.935734E-2,2.2359629E-1,7.521342E-2,-1.865942E-1,1.1318398E0,5.1583793E-2,-6.137686E-2,5.471254E-2,-1.0028036E0,-2.9296793E-2,9.880428E-1,-7.718992E-1,3.4059548E-1,5.579642E-1,8.1227764E-2,-8.422361E-2,-1.55134285E-2,6.422885E-2,-3.8095333E-2,-8.735891E-2,2.3806554E-3,4.1890837E-2,-1.6764272E-2,2.5130084E-2,-4.5884855E-2,1.5417302E-2,8.735819E-2,-8.018989E-2,-2.4227787E-2,2.2661056E-2,8.082637E-2,-7.1858324E-2,4.5065865E-2,7.547146E-2,-4.6084743E-2,-8.58852E-3,6.817455E-2],"categories":[],"categories_nodes":[],"categories_segments":[],"categories_sizes":[],"default_left":[0,0,0,0,0,0,0,0,0,0,0,0,0,0,0,0,0,0,0,0,0,0,0,0,0,0,0,0,0,0,0,0,0,0,0,0,0,0,0,0,0,0,0,0,0,0,0,0,0,0,0,0,0,0,0,0,0,0,0,0,0,0,0,0,0,0,0,0,0,0,0],"id":19,"left_children":[1,3,5,7,9,11,13,15,17,19,21,23,25,-1,27,29,31,33,35,37,39,41,-1,43,45,47,-1,-1,-1,49,51,53,-1,-1,-1,55,-1,57,59,-1,-1,-1,61,-1,63,65,67,69,-1,-1,-1,-1,-1,-1,-1,-1,-1,-1,-1,-1,-1,-1,-1,-1,-1,-1,-1,-1,-1,-1,-1],"loss_changes":[1.6745502E2,5.5039436E1,2.5623695E1,3.2563972E1,1.4451793E1,4.0999924E1,6.832428E-1,9.578217E0,2.0987005E0,5.912014E0,3.9914393E0,2.2452238E1,5.382065E0,0E0,5.460968E-1,1.90511E1,1.9491882E0,6.7694265E-1,6.545439E-1,3.8572102E0,2.7773342E0,4.590447E0,0E0,4.154149E0,1.5431058E1,2.9311981E0,0E0,0E0,0E0,4.2720757E0,7.6240106E0,1.4990692E0,0E0,0E0,0E0,5.750848E-1,0E0,9.0766513E-1,4.623146E-1,0E0,0E0,0E0,6.000805E-2,0E0,6.938572E-1,1.1219957E1,1.2135349E1,4.5735345E0,0E0,0E0,0E0,0E0,0E0,0E0,0E0,0E0,0E0,0E0,0E0,0E0,0E0,0E0,0E0,0E0,0E0,0E0,0E0,0E0,0E0,0E0,0E0],"parents":[2147483647,0,0,1,1,2,2,3,3,4,4,5,5,6,6,7,7,8,8,9,9,10,10,11,11,12,12,14,14,15,15,16,16,17,17,18,18,19,19,20,20,21,21,23,23,24,24,25,25,29,29,30,30,31,31,35,35,37,37,38,38,42,42,44,44,45,45,46,46,47,47],"right_children":[2,4,6,8,10,12,14,16,18,20,22,24,26,-1,28,30,32,34,36,38,40,42,-1,44,46,48,-1,-1,-1,50,52,54,-1,-1,-1,56,-1,58,60,-1,-1,-1,62,-1,64,66,68,70,-1,-1,-1,-1,-1,-1,-1,-1,-1,-1,-1,-1,-1,-1,-1,-1,-1,-1,-1,-1,-1,-1,-1],"split_conditions":[3.645E3,1E0,1.361E1,1.361E1,2E0,1.1E0,3.2414126E0,2E-3,3.68E-1,1E-2,4.8E0,1.12E1,3E0,1.0898728E-2,3.083E0,5E-1,1.661856E1,-2.9E-4,7.4E-2,9.852E0,8.033E1,8.518518E0,5.1332217E-2,-3.47E-4,2.9E1,1.18E2,-4.51362E-2,8.2706735E-2,1.3773338E-2,2.3676962E2,1.277E1,9.2633E-2,-5.342437E-3,2.2658056E-2,-3.935734E-2,2.9E-2,7.521342E-2,3.97E0,6.18E-1,5.1583793E-2,-6.137686E-2,5.471254E-2,8.7E-5,-2.9296793E-2,4.093E3,2.2974052E1,2.4501652E1,1.9E0,8.1227764E-2,-8.422361E-2,-1.55134285E-2,6.422885E-2,-3.8095333E-2,-8.735891E-2,2.3806554E-3,4.1890837E-2,-1.6764272E-2,2.5130084E-2,-4.5884855E-2,1.5417302E-2,8.735819E-2,-8.018989E-2,-2.4227787E-2,2.2661056E-2,8.082637E-2,-7.1858324E-2,4.5065865E-2,7.547146E-2,-4.6084743E-2,-8.58852E-3,6.817455E-2],"split_indices":[0,52,9,9,20,52,17,40,4,40,52,19,20,0,29,52,8,46,52,38,11,18,0,45,19,21,0,0,0,18,14,7,0,0,0,49,0,26,28,0,0,0,45,0,0,18,18,49,0,0,0,0,0,0,0,0,0,0,0,0,0,0,0,0,0,0,0,0,0,0,0],"split_type":[0,0,0,0,0,0,0,0,0,0,0,0,0,0,0,0,0,0,0,0,0,0,0,0,0,0,0,0,0,0,0,0,0,0,0,0,0,0,0,0,0,0,0,0,0,0,0,0,0,0,0,0,0,0,0,0,0,0,0,0,0,0,0,0,0,0,0,0,0,0,0],"sum_hessian":[4.378093E2,2.1237558E2,2.254337E2,1.7413364E2,3.8241947E1,1.4628462E2,7.9149086E1,1.6220708E2,1.1926554E1,2.7565649E1,1.06763E1,7.530935E1,7.0975266E1,1.1035191E0,7.804556E1,5.3136127E1,1.0907095E2,2.0663161E0,9.860238E0,2.4170204E1,3.3954442E0,9.074419E0,1.6018808E0,1.7554617E1,5.775473E1,6.932607E1,1.6491951E0,7.694942E1,1.0961426E0,3.784929E1,1.5286838E1,1.0724227E2,1.8286805E0,1.0076903E0,1.0586259E0,2.0063493E0,7.8538885E0,2.167859E0,2.2002344E1,1.0068103E0,2.3886337E0,1.0920985E0,7.982321E0,1.973735E0,1.5580883E1,4.0639755E1,1.7114975E1,1.7933529E1,5.1392544E1,3.1191982E1,6.657309E0,9.362905E0,5.923933E0,1.0623773E2,1.0045366E0,1.0045854E0,1.0017639E0,1.0687027E0,1.0991563E0,1.0041271E0,2.0998219E1,6.7501235E0,1.2321969E0,2.3061342E0,1.3274749E1,3.605157E1,4.5881853E0,1.0053732E1,7.061244E0,6.3816996E0,1.1551829E1],"tree_param":{"num_deleted":"0","num_feature":"53","num_nodes":"71","size_leaf_vector":"1"}},{"base_weights":[2.6616827E-2,-5.9312683E-1,6.095121E-1,-8.251164E-1,4.5685926E-1,3.611641E-1,1.0691955E0,-9.4087946E-1,6.801767E-1,8.244459E-1,-4.6832815E-1,-1.583649E-1,8.685939E-1,1.0514244E-2,1.081022E0,-5.748898E-1,-1.1160837E0,-1.4915308E-1,8.572852E-1,9.9258536E-1,-3.0319557E-1,-7.168164E-1,5.0261375E-2,7.336488E-1,-4.5168754E-1,9.106163E-1,-4.3063104E-2,8.1902504E-2,1.3296579E-2,-9.425454E-1,3.090622E-1,-1.1341186E0,-5.0954875E-3,1.8273473E-2,-3.5493176E-2,9.973507E-3,7.2564214E-2,-1.8011592E-1,1.1171271E0,4.11534E-2,-5.8275536E-2,5.3282492E-2,-9.7398216E-1,-3.135028E-2,8.954142E-1,-7.869467E-1,3.229985E-1,5.155564E-1,1.0523593E0,-8.3878085E-2,-1.9246109E-2,7.619623E-2,-2.321581E-2,2.0277807E-3,-8.603649E-2,2.4596127E-2,-4.4482194E-2,1.4867951E-2,8.639632E-2,-7.8096576E-2,-2.3307351E-2,8.914723E-3,7.577781E-2,-7.320591E-2,4.1544005E-2,7.356034E-2,-4.5501344E-2,-5.694399E-4,6.664241E-2,1.5478614E-2,8.0246285E-2],"categories":[],"categories_nodes":[],"categories_segments":[],"categories_sizes":[],"default_left":[0,0,0,0,0,0,0,0,0,0,0,0,0,0,0,0,0,0,0,0,0,0,0,0,0,0,0,0,0,0,0,0,0,0,0,0,0,0,0,0,0,0,0,0,0,0,0,0,0,0,0,0,0,0,0,0,0,0,0,0,0,0,0,0,0,0,0,0,0,0,0],"id":20,"left_children":[1,3,5,7,9,11,13,15,17,19,21,23,25,-1,27,29,31,33,35,37,39,41,-1,43,45,47,-1,-1,-1,49,51,53,-1,-1,-1,-1,-1,55,57,-1,-1,-1,59,-1,61,63,65,67,69,-1,-1,-1,-1,-1,-1,-1,-1,-1,-1,-1,-1,-1,-1,-1,-1,-1,-1,-1,-1,-1,-1],"loss_changes":[1.5143617E2,4.9874184E1,2.4272995E1,2.9703758E1,1.3110669E1,3.7505753E1,6.752701E-1,9.316406E0,1.962563E0,5.4465637E0,3.6704793E0,1.8878204E1,4.879814E0,0E0,5.443802E-1,1.7300356E1,1.888092E0,5.035639E-1,7.050152E-1,3.6847477E0,2.1570034E0,4.266684E0,0E0,3.7131386E0,1.4269368E1,3.3893356E0,0E0,0E0,0E0,4.2008057E0,7.366551E0,1.5768585E0,0E0,0E0,0E0,0E0,0E0,8.556545E-1,4.6603775E-1,0E0,0E0,0E0,6.360531E-2,0E0,1.3111677E0,1.0165876E1,1.0996542E1,4.0072927E0,5.33905E-1,0E0,0E0,0E0,0E0,0E0,0E0,0E0,0E0,0E0,0E0,0E0,0E0,0E0,0E0,0E0,0E0,0E0,0E0,0E0,0E0,0E0,0E0],"parents":[2147483647,0,0,1,1,2,2,3,3,4,4,5,5,6,6,7,7,8,8,9,9,10,10,11,11,12,12,14,14,15,15,16,16,17,17,18,18,19,19,20,20,21,21,23,23,24,24,25,25,29,29,30,30,31,31,37,37,38,38,42,42,44,44,45,45,46,46,47,47,48,48],"right_children":[2,4,6,8,10,12,14,16,18,20,22,24,26,-1,28,30,32,34,36,38,40,42,-1,44,46,48,-1,-1,-1,50,52,54,-1,-1,-1,-1,-1,56,58,-1,-1,-1,60,-1,62,64,66,68,70,-1,-1,-1,-1,-1,-1,-1,-1,-1,-1,-1,-1,-1,-1,-1,-1,-1,-1,-1,-1,-1,-1],"split_conditions":[3.645E3,1E0,1.361E1,1.361E1,2E0,1E0,3.2414126E0,2E-3,3.68E-1,1E-2,4.8E0,1.15E1,3E0,1.0514244E-2,3.083E0,5E-1,1.661856E1,2.891E-1,4.845E-2,9.852E0,8.475E1,8.518518E0,5.0261375E-2,-3.47E-4,2.9E1,1.18E2,-4.3063104E-2,8.1902504E-2,1.3296579E-2,2.973987E1,4.046E-1,9.5E0,-5.0954875E-3,1.8273473E-2,-3.5493176E-2,9.973507E-3,7.2564214E-2,1.1906E-1,6.18E-1,4.11534E-2,-5.8275536E-2,5.3282492E-2,8.7E-5,-3.135028E-2,4.093E3,2.2974052E1,2.4501652E1,1.9E0,1.07E0,-8.3878085E-2,-1.9246109E-2,7.619623E-2,-2.321581E-2,2.0277807E-3,-8.603649E-2,2.4596127E-2,-4.4482194E-2,1.4867951E-2,8.639632E-2,-7.8096576E-2,-2.3307351E-2,8.914723E-3,7.577781E-2,-7.320591E-2,4.1544005E-2,7.356034E-2,-4.5501344E-2,-5.694399E-4,6.664241E-2,1.5478614E-2,8.0246285E-2],"split_indices":[0,52,9,9,20,52,17,40,4,40,52,19,20,0,29,52,8,15,8,38,11,18,0,45,19,21,0,0,0,17,16,19,0,0,0,0,0,8,28,0,0,0,45,0,0,18,18,49,52,0,0,0,0,0,0,0,0,0,0,0,0,0,0,0,0,0,0,0,0,0,0],"split_type":[0,0,0,0,0,0,0,0,0,0,0,0,0,0,0,0,0,0,0,0,0,0,0,0,0,0,0,0,0,0,0,0,0,0,0,0,0,0,0,0,0,0,0,0,0,0,0,0,0,0,0,0,0,0,0,0,0,0,0,0,0,0,0,0,0,0,0,0,0,0,0],"sum_hessian":[4.172048E2,2.022024E2,2.150024E2,1.6578674E2,3.6415653E1,1.4074782E2,7.425458E1,1.5429575E2,1.1491006E1,2.6139175E1,1.027648E1,6.988469E1,7.086312E1,1.0949823E0,7.31596E1,5.1337162E1,1.0295858E2,2.049913E0,9.4410925E0,2.2851604E1,3.28757E0,