tree
version=v4
num_class=1
num_tree_per_iteration=1
label_index=0
max_feature_idx=51
objective=binary sigmoid:1
feature_names=Column_0 Column_1 Column_2 Column_3 Column_4 Column_5 Column_6 Column_7 Column_8 Column_9 Column_10 Column_11 Column_12 Column_13 Column_14 Column_15 Column_16 Column_17 Column_18 Column_19 Column_20 Column_21 Column_22 Column_23 Column_24 Column_25 Column_26 Column_27 Column_28 Column_29 Column_30 Column_31 Column_32 Column_33 Column_34 Column_35 Column_36 Column_37 Column_38 Column_39 Column_40 Column_41 Column_42 Column_43 Column_44 Column_45 Column_46 Column_47 Column_48 Column_49 Column_50 Column_51
feature_infos=[0.29363009333610535:1064.26806640625] [121.35854339599609:1472.5223388671875] [2454954.25:2456305.5] [0:100.19599914550781] [0.10459999740123749:117.51999664306641] [0.80000001192092896:1541400] [0.0012890000361949205:99.230606079101562] [5.999999848427251e-05:976.101318359375] [0.079999998211860657:200346] [0.0059000002220273018:2.1524999141693115] [2.2899999618530273:90] [116:14667] [0.039999999105930328:10947555] [0.37299999594688416:2162.89990234375] [-0.12060000002384186:0.46399998664855957] [0.12780000269412994:0.93889999389648438] [2.5387611389160156:22982.162109375] [7.1173748970031738:120049.6796875] [0:9054.7001953125] [1:7] [0:2664] [1:8] [0:140] [-1:1] [2661:15896] [0.26899999380111694:5.2829999923706055] [-2.5:0.56000000238418579] [0.11599999666213989:138.05599975585938] [0:3.6440000534057617] [280.20660400390625:301.72076416015625] [36.577381134033203:52.220340728759766] [6.9660000801086426:19.485000610351562] [7.9879999160766602:21.149999618530273] [7.1009998321533203:19.358999252319336] [7.6739997863769531:18.841999053955078] [7.6570000648498535:17.402999877929688] [5.4310002326965332:17.023000717163086] [5.0539999008178711:16.339000701904297] [4.9409999847412109:16.468000411987305] [0:0.99800002574920654] [18.680435180664062:20.114784240722656] [36.576889038085938:52.224781036376953] [-742.42999267578125:231.69999694824219] [-397.6199951171875:505.42001342773438] [-1:0.80000001192092896] [-2:0.63999998569488525] [-25.100000381469727:45.680000305175781] [-75.900001525878906:27.5] [0:88.599998474121094] [-27.799999237060547:46.569999694824219] [-76.599998474121094:31.200000762939453] [0:89.599998474121094]
tree_sizes=6534 6690 6691 6706 6716 6714 6699 6717 6714 6706 6721 6718 6728 6748 6734 6730 6757 6744 6735 6740 6708 6716 6720 6735 6732 6715 6749 6729 6713 6710 6739 6746 6758 6740 6716 6760 6731 6739 6738 6729 6741 6720 6756 6729 6724 6737 6751 6734 6756 6754 6738 6744 6737 6767 6779 6790 6773 6776 6759 6764 6766 6756 6786 6785 6789 6798 6783 6775 6792 6812 6793 6798 6813 6825 6805 6815 6821 6809 6832 6812 6820 6801 6817 6859 6827 6827 6836 6849 6831 6827 6842 6847 6865 6846 6837 6843 6855 6848 6887 6869 6864 6885 6856 6851 6872 6877 6883 6856 6888 6902 6892 6907 6886 6918

Tree=0
num_leaves=63
num_cat=0
split_feature=19 39 51 51 8 17 8 18 18 26 48 8 13 0 19 48 8 17 7 16 11 48 48 4 47 51 51 18 4 8 8 16 16 17 1 45 36 13 47 17 26 17 8 8 18 44 27 31 6 8 49 16 26 48 49 43 10 29 14 0 3 0
split_gain=1054.46 439.892 311.315 193.001 191.701 186.659 105.209 96.5019 61.6164 47.7645 46.1326 77.2104 38.3189 26.5222 23.0339 19.5262 138.364 39.8786 23.0849 14.5842 13.2347 12.6174 49.4304 12.5454 10.6151 8.69371 7.82237 9.44675 7.79749 19.483 6.97642 6.42983 6.33538 4.92023 4.35171 3.68947 6.34433 3.68239 7.23253 3.04528 2.82067 2.50332 2.278 12.8079 2.981 1.84252 1.70341 1.76494 1.66615 1.50178 1.4613 1.40373 1.22835 0.947887 3.61608 9.41618 0.81163 0.502019 1.16011 0.419277 0.418895 0.41001
threshold=1.5000000000000002 0.0015000000712461772 1.0649999976158144 1.7100000381469729 14.160000324249269 10.214834690093996 15.34999990463257 9.2500000000000018 10.449999809265138 0.089999999850988402 0.52199998497962963 19.659999847412113 3.4376399517059331 209.68471527099612 2.5000000000000004 0.52199998497962963 13.654999732971193 13.031952381134035 0.2169350013136864 7.4629075527191171 1967.5000000000002 0.52199998497962963 0.5314999818801881 11.260499954223635 0.057499999180436141 0.49150000512599951 1.3650000095367434 11.949999809265138 1.6729000210762026 2.4550000429153447 2.5649999380111699 61.113281250000007 5.0587627887725839 9.7747664451599139 132.25030517578128 0.00022500000341096896 14.038499832153322 11.784999847412111 -0.19700000435113904 14.037712574005129 -0.24999999254941938 9.1184248924255389 2.5649999380111699 2.5949999094009404 18.050000190734867 0.0001705000031506643 0.55450001358985912 10.453999996185305 0.13404699414968493 0.83499997854232799 0.63499999046325695 8.3116927146911639 0.044999999925494201 1.0249999761581423 -0.11950000002980231 -0.62499999999999989 89.954998016357436 286.67282104492193 0.28264999389648443 2.0236349105834965 0.0084999999962747114 139.93528747558597
decision_type=2 2 2 2 2 2 2 2 2 2 2 2 2 2 2 2 2 2 2 2 2 2 2 2 2 2 2 2 2 2 2 2 2 2 2 2 2 2 2 2 2 2 2 2 2 2 2 2 2 2 2 2 2 2 2 2 2 2 2 2 2 2
left_child=1 9 4 6 5 41 8 -7 24 15 11 45 -9 23 49 16 17 -1 -19 -15 21 61 30 28 -2 -12 27 -4 29 39 -23 34 -29 -24 -20 -35 -37 -27 -39 -14 -36 -3 50 -44 -45 -11 -17 -48 -18 -5 59 56 -8 54 55 -49 57 58 -28 -30 -55 -10
right_child=3 2 26 14 -6 7 52 12 20 10 25 -13 13 19 -16 46 48 18 31 -21 -22 22 33 -25 -26 37 51 32 42 -31 -32 -33 -34 35 40 36 -38 38 -40 -41 -42 -43 43 44 -46 -47 47 53 -50 -51 -52 -53 -54 60 -56 -57 -58 -59 -60 -61 -62 -63
leaf_value=0.66151722485123243 0.65064123680669128 0.66151722485123243 0.65281643441559956 0.61801327267306783 0.65925139400861965 0.66151722485123243 0.66151722485123243 0.6231313846940284 0.44442565246610055 0.44399746396040995 0.55275734440582125 0.66151722485123243 0.50925339222765664 0.66151722485123243 0.52076914427481791 0.6271719994474183 0.61801327267306794 0.62073226968420314 0.52168309284998948 0.48750141613857445 0.57450932049490344 0.53100536831673895 0.52309555882979997 0.57450932049490344 0.52309555882979997 0.65872850996801668 0.66151722485123243 0.50332103511245241 0.46574944004949215 0.5993687217395689 0.63862040791535635 0.54550668570946037 0.61801327267306794 0.44539182140201772 0.50332103511245263 0.44399746396040995 0.55275734440582114 0.56635232946149761 0.66151722485123243 0.44399746396040995 0.44399746396040984 0.6113203569533503 0.56112348905546816 0.50332103511245252 0.44615112495932896 0.48750141613857445 0.6271719994474183 0.54287008254714741 0.66104332559003232 0.66151722485123243 0.48354651139510491 0.61801327267306794 0.61801327267306794 0.63976524876215013 0.65938467817583224 0.6547197323233942 0.63592666474642978 0.66151722485123243 0.61801327267306794 0.44399746396040995 0.66124361508910556 0.46574944004949215
leaf_weight=5.0570119619369533 4.5972836017608634 14.711307525634767 5.7466045022010785 2.2986418008804383 22.066961288452148 6.8959254026412955 5.5167403221130362 3.9076910614967337 116.77100348472595 8.2751104831695574 2.7583701610565212 7.5855179429054251 2.2986418008804312 2.5285059809684745 3.9076910614967337 4.3674194216728202 2.2986418008804312 3.6778268814086941 3.2180985212326076 2.2986418008804321 2.2986418008804312 2.2986418008804312 2.5285059809684745 2.2986418008804312 2.5285059809684753 17.929406046867374 4.5972836017608634 2.5285059809684753 2.2986418008804312 3.2180985212326041 4.367419421672821 3.4479627013206473 2.2986418008804321 35.858812093734741 2.5285059809684816 3.2180985212326041 2.2986418008804321 3.6778268814086914 4.3674194216728193 8.0452463030815107 9.6542955636978061 2.9882343411445609 2.9882343411445644 2.528505980968478 23.216282188892365 3.4479627013206473 4.3674194216728202 2.5285059809684753 105.50765866041183 14.481443345546721 2.5285059809684745 2.2986418008804312 2.2986418008804321 2.2986418008804312 46.892292737960815 7.355653762817381 3.9076910614967337 44.36378675699234 2.2986418008804321 61.143871903419495 182.74202316999435 2.2986418008804312
leaf_count=22 20 64 25 10 96 30 24 17 508 36 12 33 10 11 17 19 10 16 14 10 10 10 11 10 11 78 20 11 10 14 19 15 10 156 11 14 10 16 19 35 42 13 13 11 101 15 19 11 459 63 11 10 10 10 204 32 17 193 10 266 795 10
internal_value=0.583624 0.614211 0.558954 0.485189 0.522027 0.500983 0.469147 0.479656 0.46131 0.644005 0.59699 0.53722 0.469144 0.46393 0.630098 0.649857 0.634558 0.534631 0.506146 0.578653 0.455339 0.453724 0.474648 0.458921 0.605383 0.637155 0.649025 0.609502 0.456467 0.491926 0.601512 0.483788 0.557936 0.455386 0.46997 0.451248 0.489314 0.646118 0.618013 0.458499 0.45631 0.653042 0.451389 0.463139 0.451766 0.456793 0.658125 0.658674 0.660126 0.655558 0.446271 0.656297 0.648722 0.659243 0.653591 0.626107 0.657892 0.659566 0.647016 0.444786 0.660977 0.444837
internal_weight=0 667.985 234.002 207.567 165.962 143.895 186.88 126.195 179.064 433.984 48.0416 19.3086 119.3 115.392 20.6878 385.942 135.39 27.5837 22.5267 4.82715 171.938 169.64 50.5701 110.565 7.12579 28.733 68.0398 10.5738 108.266 13.562 6.66606 18.8489 4.82715 43.9041 15.4009 41.3756 5.51674 25.9747 8.04525 10.3439 12.1828 17.6995 94.704 28.733 25.7448 11.7231 250.552 246.185 107.806 16.7801 65.971 57.466 7.81538 241.817 56.7765 9.88416 55.1674 51.2597 6.89593 63.4425 185.041 119.07
internal_count=3809 2906 1018 903 722 626 813 549 779 1888 209 84 519 502 90 1679 589 120 98 21 748 738 220 481 31 125 296 46 471 59 29 82 21 191 67 180 24 113 35 45 53 77 412 125 112 51 1090 1071 469 73 287 250 34 1052 247 43 240 223 30 276 805 518
is_linear=0
shrinkage=1


Tree=1
num_leaves=63
num_cat=0
split_feature=19 39 51 8 51 17 8 18 18 26 8 48 13 0 19 48 6 17 36 13 16 51 50 4 47 48 48 8 51 18 20 26 20 0 8 8 4 48 44 12 16 0 8 46 17 1 32 27 8 18 42 49 8 48 49 43 10 29 29 42 16 10
split_gain=935.675 404.801 279.751 170.113 166.895 163.484 90.6339 84.0141 52.4023 44.8823 41.9429 71.4789 32.8686 22.4212 18.6161 18.6124 127.93 36.343 19.7505 13.1895 13.1011 11.2275 21.7593 10.5812 9.66971 9.12971 43.0011 8.78647 7.41218 8.70689 6.76585 6.643 6.2622 5.49209 4.09146 19.1428 6.83231 4.03227 7.65808 3.0592 2.88414 2.85841 2.76436 2.64267 2.3865 2.2378 1.65838 1.69403 1.43287 1.40444 1.32418 1.3016 1.25534 0.915659 3.45488 8.6912 0.783239 0.51008 1.15192 0.485542 1.06024 0.411735
threshold=1.5000000000000002 0.0015000000712461772 1.0649999976158144 14.160000324249269 1.7749999761581423 10.214834690093996 12.510000228881838 9.2500000000000018 10.449999809265138 0.089999999850988402 17.954999923706058 0.52199998497962963 3.4376399517059331 209.68471527099612 2.5000000000000004 0.52199998497962963 0.091111999005079283 13.031952381134035 11.145999908447267 3.0649999380111699 7.4629075527191171 0.98500001430511486 -0.017500000074505802 11.260499954223635 0.057499999180436141 0.52199998497962963 0.5314999818801881 13.070000171661379 1.3650000095367434 11.949999809265138 1377.0000000000002 -0.089999999850988374 127.50000000000001 0.96034818887710582 2.5649999380111699 2.5749999284744267 1.7395499944686892 1.5649999976158144 -3.9499998820247122e-05 568.69500732421886 8.0439147949218768 31.250217437744144 24.60999965667725 -0.099500000476837144 9.1184248924255389 179.08964538574222 10.796000003814699 0.55450001358985912 0.83499997854232799 58.549999237060554 -1.3263499736785886 0.7150000035762788 3.8900001049041752 1.0249999761581423 -0.11950000002980231 -0.62499999999999989 89.954998016357436 286.67282104492193 285.75579833984381 0.84499999880790722 5.0587627887725839 89.954998016357436
decision_type=2 2 2 2 2 2 2 2 2 2 2 2 2 2 2 2 2 2 2 2 2 2 2 2 2 2 2 2 2 2 2 2 2 2 2 2 2 2 2 2 2 2 2 2 2 2 2 2 2 2 2 2 2 2 2 2 2 2 2 2 2 2
left_child=1 9 3 5 6 44 8 -7 24 15 11 43 -9 23 48 16 17 -1 -19 -10 -15 22 -13 30 -2 59 31 -18 29 -4 34 -27 -31 -20 51 -36 -37 50 -39 41 -23 -35 -8 -11 -3 -38 -17 -48 -6 56 -28 -14 -47 54 55 -49 57 58 -30 -21 -61 -55
right_child=4 2 28 -5 14 7 42 12 19 10 -12 21 13 20 -16 46 27 18 33 25 -22 40 -24 -25 -26 26 37 -29 49 32 -32 -33 -34 39 35 36 45 38 -40 -41 -42 -43 -44 -45 -46 52 47 53 -50 -51 -52 -53 -54 61 -56 -57 -58 -59 -60 60 -62 -63
leaf_value=0.07580338953624495 0.064989354344569636 0.075803389536244992 0.067145833467079821 0.07354390282778496 0.033008183689287256 0.075803389536245019 0.011177017981601443 0.037980590763646911 0.0070663486662258775 -0.071976087473912903 0.076142036941590052 -0.13749559264603345 -0.12612872740000367 0.075803389536245019 -0.05396511991732416 0.041656913590122337 -0.0031917787186010885 0.056578390001722961 -0.027314535559900446 -0.12758434852193565 -0.088988121010195501 0.076136267896718943 0.061461739615048874 -0.0086357454013528505 -0.056545299697666467 0.053727491612136462 -0.08865201788575619 0.075364161065070656 0.076108319985238468 -0.078302016582302458 -0.036720712575835888 -0.051313278702075707 0.035359720414469477 -0.12987993931980826 0.034991019329214133 -0.031568732768462331 -0.12881953911984487 -0.016009880577224491 -0.12904529877741103 -0.059192692672760172 0.016338010189436824 -0.069022956271219252 0.076115331262755215 -0.1288063299113352 0.026529807169892741 -0.11341594357465815 0.041917569217427952 -0.03827383690200805 0.075803389536245019 0.031968157324412376 -0.12727957854358823 -0.088428035023587453 -0.065820928589276934 0.075535916601419451 0.07368102394636232 0.069035334727516717 0.050482722693964137 0.075845328175433269 0.031968157324412355 -0.12856338684922353 -0.086889492448671085 0.054041512029917249
leaf_weight=4.4905495643615749 4.5060464739799491 14.369758605957033 5.6287024170160276 21.57020902633667 2.2756998240947786 6.7358243465423575 2.2752336710691434 3.8627402335405341 2.0865532904863349 2.6070152074098578 16.901639461517334 2.3140672594308853 74.953065603971481 2.4698022603988639 3.7406029701232901 4.3024543523788443 3.6848663240671149 2.303953185677531 2.3369643241167095 116.39544205367565 2.3571552336215973 10.591828376054762 3.3837260007858303 2.3045511543750754 2.5701381862163544 4.3178851157426834 2.3589711189270011 104.6759370714426 4.2812346071004859 2.5467221289873123 2.5723262578248969 2.3106569349765769 2.311910092830658 10.887783393263815 2.3081302940845516 2.2907464057207134 21.609281122684482 2.5877582132816315 3.559488743543624 2.5405760109424582 2.4905501455068579 2.3450805097818366 5.8590119630098343 9.4993431866168994 2.9643163383007041 3.3283010870218268 4.3119017332792273 2.5569400936365128 13.920703649520872 2.2574447989463797 37.303016036748886 2.3615112900733939 2.3733096420764923 178.5266824811697 45.837010741233826 7.2004113197326642 3.8477067202329627 43.579628303647041 2.2574447989463806 4.2773162424564353 2.3729110062122345 2.2561157345771781
leaf_count=20 20 64 25 96 10 30 10 17 9 11 75 10 315 11 16 19 16 10 10 489 10 47 15 10 11 19 10 466 19 11 11 10 10 46 10 10 91 11 15 11 11 10 26 40 13 14 19 11 62 10 157 10 10 795 204 32 17 194 10 18 10 10
internal_value=0 0.0294123 -0.023249 -0.0575715 -0.091147 -0.076829 -0.10539 -0.0961276 -0.112585 0.058477 0.0128194 -0.0218318 -0.105559 -0.110221 0.0465712 0.0642452 0.0492071 -0.0529788 -0.0813071 -0.117903 -0.00466949 0.0392386 -0.0193416 -0.114686 0.0208468 -0.119389 -0.101919 0.0726928 0.0634081 0.0248184 -0.116873 0.0171111 -0.0242177 -0.0988485 -0.11876 -0.103697 -0.114511 -0.119142 -0.0814617 -0.109447 0.0647522 -0.119095 0.0579514 -0.116568 0.0673771 -0.121468 0.0724254 0.0729754 0.0697904 0.0706062 -0.124982 -0.124977 -0.0936044 0.0735419 0.0679302 0.0409147 0.0722225 0.0738915 0.0608692 -0.126834 -0.113693 0.0752677
internal_weight=0 661.187 235.142 168.431 212.717 146.861 192.78 129.527 184.646 426.045 47.7882 30.8865 122.791 118.928 19.937 378.257 133.266 24.9049 20.4144 177.57 4.82696 18.7802 5.69779 114.101 7.07618 175.483 52.4378 108.361 66.7108 10.4873 111.797 6.62854 4.85863 18.1104 109.224 31.9098 29.6016 45.8092 6.14725 15.7734 13.0824 13.2329 8.13425 12.1064 17.3341 27.3109 244.992 240.689 16.1964 56.2235 39.662 77.3146 5.70161 236.377 55.5944 9.75735 53.966 50.1183 6.53868 123.046 6.65023 180.783
internal_count=3809 2906 1018 722 903 626 815 549 779 1888 209 134 519 502 88 1679 589 107 87 748 21 83 25 481 31 739 222 482 296 46 471 29 21 77 460 135 125 193 26 67 58 56 36 51 77 115 1090 1071 72 250 167 325 24 1052 247 43 240 223 29 517 28 805
is_linear=0
shrinkage=0.05


Tree=2
num_leaves=63
num_cat=0
split_feature=19 39 51 8 51 18 8 13 18 26 8 48 0 7 48 8 7 19 16 42 51 47 11 48 48 47 11 11 15 24 51 18 26 4 16 18 36 26 48 19 24 16 36 8 48 40 8 6 8 50 13 8 16 43 16 42 7 48 1 10 7 16
split_gain=836.706 373.424 252.813 152.158 146.14 138.236 79.4117 55.4948 45.1479 42.1791 38.7209 63.3055 37.7756 17.8822 17.7356 118.326 29.7435 17.1709 13.7671 11.4045 10.4013 19.6597 10.0158 9.27827 36.0393 8.82777 7.28927 31.5175 7.1767 11.525 7.04377 8.03836 6.03858 5.78653 5.54901 4.87783 7.02007 4.38581 4.25907 7.29334 3.85159 2.74688 2.45296 2.30329 1.61622 4.79539 6.45389 1.55324 1.53022 1.50919 5.96136 1.37848 1.35847 1.24343 1.20941 1.19773 1.1928 1.16497 0.86725 0.759745 0.62328 0.729991
threshold=1.5000000000000002 0.0015000000712461772 1.0649999976158144 14.160000324249269 1.7749999761581423 11.150000095367433 15.34999990463257 2.3895000219345097 10.449999809265138 0.089999999850988402 17.954999923706058 0.52199998497962963 209.68471527099612 0.015000000130385162 0.52199998497962963 13.654999732971193 0.2169350013136864 2.5000000000000004 8.4408216476440447 0.84499999880790722 0.98500001430511486 -1.0000000180025095e-35 1967.5000000000002 0.52199998497962963 0.5314999818801881 0.057499999180436141 932.50000000000011 938.50000000000011 0.39519999921321874 5807.0000000000009 1.3650000095367434 11.949999809265138 -0.089999999850988374 1.2886499762535097 5.0587627887725839 9.2500000000000018 13.257500171661379 -0.24999999254941938 1.5649999976158144 2.5000000000000004 6059.0000000000009 8.0439147949218768 13.587500095367433 5.0950000286102304 1.4450000524520876 19.183877944946293 4.7049999237060556 0.13404699414968493 5.4149999618530282 -0.23900000005960462 14.164999961853029 0.83499997854232799 8.3116927146911639 0.15077499300241473 3.265510201454163 -1.3263499736785886 1.6747699975967409 0.80500000715255748 200.05988311767581 89.954998016357436 0.24422999471426013 5.1136462688446054
decision_type=2 2 2 2 2 2 2 2 2 2 2 2 2 2 2 2 2 2 2 2 2 2 2 2 2 2 2 2 2 2 2 2 2 2 2 2 2 2 2 2 2 2 2 2 2 2 2 2 2 2 2 2 2 2 2 2 2 2 2 2 2 2
left_child=1 9 3 5 6 35 8 -7 25 14 11 48 13 -9 15 16 42 51 -14 28 21 -13 23 -10 32 -2 43 -28 29 -18 31 -4 -25 -29 -33 -3 -37 -35 54 -40 -31 -22 -1 58 45 46 -16 -17 -11 50 -47 -6 59 -8 -26 -56 -30 60 -15 -32 61 -39
right_child=4 2 30 -5 17 7 53 12 22 10 -12 20 18 26 44 47 19 -19 -20 -21 41 -23 -24 24 38 -27 27 33 56 40 52 34 -34 37 -36 36 -38 57 39 -41 -42 -43 -44 -45 -46 49 -48 -49 -50 -51 -52 -53 -54 -55 55 -57 -58 -59 -60 -61 -62 -63
leaf_value=0.075870820052373625 0.063108284586395683 0.074005785355004336 0.065256275298548092 0.071652435362800831 0.031685527216077029 0.075249308236069026 0.074479335532865218 0.023320322484647878 -0.11797917129451418 -0.1200500197046992 0.074226315818152977 -0.11128189113531067 0.07460845848107682 -0.11890799161863663 -0.036174575649771383 0.031402620780969281 0.040109604985645669 -0.050583965102212594 -0.0718602031102865 0.034779229694369695 0.074220939095835547 0.074296512889144878 -0.0062728891100604957 0.051929288762488583 -0.080276589540227428 -0.052967002998963099 0.050621818685879852 -0.047187884567697881 -0.09005839467751911 -0.12226144137557399 0.072006058116837135 -0.07286278770184855 -0.04807914602548622 -0.056039432394389202 0.033914080642917753 0.07452113226617102 -0.046924225677329026 -0.11977718582005503 -0.015199587783257773 -0.12148344972077262 -0.043116604645395309 0.015602000155003041 0.010880616106941998 -0.071997963698922349 0.073125538438824841 0.074464011154843163 0.074040993144967357 0.073444026754208483 -0.08215925417324775 0.071313155930886815 -0.010263223154027031 0.073919703109104562 0.030503487241293238 0.029891794120265963 -0.082584553421112414 -0.11904748734449369 -0.12398120675645806 -0.082549269159345212 -0.092920370912795147 0.048757547119053016 -0.11995116957869795 -0.080956435496328694
leaf_weight=4.034803748130801 4.4107660651206961 13.147421449422838 5.5052421987056714 21.045925140380859 2.2527539730072048 4.9014085829257956 5.2931201606988898 2.7470787465572348 126.26222792267799 8.5045677125453967 16.48159758746624 2.8475220948457718 4.1874863505363455 64.677025720477104 2.6822382956743231 2.2460661530494681 2.5439530014991814 3.7897703647613517 2.6007394045591354 2.2889648973941794 10.328565046191214 2.8610144704580334 2.3309521973133078 4.2458778619766235 2.4191640913486472 2.6056185811758041 3.657862737774848 4.2581436038017264 4.3137970715761167 3.3808483332395554 48.897731482982635 2.5977796018123627 2.3419377803802481 3.5788412988185874 2.2887588292360306 2.4254814237356177 2.3359027206897736 2.4316023886203793 3.0820798724889746 3.3888842016458511 2.818949431180954 2.4779664278030387 2.2680274397134781 2.884046033024787 171.35620366036892 7.2691010385751706 2.6311999559402466 100.49810627102852 3.8803133964538565 52.269546627998352 2.9060188233852386 13.570536762475966 2.2312335968017569 2.2191980332136154 2.4044143557548514 35.563239216804504 6.4897938221693039 2.6734831482172003 3.3780140727758399 3.7862336188554755 26.480114549398422 2.4123152941465378
leaf_count=18 20 60 25 96 10 22 24 12 518 35 75 12 19 266 12 10 11 16 11 10 47 13 10 19 10 11 16 18 18 14 223 11 10 15 10 11 10 10 13 14 12 11 10 12 782 33 12 459 16 238 13 62 10 10 10 146 27 11 14 17 109 10
internal_value=0 0.0283636 -0.0220316 -0.0541828 -0.0851342 -0.0719834 -0.0981198 -0.0898126 -0.104455 0.0567536 0.0123367 -0.0206743 -0.0962352 -0.10277 0.0624416 0.0476452 -0.0431978 0.0450112 0.0184926 -0.0708156 0.037858 -0.0182734 -0.109252 -0.110588 -0.0931253 0.0200023 -0.105745 -0.0901224 -0.0831806 -0.0495044 0.0615737 0.0238257 0.0163768 -0.102429 -0.0228506 0.0583023 0.0149409 -0.108688 -0.10852 -0.0708611 -0.0862755 0.0628786 0.0524846 -0.115763 0.0705406 0.0640035 0.0184039 0.072525 -0.108178 0.0678836 0.0502659 0.0679068 0.0687169 0.0613078 -0.114554 -0.116738 -0.110436 -0.114231 -0.117618 0.0703353 -0.116935 -0.100444
internal_weight=0 652.509 235.13 169.823 216.181 148.777 196.567 130.868 189.055 417.379 47.3815 30.8999 125.967 119.179 369.998 130.883 28.1391 19.6131 6.78823 21.8363 18.5151 5.70854 182.039 179.708 53.4456 7.01638 116.431 45.4924 19.5473 8.74375 65.307 10.3918 6.58782 41.8345 4.88654 17.9088 4.76138 37.5764 46.8578 6.47096 6.1998 12.8065 6.30283 70.9391 239.114 67.7581 5.31344 102.744 12.3849 62.4447 10.1751 15.8233 54.9152 7.51232 40.3868 37.9677 10.8036 33.9975 68.055 52.684 31.324 4.84392
internal_count=3809 2906 1018 722 903 626 815 545 781 1888 209 134 523 493 1679 589 120 88 30 92 83 25 750 740 222 31 481 189 82 37 296 46 29 173 21 81 21 155 193 27 26 58 28 292 1090 308 24 469 51 284 46 72 250 34 166 156 45 140 280 240 129 20
is_linear=0
shrinkage=0.05


Tree=3
num_leaves=63
num_cat=0
split_feature=19 39 48 8 17 48 8 18 17 26 8 48 19 10 48 6 17 12 18 0 48 26 18 47 43 13 0 8 43 26 13 16 15 0 28 14 39 48 48 25 28 17 46 17 16 13 17 27 31 16 7 49 30 37 24 48 49 43 30 5 3 2
split_gain=752.932 345.182 221.759 138.041 115.762 112.044 68.5539 65.2925 42.9408 39.6333 35.8328 56.4839 31.5273 25.234 16.9025 110.285 30.2614 16.7398 13.3191 12.655 11.7992 13.5399 10.2351 9.72699 16.6697 8.0818 7.99716 7.67821 7.02536 6.8439 15.7832 16.1005 6.56433 5.57108 4.89957 4.63765 4.29008 11.8099 32.2662 3.51121 7.2565 2.39681 2.25087 2.23302 2.04017 8.02357 14.3113 1.57988 1.67047 1.55994 1.39713 3.83363 1.33334 1.27576 1.20933 0.876067 3.2923 7.98344 0.427666 0.418071 0.414332 0.402963
threshold=1.5000000000000002 0.0015000000712461772 0.8829999864101411 14.160000324249269 10.214834690093996 1.5649999976158144 15.34999990463257 9.3499999046325701 8.5134153366088885 0.089999999850988402 17.954999923706058 0.52199998497962963 2.5000000000000004 71.329998016357436 0.52199998497962963 0.091111999005079283 13.031952381134035 4674.3601074218759 10.449999809265138 209.68471527099612 1.2910000085830691 0.12999999895691874 13.650000095367433 -1.0000000180025095e-35 -1.6850000023841856 19.920499801635746 25.354072570800785 13.070000171661379 2.1900000572204594 -0.089999999850988374 12.88000011444092 5.8273959159851083 0.38764999806880956 41.052820205688484 1.1355000138282778 0.24344999343156817 0.0015000000712461772 0.51399999856948864 0.56499999761581432 4.4405000209808358 1.0554999709129336 9.1184248924255389 -0.099500000476837144 34.135501861572273 5.2089462280273446 7.0150001049041757 10.018454074859621 0.55450001358985912 10.453999996185305 3.658430933952332 6.2943649291992196 0.078500002622604384 44.779705047607429 13.261499881744387 6388.5000000000009 1.0249999761581423 -0.11950000002980231 -0.62499999999999989 38.673934936523445 335.64999389648443 0.0084999999962747114 2455226.1250000005
decision_type=2 2 2 2 2 2 2 2 2 2 2 2 2 2 2 2 2 2 2 2 2 2 2 2 2 2 2 2 2 2 2 2 2 2 2 2 2 2 2 2 2 2 2 2 2 2 2 2 2 2 2 2 2 2 2 2 2 2 2 2 2 2
left_child=1 9 3 4 41 6 8 -6 -2 14 11 42 43 -9 15 16 -1 33 26 29 21 22 -4 24 -13 -24 -10 -17 36 30 31 32 -15 39 -32 -14 37 -20 52 40 -18 -3 -11 49 45 -22 -47 -16 -49 -7 -31 -52 -39 -8 -38 56 57 -50 -46 -5 -57 -58
right_child=5 2 20 59 7 12 53 13 18 10 -12 23 35 19 47 27 17 -19 28 -21 44 -23 25 -25 -26 -27 -28 -29 -30 50 34 -33 -34 -35 -36 -37 54 38 -40 -41 -42 -43 -44 -45 58 46 -48 48 55 -51 51 -53 -54 -55 -56 60 61 -59 -60 -61 -62 -63
leaf_value=0.073058298079373626 0.077553576282123185 0.072694858352815611 0.073270455827946154 0.048952761501026579 0.072298501552076552 0.036021757656776454 0.073109340740994178 0.073942659772026617 -0.079616581061380115 -0.060669773660772246 0.072493989176505597 0.063438738523706406 -0.11813627485066983 -0.11294898705144983 0.038339073898659641 -0.0015008953216816331 -0.0015473549060853352 0.055594506102042231 -0.10857733122396451 -0.013351888776605675 0.072603524817413195 -0.079224198441185334 0.038476328486931707 0.072676091715482713 -0.073011212778433227 -0.073834712808157385 0.051127368119340072 0.071787420202967328 -0.019202165222065266 -0.11189509036818704 -0.11026063182600664 0.051408566517194713 -0.021129034923365788 -0.023455136978584878 -0.036050642945170033 -0.035791413856830261 -0.11082172116167294 0.023723820655290485 -0.11241484766018067 -0.11504222590475016 -0.12505730160494569 0.02044405946061471 -0.11221962925659164 0.019276178542497899 0.049540854764097461 0.062150318439757629 -0.080987018115504253 0.037985404974160551 -0.037785428489073652 0.073475778157537322 -0.11293900548811904 -0.037287163956849265 0.075259297652154111 0.027119845955773294 -0.075290886707559901 0.049931479609366045 0.071226613791881957 0.065608527123396751 0.072623604192704055 0.07237069216801309 0.071966815259810163 0.048954922765630571
leaf_weight=4.3162476867437389 3.3892877846956244 11.799169108271597 8.2070469111204165 2.1354761719703701 6.185016229748725 3.768147945404059 4.9686114788055411 2.1895368397235861 2.523127779364585 2.6952272653579703 16.042788282036781 4.7836992889642715 2.9239315241575232 4.6866855919361097 4.1761064082384101 3.7071253955364218 2.3647283464670243 2.2779009640216819 33.367207795381546 4.3203902989625922 14.992117464542391 3.0750514566898337 3.658880963921546 9.2242711335420573 4.2065999954938924 2.8490254729986191 2.1802208870649338 99.371070802211761 2.3952223211526862 66.34370057284832 26.174496680498127 3.6891729086637488 3.3292300701141357 2.8351155370473853 2.4307512044906607 4.1180784404277802 126.07227948307991 2.890745371580123 8.6391242444515211 11.04415290057659 2.3923235237598419 2.6963074207305899 9.8798364400863665 3.5311715900897971 2.149323731660842 4.7245617210865012 2.7701725512742996 4.1621488332748404 2.5613114982843399 10.601695775985716 5.4244589209556571 2.4224358797073364 2.2181079238653183 2.1650704145431519 2.4412024617195121 2.1604820787906638 41.469805955886841 6.8870782852172834 30.227215260267258 17.725606977939606 169.46068879961967 2.1355322003364554
leaf_count=20 15 55 38 10 29 17 23 10 11 11 75 22 12 19 19 16 10 10 135 19 70 13 16 43 18 12 10 466 10 269 106 16 14 12 10 17 510 13 35 45 10 12 40 16 10 22 12 19 11 49 22 10 10 10 10 10 194 32 141 83 795 10
internal_value=0 0.0274171 -0.0209687 -0.0535961 -0.0709002 -0.0800875 -0.0929599 -0.0861569 -0.0987901 0.0551817 0.0119042 -0.0196658 0.019643 -0.0942558 0.060791 0.0462177 -0.0474784 -0.0723546 -0.102061 -0.0973552 0.0515818 0.0161967 0.0361372 0.036604 -0.000406785 -0.0106911 -0.0190107 0.0691517 -0.104255 -0.100525 -0.083941 -0.0350313 -0.0748136 -0.0879937 -0.103955 -0.069982 -0.105415 -0.0925089 -0.0535099 -0.0995735 -0.0636606 0.0629757 -0.101171 0.0549003 0.0630558 0.0514863 0.00924449 0.0688159 0.069372 0.0636544 -0.109535 -0.0895843 0.0460989 0.0591515 -0.110147 0.0699535 0.064338 0.03758 0.0710913 0.0698528 0.0716894 0.0701359
internal_weight=0 642.36 234.206 161.552 141.691 218.193 193.25 127.196 186.117 408.154 46.8324 30.7896 24.943 121.011 361.322 128.309 25.2305 20.9142 182.727 118.821 72.6534 17.79 14.715 18.2146 8.9903 6.50791 4.70335 103.078 178.024 114.501 40.3103 11.7051 8.01592 18.6363 28.6052 7.04201 175.629 47.1152 13.748 15.8012 4.75705 14.4955 12.5751 17.901 54.8634 22.4869 7.49473 233.013 228.837 14.3698 74.1906 7.84689 5.10885 7.13368 128.513 224.675 53.0537 9.44839 32.3765 19.8611 171.621 43.6053
internal_count=3809 2906 1018 684 591 903 792 524 759 1888 209 134 111 495 1679 589 107 87 744 485 334 79 66 83 40 28 21 482 723 466 165 49 33 77 116 29 713 193 58 65 20 67 51 82 255 104 34 1090 1071 66 301 32 23 33 520 1052 247 43 151 93 805 204
is_linear=0
shrinkage=0.05


Tree=4
num_leaves=63
num_cat=0
split_feature=19 39 51 8 17 51 8 18 17 26 8 48 13 48 6 17 7 0 19 18 16 51 47 43 12 6 26 51 18 7 20 48 48 20 3 6 48 51 16 17 10 49 42 32 27 18 44 43 15 8 24 26 28 0 48 49 43 10 8 0 29 43
split_gain=680.929 319.671 209.436 124.113 117.655 116.99 62.709 58.8988 38.8172 37.2829 33.2292 50.7075 22.7022 16.0985 102.342 26.1693 17.4942 14.7395 14.4893 12.8797 10.9218 9.28519 16.6364 8.22438 7.43225 9.17487 6.72249 6.36581 6.80497 5.44691 5.05306 4.61899 27.4772 4.53496 3.58405 3.49746 3.32815 6.38375 2.60161 2.16232 1.95439 1.8193 3.3518 1.59184 1.60012 1.38951 1.36832 1.33493 2.86114 1.33433 1.26218 1.22863 1.04083 0.889595 0.859834 3.17434 7.39563 0.754312 0.623628 0.550402 0.519758 1.17689
threshold=1.5000000000000002 0.0015000000712461772 1.0649999976158144 14.160000324249269 10.214834690093996 1.7749999761581423 15.34999990463257 9.2500000000000018 8.5134153366088885 0.089999999850988402 17.954999923706058 0.52199998497962963 3.4376399517059331 0.52199998497962963 0.12627249956130984 13.031952381134035 0.038365000858902938 209.68471527099612 2.5000000000000004 10.449999809265138 7.4629075527191171 0.98500001430511486 -0.26900000870227808 2.1900000572204594 2426.549926757813 0.084809001535177245 -0.074999999254941926 1.3650000095367434 11.949999809265138 0.016699999570846561 127.50000000000001 0.52199998497962963 0.5314999818801881 1377.0000000000002 0.94789999723434459 0.023417499847710136 1.5649999976158144 0.56499999761581432 8.0439147949218768 9.1184248924255389 89.93500137329103 0.39499999582767492 0.25172500312328344 10.796000003814699 0.55450001358985912 58.549999237060554 0.0001705000031506643 -1.0549999475479124 0.38764999806880956 0.83499997854232799 6388.5000000000009 0.044999999925494201 1.328999996185303 2.7572567462921147 1.0249999761581423 -0.11950000002980231 -0.62499999999999989 89.954998016357436 5.0950000286102304 93.636287689208999 286.67282104492193 -0.70499998331069935
decision_type=2 2 2 2 2 2 2 2 2 2 2 2 2 2 2 2 2 2 2 2 2 2 2 2 2 2 2 2 2 2 2 2 2 2 2 2 2 2 2 2 2 2 2 2 2 2 2 2 2 2 2 2 2 2 2 2 2 2 2 2 2 2
left_child=1 9 3 4 39 6 8 -6 -2 13 11 46 -9 14 15 -1 -17 29 49 26 -19 22 -13 31 25 40 -10 28 -4 -14 -30 52 35 34 41 -33 -34 -38 -23 -3 53 47 -43 -15 -45 57 -11 48 -31 -7 58 -8 -21 -18 55 56 -46 60 59 -49 61 -29
right_child=5 2 27 -5 7 18 51 12 19 10 -12 21 17 43 -16 16 24 20 -20 23 -22 38 -24 -25 -26 -27 -28 45 30 33 -32 32 36 -35 -36 -37 37 -39 -40 -41 -42 42 -44 44 54 -47 -48 50 -50 -51 -52 -53 -54 -55 -56 -57 -58 -59 -60 -61 -62 -63
leaf_value=0.071730491403181329 0.076464957550286136 0.071182913110587318 0.061823417838286224 0.068394380885165071 0.070660762991349463 0.028932393162383281 0.071463508806134016 0.034493366515510673 0.0513344896488847 -0.10581934003775695 0.070921718799391326 -0.11560373806261715 -0.0143345306745572 0.036344996786719312 0.069744616198724421 0.075562832230054597 -0.076178634860211439 0.072334114826225857 -0.043375111778358268 -0.10443169458921119 -0.07892626939722408 0.071288807511870583 0.057576538946053683 -0.0097202128906295204 0.013950443482049997 -0.0070086016507594278 -0.071131713837030722 0.025157958684231159 -0.067151195419601142 -0.10651646319082396 0.034384628420632175 -0.034498911922793245 -0.10428330634511525 -0.030581674757535357 -0.050102600431133931 0.045959929616555317 -0.1125404107402108 -0.013499849351925967 0.013590466405154863 0.023511023699286388 -0.055165098781321024 -0.10660340144910735 -0.04598104081941564 0.03693470933457315 -0.035547025759009872 0.025973708210547116 -0.069737107967007925 -0.10498029407869865 -0.035609230845560801 0.071048754191267049 -0.073349900584315786 0.026313930214284603 -0.07313986110810683 -0.10940777277745964 0.070135109164630019 0.068556532721480976 0.063970614276713675 0.045195033324478613 -0.083857441194345794 -0.085837161512276508 0.070877643147565325 0.071265015728958533
leaf_weight=4.6382138431072262 3.3430831283330908 13.361813217401506 5.241149500012396 19.954201504588127 6.2069879472255698 2.2010000497102764 5.0402766019105902 3.7291054576635352 2.177226722240448 8.9696358442306536 15.58999742567539 2.4523089528083801 2.0990545004606238 4.0944238901138297 96.395488038659096 2.2352354824543026 2.4358360469341376 2.3470384478569022 3.8816508650779715 126.9652876406908 2.4279088228940964 9.829779848456381 3.1916009932756451 2.6342072933912268 2.2997907996177664 3.4657208472490302 2.3089034706354132 2.1230039298534393 2.6400164067745209 3.4852315038442603 2.2866800725460052 2.1366858482360831 40.37291456758976 2.6220772266387931 3.9200346171855918 3.6715358644723892 3.4479783326387397 3.0807172209024429 2.4383049458265296 2.8938360512256613 2.4380307346582404 4.7293317764997465 4.4027147740125656 4.1196071207523337 2.5858100801706314 2.1418930143117896 3.7160178422927848 83.975630402565002 2.4039108455181122 12.920094132423399 3.6707431077957144 2.1493384540081024 2.7142080664634696 11.634927421808241 166.7916287779808 42.414963752031326 6.7146321386098844 3.6444339007139197 3.9669849127531043 3.9306171089410773 40.298414781689644 3.9761071503162375
leaf_count=22 15 64 25 96 30 10 24 17 10 36 75 10 9 19 465 10 10 11 16 509 10 47 15 11 10 15 10 10 11 14 10 9 162 11 16 17 14 13 11 13 10 19 18 19 11 10 15 337 10 62 15 10 11 47 805 204 32 17 16 16 194 19
internal_value=0 0.026561 -0.0200327 -0.048763 -0.0643303 -0.0757605 -0.0870227 -0.0797495 -0.0924279 0.0537464 0.0115078 -0.0187645 -0.0870598 0.0592845 0.0449204 -0.0371764 -0.0577861 -0.0907158 0.0427975 -0.0954073 -0.00457698 0.035404 -0.0176712 -0.097437 -0.0711677 -0.0809679 -0.0116959 0.0583583 0.0221652 -0.0941662 -0.0200243 -0.0987039 -0.0862233 -0.0955971 -0.0970862 0.0163613 -0.0989272 -0.0658058 0.0598212 0.0626963 -0.0964943 -0.098752 -0.0773763 0.0672384 0.0678066 0.0654104 -0.0952497 -0.100676 -0.0775726 0.0649184 -0.102101 0.057966 -0.103777 -0.103655 0.0683886 0.0627558 0.0363016 0.0670984 -0.103249 -0.104124 0.0688189 0.0552159
internal_weight=0 630.931 232.479 170.127 150.173 219.045 200.042 133.917 192.853 398.452 46.1876 30.5976 127.71 352.264 125.543 29.1478 24.5095 123.981 19.0027 189.51 4.77495 17.912 5.64391 185.024 22.2743 19.9745 4.48613 62.3517 10.1678 119.206 4.9267 182.389 52.7098 117.107 114.485 5.80822 46.9016 6.5287 12.2681 16.2556 16.5088 110.565 9.13205 226.721 222.627 52.1839 12.6857 101.433 5.88914 15.1211 95.544 7.18962 129.679 14.0708 218.507 51.7154 9.30044 50.042 91.8732 87.9062 46.3975 6.09911
internal_count=3809 2906 1018 722 626 903 815 549 781 1888 209 134 519 1679 589 124 102 502 88 766 21 83 25 746 92 82 20 296 46 481 21 735 215 472 461 26 189 27 58 77 67 445 37 1090 1071 250 51 408 24 72 384 34 520 57 1052 247 43 240 369 353 223 29
is_linear=0
shrinkage=0.05


Tree=5
num_leaves=63
num_cat=0
split_feature=19 39 51 8 17 51 8 18 26 17 8 51 13 19 51 8 7 0 18 16 42 43 4 51 51 24 26 47 51 13 10 26 4 8 51 51 21 46 36 46 37 17 17 1 31 45 7 16 6 8 43 15 51 20 8 46 16 42 36 7 10 1
split_gain=618.629 296.573 191.436 112.749 106.108 105.076 56.3888 52.9656 35.0713 34.9697 30.8745 44.2997 20.301 15.2381 14.8643 104.591 26.4609 13.1057 11.6238 9.92709 8.45537 7.43605 7.21833 7.15428 13.4636 6.36213 6.62885 7.73766 6.08033 6.43624 8.94407 6.03533 4.65186 12.9298 3.75939 19.4228 10.6109 2.60542 2.60129 2.56816 2.16836 2.09602 2.07971 1.98842 1.6009 1.39361 2.7898 1.36156 1.3312 1.30787 1.23777 1.14034 1.01067 1.75621 4.15998 6.95469 1.53511 0.930748 2.9417 0.851091 0.742999 0.632873
threshold=1.5000000000000002 0.0015000000712461772 1.0649999976158144 14.160000324249269 10.214834690093996 1.7100000381469729 15.34999990463257 9.2500000000000018 0.089999999850988402 8.5134153366088885 17.954999923706058 0.49150000512599951 3.4376399517059331 2.5000000000000004 0.48499999940395361 13.654999732971193 0.2169350013136864 209.68471527099612 10.449999809265138 7.4629075527191171 0.60500001907348644 2.1900000572204594 11.260499954223635 0.98500001430511486 0.51100000739097606 5554.0000000000009 -0.089999999850988374 0.0094999996945261973 1.3650000095367434 71.465000152587905 87.479999542236342 -0.074999999254941926 1.6729000210762026 2.4550000429153447 0.49150000512599951 0.50499999523162853 1.5000000000000002 1.044999957084656 11.66249990463257 -0.099500000476837144 13.148499965667726 9.1184248924255389 14.037712574005129 170.4543380737305 10.453999996185305 0.0003494999982649461 1.5404499769210818 8.3116927146911639 0.13404699414968493 0.83499997854232799 0.15077499300241473 0.27404999732971197 2.0709999799728398 136.50000000000003 4.4749999046325692 -0.47499999403953547 3.3513518571853642 0.90500000119209301 13.154500007629396 1.1314400434494021 89.954998016357436 131.81992340087893
decision_type=2 2 2 2 2 2 2 2 2 2 2 2 2 2 2 2 2 2 2 2 2 2 2 2 2 2 2 2 2 2 2 2 2 2 2 2 2 2 2 2 2 2 2 2 2 2 2 2 2 2 2 2 2 2 2 2 2 2 2 2 2 2
left_child=1 8 3 4 41 6 9 -6 14 -2 11 39 -9 49 15 16 40 22 31 -19 25 34 32 24 -13 -18 27 -27 29 30 -4 -11 33 42 51 36 43 -37 -25 -10 -1 -3 -14 -36 -16 57 -47 60 -17 -7 -8 -20 53 54 55 -46 -55 61 -59 -28 -30 -34
right_child=5 2 28 -5 7 13 50 12 10 18 -12 23 17 -15 44 48 20 19 21 -21 -22 -23 -24 38 -26 26 59 -29 47 -31 -32 -33 45 -35 35 37 -38 -39 -40 -41 -42 -43 -44 -45 52 46 -48 -49 -50 -51 -52 -53 -54 56 -56 -57 -58 58 -60 -61 -62 -63
leaf_value=0.071173699609095489 0.074546304708818123 0.069728951836058706 0.053572300563653967 0.066939061652665333 0.069251235984263387 0.027773951086902213 0.070184287137330506 0.033176095029837031 -0.05110805471967516 0.049703697335846619 0.069489930523317547 0.069799533713380033 -0.049552918176042279 -0.044640989667852446 0.035016866808843208 0.029427985441568567 -0.10913322520383245 0.070776006715931858 -0.065007158933397841 -0.074092441416662019 0.018911172655791973 -0.0092177754192448429 -0.0026200265747488728 0.0048849687145677678 -0.092431088406672524 0.036337442447713912 -0.06937681359454928 -0.082639816975521141 0.067373583715624935 0.06272078346105768 -0.078124196807284149 -0.066427336709305312 -0.078474977628955542 0.022363859899415819 0.058735412681196392 -0.09739233892644332 -0.099317192838011548 -0.04857647313014829 0.065684004718907341 -0.10137742226072355 0.010001853131332856 0.022515866353608815 -0.10151103149792627 -0.0027405095985610635 0.070240997422755025 -0.030149172415949377 -0.093188447373920513 0.024649997564886752 0.068840894155488955 0.069690406945244851 0.024390652999566192 -0.099269445974148426 0.069416429575689984 0.024250474333808253 0.069577487294423659 -0.028095580914179727 0.067903866188426976 -0.037246835572012568 -0.1007177583718511 -0.10924564726827179 0.043711829041305279 -0.098911687978031695
leaf_weight=4.1576472818851498 3.2597794383764258 12.968381240963934 2.3930809348821622 19.383120611310005 6.0213634371757498 2.1787402033805874 4.9119927436113349 3.684466525912284 3.4698834270238867 2.1372538805007935 15.127384737133978 2.4383767247200039 2.4705436527729026 4.1585169285535803 4.0384618788957587 2.1882379204034796 8.5991842895746284 2.2804599255323401 2.4774581789970389 2.4562063217163086 2.6087558269500724 2.6387810856103888 2.3627661466598502 2.1309199631214133 2.6895049661397934 3.2517158985137993 2.4394809007644582 2.3571233153343201 45.068633392453194 4.8552925884723663 2.7949206829071045 2.3477380424737921 3.9725193828344336 3.3139823079109183 2.8449696302413932 46.430452510714531 2.2498684227466583 2.9043327569961539 10.087504252791403 9.4879690259695071 2.2233562171459198 2.8712388426065436 8.7361911833286268 2.4464179128408432 3.4635807126760483 2.4411276876926404 6.2446907460689545 2.1148262023925772 102.34118677675724 12.758936703205107 2.1092454791069031 122.94205306470394 132.29219329357147 2.0909460186958304 9.5007599145174009 3.7389109730720547 54.677787020802498 2.6763320565223676 5.7424658089876175 2.9662199169397354 3.5813125967979422 81.650274381041527
leaf_count=20 15 64 11 96 30 10 24 17 14 10 75 12 10 17 19 10 35 11 10 10 12 11 10 10 11 14 10 10 223 23 12 10 16 14 13 186 9 12 49 38 10 13 35 11 17 10 25 10 509 63 10 492 657 10 47 17 270 11 23 12 17 327
internal_value=0 0.0257814 -0.0192029 -0.046538 -0.061212 -0.0720412 -0.082756 -0.0756726 0.0524319 -0.0878279 0.0111508 -0.0179713 -0.0824884 0.0400105 0.0579008 0.0448331 -0.0398865 -0.0859156 -0.0906222 -0.00434577 -0.0656563 -0.0925511 -0.0891458 0.0342782 -0.0152882 -0.0769043 -0.0517428 -0.0136629 0.056892 0.0213456 -0.0173763 -0.0110869 -0.0908895 -0.0643996 -0.0937574 -0.0830949 -0.00836128 -0.0945186 0.0550805 -0.0879162 0.0498594 0.0611707 -0.0900568 0.0303127 0.0661931 -0.0946339 -0.0754714 0.0639245 0.0680158 0.0635767 0.0564275 -0.0985927 0.066805 0.0621028 0.0478516 0.0191931 0.066296 -0.0964038 -0.0805404 -0.0912537 0.0656317 -0.0979635
internal_weight=0 618.451 230.084 169.276 149.893 218.797 199.7 134.053 388.367 192.679 45.4315 30.3042 128.032 19.0962 342.936 133.133 28.6035 124.348 189.419 4.73667 22.2225 184.934 119.611 17.3463 5.12788 19.6137 11.0145 5.60884 60.8081 10.0433 5.188 4.48499 117.248 14.5207 182.296 56.876 7.54126 49.3348 12.2184 12.9579 6.381 15.8396 11.2067 5.29139 209.803 102.727 8.68582 50.7648 104.529 14.9377 7.02124 125.42 205.764 73.472 16.7033 7.20249 56.7687 94.0416 8.4188 5.4057 48.6499 85.6228
internal_count=3809 2906 1018 722 626 903 813 549 1888 779 209 134 519 90 1679 642 123 502 764 21 93 744 481 82 23 81 46 24 296 46 23 20 471 59 733 231 33 198 59 52 30 77 45 24 1037 412 35 250 519 73 34 502 1018 361 81 34 280 377 34 22 240 343
is_linear=0
shrinkage=0.05


Tree=6
num_leaves=63
num_cat=0
split_feature=19 39 51 8 17 51 8 18 8 51 17 26 13 7 48 19 0 18 4 16 6 0 51 18 27 13 13 16 38 11 4 8 44 18 0 23 8 17 17 51 51 47 40 0 42 16 18 16 8 26 49 48 4 42 51 43 29 24 47 18 28 4
split_gain=564.106 275.493 175.482 102.834 96.1568 94.8636 50.8216 47.8845 33.3286 157.271 31.6122 26.4389 18.7983 14.3619 13.6886 12.4503 11.5056 10.5394 9.68926 9.05126 7.74982 5.8881 5.82522 6.07096 5.60809 5.37592 42.4129 4.49149 4.38965 4.35104 3.71273 11.9382 3.7041 4.36701 2.79359 2.78442 2.49578 2.03841 2.00003 1.87364 1.6886 10.3357 1.57074 1.4506 3.16296 2.38874 1.37094 1.29739 1.26955 1.05638 0.942573 0.812744 0.810693 0.676276 1.05084 0.634739 0.525797 0.493747 1.29331 0.487115 0.459377 0.428955
threshold=1.5000000000000002 0.0015000000712461772 1.0649999976158144 14.160000324249269 10.214834690093996 1.7749999761581423 12.510000228881838 9.2500000000000018 16.73499965667725 0.49150000512599951 8.5134153366088885 -0.089999999850988374 2.3895000219345097 0.29865999519824987 0.52199998497962963 2.5000000000000004 209.68471527099612 10.449999809265138 11.481150150299074 7.4629075527191171 0.10045700147747995 25.354072570800785 1.3650000095367434 11.949999809265138 0.9975000023841859 12.715549945831301 12.710549831390383 5.0587627887725839 9.361000061035158 1849.5000000000002 1.6729000210762026 2.4550000429153447 0.0010150000452995302 18.94999980926514 1.88967502117157 0.33795000612735754 24.60999965667725 9.1184248924255389 14.037712574005129 1.2849999666213991 0.9350000023841859 -0.20499999821186063 19.183877944946293 59.078746795654304 0.079500000923872008 7.8735346794128427 58.549999237060554 91.42688369750978 0.83499997854232799 -0.37000000476837153 0.60500001907348644 0.033500000834465034 11.894999980926515 1.9200000166893008 2.0709999799728398 -1.199600040912628 291.31962585449224 6209.0000000000009 1.0680000185966494 83.599998474121108 2.6985000371932988 1.2182499766349795
decision_type=2 2 2 2 2 2 2 2 2 2 2 2 2 2 2 2 2 2 2 2 2 2 2 2 2 2 2 2 2 2 2 2 2 2 2 2 2 2 2 2 2 2 2 2 2 2 2 2 2 2 2 2 2 2 2 2 2 2 2 2 2 2
left_child=1 8 3 4 37 6 10 -6 9 11 -2 13 -9 49 -11 48 18 21 30 -18 24 -12 23 -4 35 26 29 -25 -16 39 31 38 33 -13 -32 -15 -8 -3 -14 -19 41 -30 -43 50 -45 -46 53 -35 -7 -1 51 -36 -27 57 -55 -53 -28 -24 -59 -44 -5 -10
right_child=5 2 22 60 7 15 36 12 61 14 17 32 16 20 28 -17 19 25 -20 -21 -22 -23 46 27 -26 52 56 -29 40 -31 34 -33 -34 47 43 -37 -38 -39 -40 -41 -42 42 59 44 45 -47 -48 -49 -50 -51 -52 55 -54 54 -56 -57 -58 58 -60 -61 -62 -63
leaf_value=0.028273520529556624 0.072809086882130558 0.068401461235929037 0.059297044645557455 0.068259653618567534 0.06796318211363582 0.026660142750213629 0.0049637304422931279 0.07078121712950243 0.044216323296491694 -0.026887912363140601 -0.065090286426495225 -0.025298877130515512 -0.046891630721653837 -0.1132136059175356 0.0020043821596550685 -0.038435282495665857 0.069356708185006291 -0.094183012075304551 0.01691061353086502 -0.069804201148249201 0.049943579834123647 0.049738327959339301 0.068443471895913363 -0.062957642198257752 0.0086051529782235191 -0.094514684559896797 0.04801940312692355 0.032947596591764071 -0.021649354308492144 -0.02914449943156357 -0.046022383080092488 0.021352810157921114 -0.02368645333384084 -0.10008887129461022 -0.070216368997216838 -0.050378154479304431 0.069128766852110252 0.021560543286657081 -0.09763083206882589 -0.04913963960930956 0.067022397850716162 0.01971626257008181 0.068557969966404439 -0.096530835067691625 -0.0086037147197702297 -0.07820783076944697 0.022752742503131307 -0.065038955648951152 0.068286466219787442 0.071076290776464837 -0.062694998718678605 -0.073053998923671024 -0.068008313290633685 0.01876782297174575 0.068975655766522523 -0.095764561078631918 0.081351893520255902 0.068093873071781774 0.020209893018608878 0.042775522443994587 0.04266757128285549 0.067583638267313784
leaf_weight=2.112313523888588 3.1728816032409659 12.569181412458418 5.0085907280445081 16.848433837294582 5.833471715450286 2.1568435579538372 2.1398463994264594 2.0739817619323722 1.9866910129785527 4.3567482978105536 2.3495303094387046 2.5741768777370515 2.4799573570489875 2.8825771212577802 2.8978132158517829 3.9330126941204062 2.2124934047460547 47.083128973841667 2.334534063935279 2.4761833995580673 2.274665340781211 2.127073347568512 36.38078473508358 2.6585684418678284 2.7683704197406769 124.25841529667377 2.1074188202619544 2.2573836445808411 3.9519924670457831 2.917900249361991 3.6031162440776816 3.2977749258279792 2.6166952997446051 16.647525250911716 3.4791958779096595 4.5395496189594269 5.1938910037279129 2.8491127490997306 8.9564052969217283 2.4277289658784857 117.31417046487331 1.8769057989120508 27.968642622232441 6.737373083829878 2.4354618340730667 2.4958594739437103 2.0742990374565116 3.1378442347049704 12.150505065917967 4.5391559153795269 2.4915678948163977 3.2005266398191301 2.9532269537448874 1.9887737184762944 2.1895162314176559 79.497419685125365 2.6974480450153351 4.6824294477701178 2.017814964056015 1.9604001343250264 1.9571576565504063 171.69027982652187
leaf_count=10 15 64 25 86 30 10 10 10 10 19 10 11 10 12 14 16 11 189 10 10 11 10 185 11 12 499 10 10 18 12 15 14 11 67 14 19 26 13 36 10 599 9 142 27 10 10 10 13 62 22 10 13 12 10 11 319 12 24 10 10 10 879
internal_value=0 0.0250668 -0.0184629 -0.0445804 -0.0584838 -0.0687908 -0.0787734 -0.0721277 0.0512111 0.0375279 -0.0837052 -0.0461 -0.0785236 -0.00184473 0.0605272 0.0403528 -0.0809871 -0.0863339 -0.0839647 -0.00413693 -0.0335025 -0.0105291 0.0555061 0.0205544 -0.0521288 -0.0881737 -0.0754474 -0.0189184 0.062969 -0.0884776 -0.0859491 -0.06246 -0.0799727 -0.0865598 -0.0892788 -0.0747819 0.0504066 0.0597458 -0.0866281 -0.0919743 0.0641231 0.054611 0.0640866 -0.0908322 -0.0742597 -0.043832 0.0625374 -0.0945302 0.0620113 0.0574834 -0.0930131 -0.0938897 -0.0938993 0.0642836 0.0450778 -0.0948856 0.0667322 0.0661463 0.0536734 0.0668692 0.0655962 0.0673163
internal_weight=0 605.184 227.087 167.829 149.024 217.669 199.428 133.605 378.097 204.42 192.095 44.0929 127.772 19.1166 160.327 18.2404 125.698 188.922 121.009 4.68868 12.4652 4.4766 59.2582 9.92454 10.1905 184.445 57.2336 4.91595 155.97 52.4288 118.675 14.7341 24.9762 22.3595 103.941 7.42213 7.33374 15.4183 11.4364 49.5109 153.072 35.7579 31.8059 100.337 11.6687 4.93132 49.3336 19.7854 14.3073 6.65147 88.6687 86.1771 127.212 47.2593 4.17829 82.6979 4.80487 43.081 6.70024 29.929 18.8056 173.677
internal_count=3809 2906 1018 722 626 903 815 549 1888 999 779 188 519 86 811 88 509 764 488 21 54 20 296 46 43 744 233 21 792 211 478 60 102 91 418 31 36 77 46 199 778 179 161 403 47 20 250 80 72 32 356 346 511 240 21 332 22 219 34 152 96 889
is_linear=0
shrinkage=0.05


Tree=7
num_leaves=63
num_cat=0
split_feature=19 39 48 8 17 48 8 18 8 48 17 26 19 10 25 26 8 13 13 48 26 18 27 18 13 7 26 47 6 42 5 9 0 13 0 31 23 7 25 17 47 24 44 18 5 16 13 17 39 48 48 38 38 4 16 48 49 0 18 29 35 16
split_gain=516.043 256.136 156.587 94.7254 77.1718 75.102 44.5835 43.3887 31.8973 142.431 30.4256 24.6994 21.2856 17.5039 13.1988 9.80364 16.4001 14.0563 15.8261 9.0725 10.4862 8.54703 14.0178 7.75603 6.49498 5.46313 5.35605 8.2975 8.24019 5.11067 4.83321 4.70799 3.90925 3.97615 3.90045 3.32334 3.21569 5.98465 3.17368 2.54692 2.43801 2.31897 2.18035 2.34224 1.92786 1.87348 7.17606 11.2939 1.81281 4.24273 12.4205 1.44925 1.31299 1.21792 1.10148 0.928421 3.51371 5.2293 1.11543 0.470814 0.45643 0.439431
threshold=1.5000000000000002 0.0015000000712461772 0.8829999864101411 14.160000324249269 10.214834690093996 1.685000002384186 15.34999990463257 9.3499999046325701 16.73499965667725 0.52199998497962963 8.5134153366088885 -0.089999999850988374 2.5000000000000004 71.329998016357436 4.5185000896453866 -0.089999999850988374 4.1649999618530282 12.88000011444092 12.710549831390383 1.2910000085830691 0.12999999895691874 10.650000095367433 0.9975000023841859 13.650000095367433 19.920499801635746 0.55665999650955211 0.089999999850988402 1.0000000180025095e-35 0.019146500155329708 -2.0799999237060542 279.35000610351568 0.029949999414384369 171.03659820556643 3.0649999380111699 128.79453277587893 10.453999996185305 0.4970999956130982 0.29865999519824987 4.5864999294281015 34.135501861572273 0.36500000953674322 3994.5000000000005 0.000945000007050112 18.94999980926514 131.05000305175784 5.2089462280273446 7.0150001049041757 10.018454074859621 0.0015000000712461772 0.52199998497962963 0.56499999761581432 13.177000045776369 13.225500106811525 1.2886499762535097 91.42688369750978 0.9350000023841859 -0.11100000143051146 3.8053662776947026 37.850000381469734 285.51051330566412 11.890500068664553 3.4188088178634648
decision_type=2 2 2 2 2 2 2 2 2 2 2 2 2 2 2 2 2 2 2 2 2 2 2 2 2 2 2 2 2 2 2 2 2 2 2 2 2 2 2 2 2 2 2 2 2 2 2 2 2 2 2 2 2 2 2 2 2 2 2 2 2 2
left_child=1 8 3 4 40 6 10 -6 9 11 -2 14 39 -9 36 16 17 18 31 20 23 22 -12 -4 -25 -16 35 28 44 -23 -14 -15 33 -31 -19 -11 -1 -38 -27 -7 -3 -37 43 -13 -28 46 -21 -48 49 -35 -51 -52 -8 -17 -45 56 57 -43 -58 -5 -47 -10
right_child=5 2 19 59 7 12 52 13 61 26 21 42 30 15 25 53 -18 34 -20 45 -22 29 -24 24 -26 38 27 -29 -30 32 -32 -33 -34 48 -36 41 37 -39 -40 -41 -42 55 -44 54 -46 60 47 -49 -50 50 51 -53 -54 -55 -56 -57 58 -59 -60 -61 -62 -63
leaf_value=0.0725922847052341 0.070969478831370281 0.068204019471919189 0.068670970835542175 0.040696405835158975 0.066958275583147847 0.065169979500122252 0.068186192000657966 0.069361150185154805 0.042392534981241486 -0.00094750625636001371 -0.11308920340047712 -0.038171893538747628 -0.10519796519687744 -0.0053627612146308606 0.01374912448429663 -0.062222670416424111 0.067451017987454273 -0.09199740716387228 0.062725756975524252 0.067419908693575878 -0.067831237605492631 0.002508027984792703 0.045841538075791319 0.038818591584786614 -0.062309414427793801 -0.098783373549858028 0.068262222326399766 0.067624259396244085 -0.058276545865722389 -0.014993756167641438 -0.016226001877247691 -0.086400324640619613 -0.037029100665851092 -0.089428080026501849 -0.023604561022422192 0.016933693969669442 0.069049536538932671 -0.043466431540384237 -0.026406144944266748 0.015674664665727058 0.015349224359766917 0.071314499849755991 -0.032370527558445897 -0.093845201473593196 0.004476127842997616 0.042327563354957444 0.055999868287065505 -0.074100882047949748 -0.090694177596398737 0.020941785650957678 -0.094613758566681055 -0.053459427032715973 0.019479239907293746 -0.091647580874096676 -0.061523552161874773 0.065976006385116984 0.067263826294102408 -0.024945428681093371 0.035367440389318966 0.067066252233623169 0.067427643240645804 0.066381462802536637
leaf_weight=4.4077040106058138 3.2708856761455527 10.291143387556074 7.4050072282552737 1.8965629935264612 5.4799865633249274 11.976847037672998 4.4834952205419532 2.0121879875659934 1.9311920255422581 2.08235079050064 2.4312250465154639 2.6194337606430116 2.729638382792472 2.6136752963066083 2.8963346630334836 3.6971523314714423 2.3708368986845008 26.743142738938335 3.7559650242328635 13.362789973616602 3.1089226454496375 1.6610937565565098 3.2314937561750412 3.5497625321149826 2.8725433051586151 3.7150276005268097 2.7316721826791781 8.2691065669059736 3.7415766716003418 1.9098054766654957 3.4627729654312134 5.702896311879158 4.0473085641860953 31.913666665554047 2.2608919888734809 2.7143549621105185 2.3820132613182068 2.3455393016338348 2.5571410208940506 3.3194920867681494 2.7687432318925849 2.6714061200618735 2.4039302170276633 16.126940995454792 2.0915825664997101 1.9415511041879678 4.2479411959648123 2.7467192411422729 124.45971697568893 3.7972566187381736 8.1780167669057828 2.8969958722591391 2.0012116283178329 72.02967868745327 3.1509089767932883 102.06040036678314 24.585594639182094 2.9900790601968765 3.0848532170057288 15.745292484760283 26.975401908159256 166.22320351004601
leaf_count=21 16 53 38 10 29 61 23 10 10 10 10 11 11 11 13 15 10 108 17 70 13 7 15 16 12 15 14 43 16 8 14 23 17 129 10 13 12 10 11 16 14 13 10 65 10 10 22 12 503 18 33 12 10 291 13 540 129 14 16 83 141 879
internal_value=0 0.0244056 -0.017799 -0.0449407 -0.0587248 -0.0659308 -0.0757412 -0.0706564 0.0500621 0.0365478 -0.0801921 -0.0445322 0.0227665 -0.0768793 -0.000666264 -0.0793485 -0.0604157 -0.0677958 -0.0224603 0.0467111 0.0151413 -0.0828715 -0.0223936 0.0337968 -0.00641354 -0.0430479 0.0585472 0.0318986 -0.00259362 -0.0847862 -0.0554452 -0.0609324 -0.0856045 -0.0867399 -0.0866661 0.0617472 0.0418696 0.0132256 -0.0692754 0.0544289 0.0569986 0.0626925 -0.0775721 -0.0825344 0.0406017 0.0575621 0.0459423 0.00491086 -0.08754 -0.0791495 -0.0570931 -0.0838486 0.053155 -0.090211 -0.0885623 0.0636098 0.0563647 0.0204754 0.0637078 0.0642314 0.0657424 0.066106
internal_weight=0 591.361 223.579 157.368 139.726 215.771 194.282 126.666 367.782 199.628 187.797 42.605 21.4888 121.186 18.3038 119.174 43.4474 41.0766 12.0725 66.2106 16.9362 184.527 5.66272 13.8273 6.42231 9.1685 157.023 16.8339 8.56483 178.864 6.19241 8.31657 177.203 173.155 29.004 140.189 9.13526 4.72755 6.27217 15.2963 13.0599 138.107 24.3012 21.8973 4.82325 49.2744 20.3575 6.99466 171.246 46.7859 14.8723 11.075 6.48471 75.7268 19.2778 135.392 33.3319 5.66149 27.6704 17.6419 28.917 168.154
internal_count=3809 2906 1018 684 591 903 801 524 1888 999 768 181 102 495 82 485 179 169 51 334 79 752 25 66 28 39 818 83 40 727 25 34 720 703 118 735 43 22 26 77 67 725 99 89 24 255 104 34 695 192 63 45 33 306 78 712 172 27 145 93 151 889
is_linear=0
shrinkage=0.05


Tree=8
num_leaves=63
num_cat=0
split_feature=19 39 51 8 17 51 8 18 6 51 17 7 10 48 36 0 18 26 4 25 16 43 48 26 26 34 18 32 3 4 8 39 51 51 48 7 0 43 17 17 51 50 40 34 31 0 50 26 4 17 8 49 10 0 43 11 6 40 0 35 16 18
split_gain=473.284 238.432 148.742 86.5518 80.1979 79.71 42.1651 39.6668 30.6089 136.79 26.1915 19.6888 15.5482 12.3658 11.956 9.52435 8.91825 8.91151 8.31196 8.19768 7.90188 6.25126 5.35104 9.81876 4.97568 4.80929 4.28363 3.91837 3.22623 3.19452 10.1832 3.04804 10.4572 12.6394 6.7122 2.51965 2.46381 2.17377 2.06811 1.84681 1.59035 9.56927 1.52425 1.40442 1.30635 1.2718 3.76573 1.26259 1.2069 1.07152 0.747216 0.783528 0.724635 0.566641 0.506441 0.499342 0.484498 0.470127 1.20274 0.452985 0.452731 0.41592
threshold=1.5000000000000002 0.0015000000712461772 1.0649999976158144 14.160000324249269 10.214834690093996 1.7100000381469729 15.34999990463257 9.2500000000000018 0.14260800182819369 0.49150000512599951 8.5134153366088885 0.29865999519824987 71.329998016357436 0.52199998497962963 10.688000202178957 209.68471527099612 10.449999809265138 -0.074999999254941926 11.481150150299074 4.0614998340606698 7.4629075527191171 2.1900000572204594 1.3515000343322756 0.12999999895691874 -0.074999999254941926 15.534500122070314 16.250000000000004 11.065499782562258 0.86950001120567333 1.6729000210762026 2.4550000429153447 0.004500000039115549 0.49150000512599951 0.50499999523162853 1.5649999976158144 2.6085150241851811 1.88967502117157 0.83499997854232799 9.1184248924255389 14.037712574005129 0.9350000023841859 -0.24800000339746472 19.183877944946293 14.327499866485597 12.664999961853029 75.698448181152358 0.089500002562999739 0.044999999925494201 5.675265073776246 31.572067260742191 5.0950000286102304 0.63499999046325695 89.954998016357436 17.921162605285648 -1.199600040912628 223.00000000000003 0.022636000066995624 19.110473632812504 128.79453277587893 11.533499717712404 3.4188088178634648 6.0499999523162851
decision_type=2 2 2 2 2 2 2 2 2 2 2 2 2 2 2 2 2 2 2 2 2 2 2 2 2 2 2 2 2 2 2 2 2 2 2 2 2 2 2 2 2 2 2 2 2 2 2 2 2 2 2 2 2 2 2 2 2 2 2 2 2 2
left_child=1 8 3 4 38 6 10 -6 9 11 -2 17 -9 -11 -7 18 24 49 29 -13 -17 31 23 26 -12 28 -4 -15 37 30 39 32 44 43 -35 -16 -31 48 -3 -14 41 -29 -43 -34 -18 50 -47 -8 53 -1 51 54 57 -21 -38 -44 -5 58 -24 -59 -10 -42
right_child=5 2 22 56 7 14 47 12 60 13 16 19 15 27 35 20 21 -19 -20 25 -22 -23 52 -25 -26 -27 -28 40 -30 36 -32 -33 33 34 -36 -37 45 -39 -40 -41 61 42 55 -45 -46 46 -48 -49 -50 -51 -52 -53 -54 -55 -56 -57 -58 59 -60 -61 -62 -63
leaf_value=0.06751782905670238 0.069796276699508469 0.066298810277452394 0.06749299356726586 0.038977735718237601 0.065691484115650609 -0.05109949516931326 0.066956653542390568 0.0680637554109874 0.040979591948521098 -0.025239319817918021 0.047659176461263164 0.023913155200426313 -0.041301119023824696 0.0044286496336946772 0.064449547662635956 0.067526525957156122 -0.050332067178480849 -0.041077420286712379 0.01680902005301527 -0.092391141810552482 -0.06399912982556008 -0.004891834055893704 0.017582965341611561 -0.073474073808287743 -0.058519576674777224 0.0012803069859821281 -0.0057229367261673039 -0.020972519835197483 -0.027080447118515455 -0.04137377694511217 0.020817467574751683 -0.086748395784121066 0.053913972082742893 -0.088049862263262446 0.0062815306796060637 0.0050313179081245621 -0.067982167418106962 -0.034365725523543326 0.018290121510143101 -0.090087831714741218 0.041540973792065089 0.017537347167780014 0.03949638809155203 0.00052118220358419434 -0.087937072978340802 -0.089964142452360021 -0.018798951834318713 0.019225164387587659 -0.053422240229744802 0.02867127915094745 -0.061438153772696805 -0.059614902309962706 0.038473643966525833 -0.066289321243093391 -0.087630704753245428 0.066286628415855128 0.066068634007806312 0.041056089166136261 0.066469702330489891 0.066130214202544904 0.065610613175361834 0.065127842752480222
leaf_weight=3.7984196096658707 2.9922110438346854 11.835814237594603 6.4574498385190946 1.8426246643066431 5.4542735219001761 3.1508992761373547 4.5261268168687812 1.9496029615402211 1.8879675418138493 4.3132238388061515 2.0574338436126709 2.6112886369228354 2.4854581058025351 3.0377160161733618 12.762047275900839 2.1106009930372229 2.449450507760047 4.4069922864437086 2.3171321451663962 17.412423416972178 2.4882348030805588 2.6562443226575843 1.9526089429855336 2.1582732051610938 2.3793691396713248 2.2880996316671363 2.8926550000905991 3.9331086277961722 3.2261934280395499 3.6104362308979026 3.2678731530904761 119.71703094244003 2.5503441244363811 8.8277082592248899 2.3980611115694037 2.0741665512323371 3.417308360338196 2.3389265090227118 2.7678184509277335 8.835970073938368 1.9014856815338124 1.8294826745986963 1.8574302047491098 2.3818512558937073 40.40683077275753 5.1778469085693342 2.9000241160392761 1.9966253638267515 2.6635823845863333 3.3326271176338196 3.2129805386066428 2.7281492799520484 3.3343821763992301 2.3612042069435111 81.327497452497497 27.358102142810822 15.819026112556456 1.9024124294519413 3.5374915301799774 33.871029168367386 157.36597943305969 109.40028688311577
leaf_count=20 15 64 34 10 30 13 24 10 10 19 10 12 10 15 67 11 10 19 10 71 10 11 10 9 10 10 13 18 14 15 14 489 12 36 10 10 14 10 13 36 10 9 10 11 165 21 12 10 11 16 13 11 17 10 332 148 86 10 19 184 860 596
internal_value=0 0.0237977 -0.0171975 -0.0412965 -0.0539523 -0.0633641 -0.0726386 -0.0663166 0.0489983 0.0358764 -0.0769562 -0.0413809 -0.0720387 0.0582241 0.0373564 -0.0742436 -0.0793193 0.0148191 -0.0769659 -0.0610893 -0.00363642 -0.0810324 0.0530504 0.0226532 -0.00928238 -0.0684172 0.0448421 0.0606351 -0.0741123 -0.0788236 -0.0569346 -0.082164 -0.0728641 -0.0385862 -0.0678987 0.0561426 -0.081943 -0.0802365 0.0571997 -0.0793774 0.0618023 0.0525024 0.061811 0.0281296 -0.0857878 -0.0834261 -0.0644152 0.052346 -0.0850182 0.0493633 -0.0851195 -0.0859893 0.0608943 -0.0892743 -0.0868384 0.0645834 0.0632423 0.062706 0.0490826 0.0647968 0.0653186 0.0647249
internal_weight=0 576.98 219.655 163.549 145.887 213.326 195.339 131.283 357.325 198.071 188.817 44.4398 125.829 153.631 17.9871 123.88 185.824 11.538 119.281 32.9017 4.59884 181.388 56.1063 11.5084 4.4368 30.2904 9.3501 149.318 28.0023 116.964 14.5893 178.731 59.0142 16.158 11.2258 14.8362 102.374 24.7761 14.6036 11.3214 146.28 34.9781 31.045 4.9322 42.8563 98.7638 8.07787 6.52275 22.4372 7.13105 90.6859 87.473 44.5979 19.7736 84.7448 29.2155 17.6617 41.2635 5.4901 35.7734 159.254 111.302
internal_count=3809 2906 1018 722 626 903 813 549 1888 1018 779 193 519 825 90 509 764 55 488 138 21 744 296 56 20 126 47 806 116 478 60 733 244 69 46 77 418 102 77 46 791 185 167 23 175 403 33 34 92 36 370 357 240 81 346 158 96 223 29 194 870 606
is_linear=0
shrinkage=0.05


Tree=9
num_leaves=63
num_cat=0
split_feature=19 39 51 8 17 51 8 18 6 51 17 17 10 27 48 19 26 7 0 18 4 16 48 26 0 50 13 13 18 11 32 26 0 8 26 12 44 8 47 40 51 50 49 42 40 8 3 7 42 10 4 29 29 29 29 43 4 31 31 18 31 7
split_gain=435.214 222.096 137.243 79.6194 73.4202 72.8891 38.5454 36.2661 29.3913 127.3 24.0116 18.0451 14.2027 12.8867 11.6974 11.3205 11.3022 9.9031 8.67711 8.29503 7.62778 7.25036 5.13882 8.94544 4.87778 4.52005 4.29196 35.322 4.07961 3.92409 3.78928 3.16671 9.67786 7.90044 3.47531 7.19251 2.7569 2.39493 2.03756 1.69021 1.57604 9.05939 1.56573 2.14453 1.4907 1.28144 1.19474 1.16643 0.949491 0.719144 0.6525 0.529448 0.527779 0.486021 0.468448 1.22196 0.455372 0.452189 0.415367 0.429647 0.267037 0.245527
threshold=1.5000000000000002 0.0015000000712461772 1.0649999976158144 14.160000324249269 10.214834690093996 1.7100000381469729 12.510000228881838 9.2500000000000018 0.14260800182819369 0.49150000512599951 8.5134153366088885 12.820896148681642 71.329998016357436 2.3745000362396245 0.52199998497962963 2.5000000000000004 -0.089999999850988374 0.29865999519824987 209.68471527099612 10.449999809265138 11.481150150299074 7.4629075527191171 1.3515000343322756 0.12999999895691874 25.354072570800785 0.10900000110268594 12.715549945831301 12.710549831390383 16.250000000000004 1849.5000000000002 11.065499782562258 -0.089999999850988374 2.2446452379226689 3.4650000333786015 -0.10999999940395354 183.629997253418 0.0010150000452995302 24.60999965667725 0.36500000953674322 19.529438018798832 0.9350000023841859 -0.24800000339746472 0.43100000917911535 0.25172500312328344 19.183877944946293 0.83499997854232799 0.90449997782707225 14.127814769744875 1.2050000429153445 89.954998016357436 11.894999980926515 285.75579833984381 291.31962585449224 285.51051330566412 286.67282104492193 -0.70499998331069935 1.2182499766349795 11.485499858856203 11.199999809265138 6.0499999523162851 15.804000377655031 0.082510001957416548
decision_type=2 2 2 2 2 2 2 2 2 2 2 2 2 2 2 2 2 2 2 2 2 2 2 2 2 2 2 2 2 2 2 2 2 2 2 2 2 2 2 2 2 2 2 2 2 2 2 2 2 2 2 2 2 2 2 2 2 2 2 2 2 2
left_child=1 8 3 4 38 6 10 -6 9 11 -2 61 -9 16 -11 45 17 -13 20 24 31 -20 23 28 -12 39 27 29 -4 48 -16 32 -14 34 -34 -36 46 -8 -3 -19 41 -32 47 -44 -43 -7 -18 -33 60 54 -28 -46 -29 -5 55 -24 -10 -56 -42 -60 -21 -1
right_child=5 2 22 53 7 15 37 12 56 14 19 13 18 -15 30 -17 36 25 21 26 -22 -23 49 -25 -26 -27 50 52 -30 -31 40 42 33 -35 35 -37 -38 -39 -40 -41 58 44 43 -45 51 -47 -48 -49 -50 -51 -52 -53 -54 -55 57 -57 -58 -59 59 -61 -62 -63
leaf_value=0.044978092933731534 0.068479775653525879 0.0662364947538783 0.066361622579365495 0.03757649930078584 0.064693814497865543 0.022603023093082333 0.0016279475622954381 0.066875172972009816 0.03959130579081651 -0.023886799316283066 -0.057640078173915948 0.045948682984194765 0.01140343031058429 0.056166964323895313 0.0042153937551622491 -0.03509923036237228 -0.089388170356344984 -0.092261912686096403 0.066383313521998819 -0.084724335989017949 0.016035079191800052 -0.060716688686015 0.015801150505865554 -0.069139461909052582 0.047749556865269827 -0.0034146776922439012 -0.083979002634053113 0.046181974999623912 -0.0054284159904474617 -0.0224981958295952 -0.019809001211071358 -0.085317839392257372 -0.085434579744733341 0.015128438640951484 -0.088966600711331459 0.025565373397863956 -0.028310787603193777 0.06608853536665954 0.020910424558936158 -0.040565578228468506 0.040270739564451576 0.016781704251270842 -0.086349875700408876 -0.027150064387513401 0.03714766150559369 0.065418601440367527 -0.051396665269095781 -0.050072104279110088 -0.051660870189344565 0.037233061512230235 -0.059978278324041803 0.065286203792718614 0.080094180856739902 0.065055890687779047 0.039769967428060334 0.065648048182718535 0.064589897525100651 0.065100724862266771 0.040290233797079807 0.06451319482826505 -0.067613189495737108 0.069223548446248215
leaf_weight=1.8661017268896092 2.899597004055976 10.97978065907955 6.2445607930421811 1.7983966767787958 5.2662330865859976 2.0666687637567547 2.0644319951534262 1.8866372108459462 1.843789055943488 4.3291497677564612 2.3712188750505439 3.8503018319606772 3.7998438924551001 2.6681683808565131 3.0319747328758231 4.2214168757200232 18.31820712983609 4.1235900521278364 2.0413566678762427 42.973328694701195 2.3077655881643286 2.4915068298578262 1.9125921726226804 2.1783477067947379 2.0445793718099594 3.6750002503395081 120.23540750145912 2.0504046976566306 2.8970021307468414 2.9215782433748236 3.9553300142288199 66.086029887199402 29.079097047448155 2.4124770015478125 3.3946745991706875 2.2992006689310074 2.3841581493616095 4.7710147947072983 3.2026710510253897 2.5643646121025085 1.8631209284067143 1.8166029006242777 3.158906713128089 2.9663111418485641 1.7844242155551935 11.318537443876265 2.3329219073057166 2.4338496625423423 2.4180387407541266 3.2747446596622458 2.9001651257276526 26.464740261435509 2.6048631966114044 15.28629434108734 1.8620996177196492 3.4422820508480063 152.0046516507864 32.718420445919037 1.8634663820266713 103.8503457903862 2.4078499227762213 2.3707670271396637
leaf_count=10 15 60 34 10 30 10 10 10 10 19 10 19 16 13 15 17 75 17 11 178 10 10 10 9 10 16 498 10 13 12 18 273 120 10 14 10 10 26 17 11 10 9 13 12 10 63 10 10 10 17 12 148 12 86 10 19 860 184 10 586 10 12
internal_value=0 0.0232274 -0.0166494 -0.0398834 -0.0520069 -0.0610886 -0.0699878 -0.0638243 0.0479862 0.034997 -0.0742771 -0.0395671 -0.0692667 -0.049981 0.0570989 0.0362924 -0.0575846 -0.0225218 -0.0713639 -0.07654 -0.0739731 -0.00347772 0.0519024 0.0219139 -0.00884313 -0.0479616 -0.0782146 -0.0666536 0.043611 -0.0787515 0.059523 -0.0757695 -0.0646028 -0.0723696 -0.07844 -0.0427183 -0.079219 0.0466202 0.056001 -0.07244 0.0607073 0.0513271 -0.0819008 -0.0576807 0.0606855 0.0588079 -0.0850963 -0.0840659 -0.0821898 0.0597586 -0.0834137 0.0635088 0.0651576 0.0621633 0.0616057 0.0478443 0.0642903 0.0637367 0.0636737 0.0640862 -0.0838164 0.0585448
internal_weight=0 562.382 215.421 160.891 143.806 210.269 192.662 129.624 346.961 193.113 185.827 44.1536 124.358 39.9167 148.959 17.6066 37.2485 14.2133 122.471 182.927 117.938 4.53286 54.53 11.3199 4.4158 10.363 178.512 55.3761 9.14156 50.7208 144.63 115.63 40.9853 37.1854 34.773 5.69388 23.0353 6.83545 14.1825 6.68795 141.598 34.0211 74.6451 6.12522 30.0658 13.3852 20.6511 68.5199 47.7992 43.2101 123.136 28.2492 4.65527 17.0847 39.9354 5.35487 153.848 34.5805 107.577 105.714 45.3812 4.23687
internal_count=3809 2906 1018 722 626 903 813 549 1888 1018 777 193 519 171 825 90 158 63 509 762 488 21 296 56 20 44 742 232 47 210 806 478 170 154 144 24 95 36 77 28 791 185 308 25 167 73 85 283 198 240 510 158 22 96 223 29 870 194 606 596 188 22
is_linear=0
shrinkage=0.05


Tree=10
num_leaves=63
num_cat=0
split_feature=19 39 48 8 48 18 8 8 48 13 26 19 18 0 25 26 13 8 24 48 26 42 18 13 13 26 47 43 7 43 48 8 0 18 31 23 7 24 16 18 44 49 4 16 13 18 37 24 48 48 16 19 48 23 20 43 34 16 47 30 5 10
split_gain=401.147 207.144 123.709 73.786 58.2822 56.5237 34.3973 28.2114 114.985 27.478 19.501 18.1705 16.9968 13.1929 10.9609 7.88606 20.4283 16.8272 7.80522 7.4186 8.07464 6.46551 6.31416 5.8111 5.80489 5.08501 7.54205 11.5873 4.24183 4.1018 3.83647 3.69735 3.44215 3.14722 3.09124 3.01491 4.92312 2.20141 2.03475 2.17219 1.8027 4.06796 1.78723 1.78235 6.59873 6.90149 1.33539 1.14541 1.12848 5.78519 9.51124 4.96977 0.929869 2.25855 5.44198 6.52219 0.926128 0.874112 0.843531 0.499594 0.49662 0.468379
threshold=1.5000000000000002 0.0015000000712461772 0.8829999864101411 14.160000324249269 1.5649999976158144 11.150000095367433 15.34999990463257 16.73499965667725 0.52199998497962963 2.3895000219345097 -0.089999999850988374 2.5000000000000004 10.449999809265138 359.09259033203131 4.5185000896453866 -0.089999999850988374 12.88000011444092 2.4550000429153447 5779.5000000000009 1.2910000085830691 0.12999999895691874 -2.3410400152206416 13.650000095367433 3.0649999380111699 19.920499801635746 0.089999999850988402 -1.0000000180025095e-35 -1.6850000023841856 1.2306900024414065 -0.25709998607635492 4.3345000743865976 3.1149998903274541 171.03659820556643 9.3499999046325701 10.453999996185305 0.4970999956130982 0.29865999519824987 3994.5000000000005 79.413467407226577 18.94999980926514 1.0000000180025095e-35 -0.060499999672174447 1.2886499762535097 5.2089462280273446 7.0150001049041757 12.150000095367433 13.261499881744387 4997.0000000000009 0.47149999439716345 0.5314999818801881 6.1272513866424569 2.5000000000000004 2.4550000429153447 0.39564999938011175 220.50000000000003 0.39850001037120825 13.15049982070923 6.1272513866424569 1.3905000090599062 38.673934936523445 335.64999389648443 89.954998016357436
decision_type=2 2 2 2 2 2 2 2 2 2 2 2 2 2 2 2 2 2 2 2 2 2 2 2 2 2 2 2 2 2 2 2 2 2 2 2 2 2 2 2 2 2 2 2 2 2 2 2 2 2 2 2 2 2 2 2 2 2 2 2 2 2
left_child=1 7 3 5 6 33 12 8 10 -7 14 40 18 15 35 16 17 29 -2 20 22 -14 -4 -23 -24 34 27 -27 -16 -11 -13 -18 48 -3 -10 -1 -37 -36 39 -12 -6 -42 -17 44 -21 58 -8 -30 -25 50 -50 -52 53 54 55 -39 -19 -20 -46 -45 -5 -44
right_child=4 2 19 60 11 9 46 -9 25 13 38 30 21 -15 28 42 31 56 57 43 -22 23 24 32 -26 26 -28 -29 47 -31 -32 -33 -34 -35 37 36 -38 52 -40 -41 41 -43 61 59 45 -47 -48 -49 49 -51 51 -53 -54 -55 -56 -57 -58 -59 -60 -61 -62 -63
leaf_value=0.070645369114599163 -0.068050092604731743 0.064076199174759846 0.065733112123254375 0.035786240739777625 0.068548664127025954 0.065891701194854033 0.065396763611142203 0.063024382757759956 -0.0022946169280865648 -0.00056220123915436213 -0.033294134919748454 -0.075799534895053672 0.026191041331738569 0.024792120477507354 0.00015672726218536153 -0.047200865060262373 -0.083784132843018416 0.032186685250380161 0.023898269490831042 0.064381230904068096 -0.057576917577268072 0.0028400511022518803 0.039364924363284329 -0.081063837042433654 -0.056926756474184541 0.055373607339116074 0.064558652208510425 -0.063607045355937739 -0.043409532556516223 -0.078530446740618889 0.0014706900857569183 -0.021927443726276381 -0.031262748344997274 0.0054112115840479853 0.013961963231590083 0.06603843961590504 -0.038000792569396466 -0.057337327246891771 -0.037757803102475153 -0.082386439396783806 0.05689568707879044 -0.014007933119508306 -0.083813605753287002 0.037033854443160687 0.06505580941616905 -0.061134028203196703 0.014633909917430974 -0.091182275303849328 -0.087015036910041491 -0.080564896296229746 0.05813077801024006 -0.044234017398489173 0.063954341261855716 0.060805789684731638 0.064789396502269225 0.065911560885723586 0.073155244384690579 0.069613840083248807 0.0189156234446318 0.06450493295788165 0.064074577868721602 -0.071183495095974839
leaf_weight=4.2048339843750018 2.2259202003478995 9.2307768017053586 6.7295392006635684 1.7414428889751423 6.1690265089273479 3.9955305457115164 4.1119952052831641 151.76479208469391 2.0586718618869773 2.5244425088167191 2.6006873250007692 4.6467163860797873 1.5562265217304219 3.7533783763647071 3.9845733642578107 3.8347370326519004 24.955007523298267 2.1152320206165314 1.9996968209743498 12.086830973625185 3.1146422624588004 2.2948060035705558 3.4882199615240097 115.63273115456104 2.8389988243579865 4.0413713902235031 7.4902443289756766 4.1451679766178113 2.3539518266916275 5.0841201245784742 2.455115333199501 2.6747019290924063 3.9699509143829337 3.0387869775295249 2.601726382970809 2.1864966750144958 2.3690865784883499 2.6518845558166486 4.2817188203334799 16.866773381829262 6.1543237864971161 3.0134453773498517 60.286942452192307 1.7749681025743509 2.1266977638006206 2.6032622009515762 1.8915098458528516 2.686847910284996 4.7949690669774991 38.816662549972534 2.6626300811767578 2.1375996023416519 74.323392987251282 37.797634094953537 6.2847660183906555 1.8033756613731382 3.9657507389783859 2.1916203200817108 1.8542105108499525 24.492490783333778 14.223855346441267 8.3581351041793805
leaf_count=21 10 54 38 10 33 22 23 889 10 11 11 19 7 19 18 16 105 10 10 70 13 10 16 488 12 22 43 18 10 21 10 11 17 15 13 12 10 13 18 70 35 14 253 10 12 12 10 11 20 163 13 10 436 217 36 10 19 11 10 141 83 35
internal_value=0 0.0227018 -0.0161507 -0.0406111 -0.0590497 -0.0527326 -0.0683136 0.0470517 0.0339296 -0.0630571 -0.0393159 0.0170337 -0.0722776 -0.06744 0.000273552 -0.0704821 -0.0530494 -0.00310308 0.00761735 0.0438028 0.0147619 -0.0752608 0.0320181 -0.0761878 -0.00384078 0.0551746 0.0283019 -0.00487099 -0.0383976 -0.0526614 -0.0490871 -0.0777961 -0.0772672 0.0495467 0.0584781 0.0401143 0.0119339 0.0594753 -0.0689645 -0.0758281 0.0476515 0.0335897 -0.08042 0.0542534 0.0424425 0.00216879 0.049403 -0.0688734 -0.0783805 -0.0719714 -0.037207 0.0125465 0.0604391 0.0550565 0.0348228 -0.00744932 0.0589046 0.0478027 0.0435648 0.0626486 0.060989 -0.0822758
internal_weight=0 547.391 210.893 149.783 206.725 133.818 184.286 336.498 184.733 121.548 41.535 22.4386 178.283 117.552 17.7858 113.799 41.3193 13.6895 6.41724 61.1099 16.1714 171.866 13.0568 170.309 6.32722 143.198 15.6768 8.18654 9.02537 7.60856 7.10183 27.6297 168.015 12.2696 127.521 8.76042 4.55558 125.463 23.7492 19.4675 15.3368 9.16777 72.4798 44.9385 18.671 6.58417 6.00351 5.0408 164.045 48.4119 9.5952 4.80023 122.861 48.5377 10.74 4.45526 6.08098 4.19132 3.98091 26.2675 15.9653 68.6451
internal_count=3809 2906 1018 684 903 591 792 1888 999 522 181 111 759 500 82 481 177 61 31 334 79 728 66 721 28 818 83 40 39 32 29 116 711 69 735 43 22 725 99 81 82 49 304 255 104 34 33 21 694 206 43 23 712 276 59 23 29 21 22 151 93 288
is_linear=0
shrinkage=0.05


Tree=11
num_leaves=63
num_cat=0
split_feature=19 39 51 8 17 51 8 18 8 51 17 26 13 25 48 36 0 48 48 48 26 48 26 4 38 5 7 18 4 8 44 18 10 30 26 7 17 0 29 20 51 43 1 43 49 45 23 25 17 28 36 35 47 0 9 48 13 17 5 28 20 4
split_gain=370.233 193.366 117.658 67.9336 62.9946 62.0815 32.4519 30.6293 27.0628 111.393 21.3732 16.3727 12.0713 11.5689 10.2073 8.72857 7.35254 6.91607 25.4059 5.20261 4.94024 4.71931 7.53345 4.49816 4.01745 3.84113 4.4812 3.67975 3.25026 10.0756 2.95131 3.38921 2.77673 2.7088 8.03245 2.27309 2.10282 1.96628 1.75486 1.72869 4.40687 5.1851 1.83572 1.33944 1.32878 1.3768 2.30051 1.32669 1.08218 0.94905 0.785653 0.740676 3.33378 0.670264 2.89717 0.739286 0.601311 1.60224 0.996126 0.519637 0.491285 0.48018
threshold=1.5000000000000002 0.0015000000712461772 1.0649999976158144 14.160000324249269 10.214834690093996 1.7749999761581423 15.34999990463257 9.2500000000000018 16.73499965667725 0.49150000512599951 8.5134153366088885 -0.089999999850988374 3.4376399517059331 4.5185000896453866 0.52199998497962963 10.688000202178957 209.68471527099612 0.52199998497962963 0.5314999818801881 0.42499999701976782 -0.049999998882412904 1.3515000343322756 0.12999999895691874 11.260499954223635 9.361000061035158 915.75000000000011 1.2306900024414065 16.250000000000004 1.6432350277900698 2.4550000429153447 0.0010150000452995302 18.94999980926514 88.905002593994155 40.604478836059577 -0.074999999254941926 2.6085150241851811 9.1184248924255389 2.7572567462921147 287.82363891601568 131.50000000000003 0.98500001430511486 0.18165000528097155 132.7499923706055 0.15077499300241473 0.67300000786781322 0.0003494999982649461 0.50404998660087597 4.2815001010894784 480.01622009277349 1.328999996185303 12.651000022888185 13.451499938964846 1.2050000429153445 59.078746795654304 0.33100000023841863 0.033500000834465034 14.164999961853029 12.410408973693849 778.85000610351574 2.6985000371932988 123.50000000000001 1.2182499766349795
decision_type=2 2 2 2 2 2 2 2 2 2 2 2 2 2 2 2 2 2 2 2 2 2 2 2 2 2 2 2 2 2 2 2 2 2 2 2 2 2 2 2 2 2 2 2 2 2 2 2 2 2 2 2 2 2 2 2 2 2 2 2 2 2
left_child=1 8 3 4 36 6 10 -6 9 11 -2 13 -9 32 -11 -7 23 49 20 -18 50 22 27 28 -16 -15 -27 -4 29 38 31 -13 47 34 -20 -17 -3 -35 -14 40 41 -26 -42 -8 45 53 -47 -1 -33 -12 -19 52 -23 55 -55 -30 -41 -58 -59 -5 -44 -10
right_child=5 2 21 59 7 15 43 12 61 14 17 30 16 25 24 35 19 18 33 -21 -22 51 -24 -25 39 26 -28 -29 44 -31 -32 48 -34 37 -36 -37 -38 -39 -40 56 42 -43 60 -45 -46 46 -48 -49 -50 -51 -52 -53 -54 54 -56 -57 57 58 -60 -61 -62 -63
leaf_value=0.020232158808321302 0.067476628195776434 0.063873407553869097 0.064405555048367522 0.063345481882334562 0.062914908171363609 -0.042467054601280925 0.064545279390543706 0.028668402925678106 0.035952568525747512 -0.020515724063308531 -0.078611739172992259 -0.016999846384821646 -0.039799528377107207 -0.084299174586692047 -0.0020095518419155191 0.061609822556871176 -0.059406113426861466 0.031425116086756084 0.018156685598656574 0.049277172175871173 -0.029093754861097526 0.063921113331159504 -0.061961332569647559 -0.0012388678737295725 -0.039184235980376375 0.029423375222649692 -0.058639350800786076 -0.0046406270829164147 -0.055551515995081673 0.042008288890307277 -0.014643896395094922 -0.08371498306633593 -0.010508016331059421 -0.033001973507823211 -0.077651728915641469 0.0038806252080891136 0.014174578288494284 -0.080211045757968044 -0.084002089364847918 0.063381965951725683 0.0074905657765835139 0.065984738365386875 0.063502991500796885 0.013585547944908872 -0.039424714563964049 -0.027219167942835017 -0.080838872625064187 0.068792580158578809 -0.052367657560818431 -0.048119515566156568 0.069683508274063749 0.061938864606930259 0.0037777738297597565 -0.016177427147364691 -0.08142470693477051 -0.079680192174196585 0.0058179160848968936 0.063380415252935196 0.029705799363579716 0.033979980805514377 0.035450870916345745 0.062446373365272145
leaf_weight=1.9972620010375992 2.8171412944793692 10.817029923200606 5.8306150734424573 14.277589842677115 4.8941215872764579 2.9076169282197979 4.1609783619642249 3.3662503212690345 1.7306958138942707 4.3358570188283911 119.80352963507175 2.5692262947559419 3.3289208561182004 3.3255447149276716 2.782482221722602 11.490571200847624 2.1600397676229468 2.4618891328573227 3.1615345329046249 2.246131643652916 2.846310690045355 8.1329854279756528 2.2016223520040503 2.3398352563381186 2.8422615677118328 2.7472986578941345 3.046599805355072 2.8841753900051117 3.3149264156818381 2.5197335928678504 2.6150639206171027 15.628094226121904 2.1769175082445145 2.3565411567687979 7.1019421666860563 2.0022916495800009 2.6497566401958457 34.443932458758354 6.8982967585325241 85.604170560836792 1.7311567664146448 1.9943331629037855 18.510841146111492 1.8684999197721479 2.6429568529129019 3.7854193150997144 4.2421215623617172 4.75527423620224 3.3419626504182807 2.6073610782623282 2.9496336728334427 29.148543015122414 3.2148986905813208 2.319729268550871 6.3820027112960815 74.978654697537422 1.6152941882610345 13.775502771139147 2.612579181790351 1.6841907501220692 1.7045015543699253 144.65046405792236
leaf_count=11 15 64 34 86 30 12 24 17 10 19 515 11 14 14 14 66 9 12 14 12 12 48 9 10 13 13 13 13 14 11 11 66 10 10 30 10 13 147 29 516 10 11 111 10 11 16 18 25 14 11 15 174 18 10 27 321 9 83 15 10 10 879
internal_value=0 0.0222071 -0.0156828 -0.0374426 -0.0486698 -0.0571569 -0.0653551 -0.0597041 0.0461732 0.0331733 -0.0691658 -0.0378829 -0.0646832 -0.0018558 0.0549814 0.0361102 -0.0673654 -0.0713316 -0.05666 -0.00400269 0.0242311 0.0498546 0.0206775 -0.0698415 0.0574394 -0.0414671 -0.0168826 0.0415546 -0.0712953 -0.0475495 -0.0648036 -0.0708934 0.0385983 -0.0708532 -0.0481392 0.053043 0.0540945 -0.077188 -0.0696143 0.058708 0.0473848 0.00418139 0.056906 0.0487532 -0.0743946 -0.0753672 -0.0555543 0.0544294 -0.0781925 -0.0779623 0.0522784 0.0577197 0.0468823 -0.0771955 -0.0640309 -0.0786586 0.0616351 0.0533291 0.058012 0.060247 0.0611377 0.0621331
internal_weight=0 532.354 206.261 154.848 138.886 202.98 186.579 125.419 326.093 179.712 180.55 42.2032 120.525 18.0489 137.509 16.4005 117.159 177.733 55.3218 4.40617 8.25783 51.4128 10.9164 112.753 133.173 9.11944 5.7939 8.71479 110.413 12.747 24.1543 21.5393 8.92945 47.064 10.2635 13.4929 13.4668 36.8005 10.2272 130.391 26.7831 4.83659 21.9465 6.02948 97.6658 95.0229 8.02754 6.75254 18.9701 122.411 5.41152 40.4964 11.3479 86.9953 8.70173 78.2936 103.608 18.0034 16.3881 15.9618 20.2153 146.381
internal_count=3809 2906 1018 722 626 903 815 549 1888 999 781 188 519 86 811 88 502 766 240 21 39 296 56 481 792 40 26 47 471 54 102 91 46 201 44 76 77 157 43 778 155 24 131 34 417 406 34 36 80 526 27 240 66 372 37 335 623 107 98 96 121 889
is_linear=0
shrinkage=0.05


Tree=12
num_leaves=63
num_cat=0
split_feature=8 51 18 13 0 26 13 13 31 17 18 8 48 42 13 20 8 51 13 23 7 49 28 42 13 26 23 28 49 23 6 16 26 15 42 25 26 26 24 38 51 16 47 10 21 49 45 7 4 18 40 16 50 46 16 41 3 18 39 39 26 39
split_gain=333.341 402.226 125.955 71.1507 38.888 20.5687 42.9511 40.3601 16.8009 18.8039 15.2134 9.63453 7.8837 7.13276 7.0946 10.0244 6.65005 5.94179 6.56371 5.88276 5.80286 5.52035 5.35385 5.1321 5.01758 4.20988 4.089 3.01094 2.89606 2.63652 2.54875 9.89933 2.41082 2.18845 2.07313 2.01404 1.7811 1.36511 1.2306 1.18382 1.17955 2.26147 4.30856 1.43649 1.24281 1.166 0.85389 0.691855 0.484942 0.863119 0.450534 0.439979 0.431723 0.579318 0.386837 0.344197 1.88746 0.327804 0.246734 0.303487 0.204653 0.466174
threshold=13.654999732971193 1.3350000381469729 11.150000095367433 3.1120899915695195 181.60293579101565 -0.089999999850988374 12.715549945831301 12.710549831390383 11.485499858856203 22.732010841369632 48.750000000000007 4.1649999618530282 1.4950000047683718 1.4049999713897707 57.163499832153327 110.50000000000001 4.1649999618530282 0.19099999964237216 1.7652500271797182 0.46965000033378607 1.6016100049018862 -0.40749999880790705 1.0135000348091128 -2.3410400152206416 4.9198501110076913 -0.074999999254941926 0.8581499755382539 0.80450001358985912 0.85899999737739574 0.089150000363588347 0.10045700147747995 75.694160461425795 0.089999999850988402 0.31174999475479132 -1.4198499917984007 4.2595000267028817 0.20499999821186068 -0.24999999254941938 6111.0000000000009 10.807499885559084 2.6099998950958256 3.6073155403137211 -0.73700001835823048 89.954998016357436 1.5000000000000002 -0.82499998807907093 -0.0015315000200644133 15.961950302124025 1.2182499766349795 23.94999980926514 19.622841835021976 6.1585609912872323 -0.61500000953674305 -0.61500000953674305 3.4188088178634648 38.712312698364265 0.054100001230835922 6.0499999523162851 0.36849999427795416 0.67849999666214 -0.074999999254941926 0.0025000000605359678
decision_type=2 2 2 2 2 2 2 2 2 2 2 2 2 2 2 2 2 2 2 2 2 2 2 2 2 2 2 2 2 2 2 2 2 2 2 2 2 2 2 2 2 2 2 2 2 2 2 2 2 2 2 2 2 2 2 2 2 2 2 2 2 2
left_child=1 2 14 17 5 6 7 13 9 -3 21 34 19 16 15 -1 24 18 -4 29 -17 -6 -13 -7 26 -22 -5 -21 33 -10 31 36 -19 -25 -8 -11 -2 -23 50 -9 41 42 -14 44 -43 -35 -47 48 49 -48 -26 -16 -36 -54 -32 56 -50 -42 -56 -60 61 -57
right_child=30 8 3 4 10 23 11 39 12 35 -12 22 40 -15 51 20 -18 32 -20 27 25 37 -24 28 38 -27 -28 -29 -30 -31 54 -33 -34 45 52 -37 -38 -39 -40 -41 57 43 -44 -45 -46 46 47 -49 55 -51 -52 -53 53 -55 58 60 -58 -59 59 -61 -62 -63
leaf_value=-0.05061843360739026 0.063225758234211393 0.065509868855888831 0.064647587417929434 0.0309979833888357 -0.038020828781729986 0.010943868950700073 -0.029153389603926702 0.029002151909440152 0.012818736463347935 -0.043701367302617276 -0.071014963365143138 -0.048260528686852808 0.062258473279527327 0.050382201761768719 0.064138389957000802 0.0648281701321584 0.015376126297457181 0.066107637015359419 -0.06244779629249092 0.0065724434087751239 0.039392527001279605 0.019360972039006271 0.047267325649452602 -0.039813894596059607 -0.079534010878433675 -0.054385532615947113 -0.061331634953650564 0.065127824656947414 -0.032966718650331996 -0.065090010759068478 0.040761301919858883 -0.065031625526824274 0.0054396136519720591 -0.037349698276440454 -0.055985878776358182 -0.10692534456918422 0.0061224428161940816 0.067276095216077969 -0.040620289635664449 0.069187833342946634 0.04393536281864964 0.06327782379180362 -0.029308277140663992 0.01551506063125831 0.030528183794226827 -0.047553945204170778 -0.081853894306519626 -0.049349291140447719 -0.028129153357469135 -0.038278716306012449 -0.059067223920061876 0.036573481546738194 -0.1007452360431635 -0.077413419585086463 0.062315621801336596 -0.050555165654241785 -0.079000788360116536 0.062685763790881602 0.033298777913607795 0.063595808515083715 -0.078239445208393113 -0.077720589855649697
leaf_weight=4.0468850880861309 10.996381938457487 4.0671236515045148 1.7251085042953516 2.5812797397375205 1.7255795598030079 1.7873920649290074 2.2784245163202277 2.1739368587732306 2.0319893509149543 2.278277799487114 3.7390346378087989 3.7156150639057151 2.8458770960569382 1.9949861019849766 18.468735992908481 8.2700502276420575 3.63072745501995 11.894467130303381 2.4708231240510941 3.6563304811716062 2.5723221153020859 1.8095047771930683 2.4232966154813766 4.3191999495029441 11.98043403029442 2.2379658371210089 2.2395585477352142 5.4943389594554901 4.1806400269269934 2.3323721289634705 2.1668455302715293 1.9471311569213856 1.8989379256963719 1.9522552788257588 2.2125568240880957 2.817281648516655 1.5591608434915532 8.3270849436521512 3.1433956623077384 11.6745088994503 2.3946629315614691 25.171723991632469 2.3418360203504553 1.9849775582551945 3.2736288309097281 2.5692797303199759 2.3500893712043753 2.3055780827999106 2.2737630158662787 2.2004418075084686 3.4669779241085044 1.57075536251068 2.7858784943819037 59.106574445962906 156.54841887950897 2.2175652384757987 9.2041062116622907 87.607755824923515 1.6459571123123162 1.6603853255510328 164.27137559652328 5.4866325557231903
leaf_count=19 67 23 10 13 8 9 11 11 11 11 16 16 18 11 112 48 18 68 11 19 14 10 11 19 52 10 10 32 19 11 13 9 9 9 10 12 9 47 14 62 14 155 12 11 18 11 10 10 10 10 16 9 12 259 981 10 40 548 10 10 717 24
internal_value=0 -0.0192057 -0.0457822 -0.0549727 -0.0601576 -0.0639097 -0.0470237 -0.00735774 0.0509163 -0.0146645 0.016929 -0.07048 0.0552351 -0.0408551 0.0417822 0.0181525 -0.047586 0.0419066 -0.010194 0.0189492 0.0394294 0.0446495 -0.0105515 -0.0734104 -0.0573502 -0.00423731 -0.0118945 0.0417309 -0.0741519 -0.0288167 0.0599482 0.0398668 0.0577555 -0.0750165 -0.076022 -0.0786572 0.0561346 0.0587227 -0.0691375 0.0628795 0.0591389 0.0514372 0.0209234 0.0566391 0.0595088 -0.0757969 -0.0761861 -0.0765726 -0.0769065 -0.0607828 -0.0749405 0.0619778 -0.0776878 -0.0784636 0.0617457 -0.0773064 -0.0689231 0.0621869 0.0620301 0.0485134 -0.0778659 -0.0699013
internal_weight=0 539.582 391.284 354.117 336.128 320.526 115.408 42.8858 148.298 9.16268 15.6012 72.5223 139.135 29.0374 37.1667 17.1272 27.0424 17.9893 4.19593 13.515 13.0803 11.8622 6.13891 205.118 23.4116 4.81029 4.82084 9.15067 203.331 4.36436 176.524 14.5027 13.7934 199.15 66.3834 5.09556 12.5555 10.1366 18.5908 13.8484 125.62 35.618 5.18771 30.4303 28.4454 194.831 192.879 190.31 188.004 4.55053 15.4474 20.0395 64.105 61.8925 162.022 183.453 11.4779 90.0024 159.855 3.30634 171.976 7.7042
internal_count=3809 2710 1815 1603 1505 1424 526 207 895 46 81 319 849 134 212 91 123 98 21 73 72 65 27 898 105 24 23 51 889 22 1099 85 77 870 292 23 76 57 82 73 776 214 30 184 173 851 842 831 821 20 68 121 281 271 1014 801 50 562 1001 20 751 34
is_linear=0
shrinkage=0.05


Tree=13
num_leaves=63
num_cat=0
split_feature=19 48 8 18 51 13 26 13 8 17 13 9 9 8 19 42 48 16 18 27 43 42 51 16 13 15 45 8 26 49 1 5 42 51 32 17 12 44 44 6 38 51 51 48 45 48 36 8 15 13 29 50 3 45 33 16 10 29 51 49 33 34
split_gain=319.265 142.814 217.16 85.6571 53.1816 38.8513 29.1216 30.6896 28.0342 18.5916 17.0193 14.2047 12.0609 10.2272 8.8298 6.14765 6.05284 6.3013 5.93216 8.96637 5.20934 4.28158 4.22556 9.8778 14.524 3.88209 3.52846 3.53218 3.34706 2.50632 4.48143 2.47916 2.22613 2.14971 2.01313 3.7256 1.99355 1.97872 1.72896 1.69595 6.10733 1.36009 9.49589 7.46539 1.59335 1.88535 1.313 1.25186 1.07289 0.933204 0.904085 1.31464 0.825629 1.63489 0.821603 0.607544 0.589992 1.3459 0.57023 0.504293 0.402316 0.396879
threshold=1.5000000000000002 1.0850000381469729 13.654999732971193 11.150000095367433 1.7100000381469729 3.1120899915695195 -0.089999999850988374 12.88000011444092 23.069999694824222 8.5134153366088885 12.710549831390383 0.61100000143051159 0.91119998693466198 4.1649999618530282 2.5000000000000004 -1.8749999999999998 0.39449998736381536 3.9947445392608647 10.650000095367433 0.9975000023841859 2.1900000572204594 -1.1950000524520872 1.3650000095367434 5.3690302371978769 5.8350000381469735 0.417499989271164 -4.2499999835854389e-05 2.4550000429153447 0.074999999254941954 0.43100000917911535 132.80315399169925 10648.500000000002 1.9200000166893008 0.19099999964237216 11.705000400543215 46.481071472167976 133.13999938964847 -0.00024800001119729126 0.00090499999350868176 0.091111999005079283 11.518000125885012 0.49150000512599951 0.50499999523162853 0.52199998497962963 0.00022500000341096896 0.83499997854232799 13.098999977111818 0.83499997854232799 0.27404999732971197 8.1455001831054705 283.25614929199224 -0.017500000074505802 0.36149999499320989 -1.0000000180025095e-35 11.899000167846681 3.4343861341476445 89.954998016357436 294.76428222656256 0.67950001358985912 -1.0950000286102293 13.695499897003176 11.914000034332277
decision_type=2 2 2 2 2 2 2 2 2 2 2 2 2 2 2 2 2 2 2 2 2 2 2 2 2 2 2 2 2 2 2 2 2 2 2 2 2 2 2 2 2 2 2 2 2 2 2 2 2 2 2 2 2 2 2 2 2 2 2 2 2 2
left_child=1 2 3 37 8 28 7 10 9 -2 16 13 15 21 47 -8 26 -18 19 -11 31 -9 23 24 -3 -13 -7 -28 33 38 -31 32 41 -5 35 -24 -26 -1 50 40 -4 48 43 -43 -44 -46 -32 -6 -20 -19 51 -17 53 -25 -52 -39 -36 -58 60 -41 -23 -50
right_child=4 22 39 5 14 6 12 11 -10 18 -12 25 -14 -15 -16 29 17 49 20 -21 -22 58 34 52 36 -27 27 -29 -30 30 46 -33 -34 -35 56 -37 -38 55 -40 59 -42 42 44 -45 45 -47 -48 -49 61 -51 54 -53 -54 -55 -56 -57 57 -59 -60 -61 -62 -63
leaf_value=0.015369996430826611 0.065823889131727653 0.063187745990110192 0.062534786038354467 0.011566843181266297 0.01854591039245981 -0.079531876186577768 0.026329981909845757 -0.00074234354123872183 0.062959360027628183 -0.091493571301990428 0.062445812392191505 0.066799817718479301 0.029690219369766971 0.010379851998895372 -0.029365632252253693 -0.078569247477461829 -0.046056341284691056 0.067485764095508702 -0.040683007108883763 0.042289538128673414 0.001148856620221345 -0.053406533564889939 0.064325889444936599 0.063245280576068555 -0.032233083505578318 -0.026384611531582683 -0.052309459646986967 0.032744341617180484 -0.020498125670801691 0.016471320311046745 -0.089003206328303733 -0.014440679335797827 -0.025507654652370398 0.064571783950398351 0.060436947321917789 -0.0049703851917427752 -0.095998675537599873 0.037497743001893957 -0.030845232868494811 0.033964640537146526 -0.037640694473186992 -0.075706674045051298 -0.076306580386299519 0.035378032160654792 -0.07596769031629752 -0.013001752208387132 -0.039077672514636862 0.062253821401276603 -0.054363100705730763 0.022197116069762372 -0.047860611797043776 -0.024509247465830483 0.063473645674806609 0.00203547199364162 -0.075819605442895663 0.063018616918108464 0.063970348264455162 0.0076524475254846486 -0.092975061159953298 0.061163925178430389 -0.075897333945217776 -0.075622716681402039
leaf_weight=2.7594407647848156 2.6699447631835929 4.1809394806623477 5.8886316120624533 2.4642821848392478 1.9624604731798196 3.902986332774165 1.6842616647481907 1.9691222310066248 4.3813931643962851 2.1679044067859641 11.945898577570917 2.8732155114412299 3.2421047240495673 4.2845593094825736 4.1929752528667441 2.2740688920021057 2.575976461172103 3.0583854615688324 2.3025950938463202 2.9658481180667877 2.6214504539966574 2.1863320320844712 4.4308451712131491 2.7779328525066376 2.4874559789896011 1.8292731493711469 2.8650058954954138 2.1268118470907211 1.8191010951995839 2.2617272436618796 3.0489552468061447 1.9907042682170857 2.6936225444078437 8.5489255338907224 149.31662981212139 3.4497682005167007 2.4164755493402481 2.6280071735382107 2.4273426681756964 1.7349741160869587 2.0515637993812561 2.4644673019647589 38.19758827984333 3.9153171479701996 2.4677044153213492 2.2939531356096268 2.3182006776332855 9.9156736433505994 2.2421754598617545 1.8110102415084837 2.7199738770723334 2.2248373925685874 15.002418071031569 1.796320348978045 77.369412705302238 20.703089848160744 2.7164136469364157 1.7406676411628721 4.6539972722530356 95.923105135560036 21.960244610905647 104.92867749929428
leaf_count=15 15 26 37 13 10 17 9 10 27 9 68 17 18 19 17 10 12 17 10 15 11 10 26 17 12 9 12 10 9 11 13 10 12 51 972 19 10 15 10 11 11 11 170 20 11 10 10 63 10 10 12 10 94 9 344 130 16 10 20 627 98 472
internal_value=0 0.0213633 0.000548353 -0.0292724 -0.054101 -0.0415164 -0.0479358 -0.0227243 -0.0619529 -0.0650997 0.0170858 -0.0510484 -0.0651643 -0.0619948 0.033013 -0.0683568 -0.0160758 0.0171861 -0.0671409 -0.014205 -0.0687768 -0.0720727 0.0555016 0.0378079 -0.0052805 0.030551 -0.0439175 -0.0160715 0.0423334 -0.0700418 -0.0425623 -0.069898 -0.0705815 0.0527116 0.0586387 0.0339912 -0.0636544 0.0554085 -0.072451 0.0588739 0.0366517 -0.071346 -0.0644536 -0.00753323 -0.0729067 -0.0456335 -0.0674392 0.0550326 -0.0744524 0.0506422 -0.0736449 -0.051835 0.0578038 0.039208 -0.0748701 0.060144 0.0599019 0.041976 -0.0769497 0.0606807 -0.0738609 -0.0751779
internal_weight=0 502.451 312.135 206.537 194.374 180.446 167.614 68.0428 178.303 173.922 28.2861 39.7567 99.5709 35.0543 16.0711 96.3288 16.3402 7.44537 171.252 5.13375 166.118 30.7697 190.316 28.6615 9.08487 4.70249 8.8948 4.99182 12.8323 94.6445 7.62888 163.497 161.506 11.0132 161.654 7.88061 4.90393 26.0905 87.0156 105.598 7.9402 158.812 49.339 6.37978 42.9592 4.76166 5.36716 11.8781 109.473 4.8694 84.5883 4.49891 19.5767 4.57425 80.0894 23.3311 153.774 4.45708 28.8006 97.6581 24.1466 107.171
internal_count=3809 2906 1695 1009 903 849 776 329 813 786 146 183 447 157 90 429 78 39 771 24 747 138 1211 168 48 26 39 22 73 420 34 736 726 64 1043 45 22 160 386 686 48 714 222 31 191 21 23 73 492 27 376 20 120 26 356 145 998 26 128 638 108 482
is_linear=0
shrinkage=0.05


Tree=14
num_leaves=63
num_cat=0
split_feature=19 39 51 17 51 6 18 6 51 6 17 17 7 27 18 13 3 11 17 0 6 26 6 26 11 4 51 10 26 28 24 25 16 9 51 15 44 18 31 49 11 20 51 29 30 45 49 17 4 26 20 26 7 4 42 35 51 2 42 16 24 13
split_gain=296.146 158.599 94.2276 52.5974 49.2914 46.7071 29.567 24.123 92.9961 24.0199 17.054 13.0883 10.5628 9.08732 8.21055 8.05192 7.69412 7.16265 6.66731 6.27635 5.73695 4.75232 6.31054 4.34238 4.8848 4.50696 5.2189 4.10633 3.81054 11.0392 23.6892 3.48525 3.45628 9.28974 4.73796 3.27124 2.64897 1.76909 1.75513 1.74831 3.14226 1.71985 4.20869 4.10704 1.40738 1.39209 1.33943 1.20095 1.17495 0.96004 3.64783 1.72082 1.19348 0.93972 0.771219 0.589357 1.56131 0.580112 0.499654 0.49135 0.489389 0.389206
threshold=1.5000000000000002 0.0015000000712461772 1.0649999976158144 10.214834690093996 1.9844999909400942 0.060296999290585525 9.2500000000000018 0.14260800182819369 0.49150000512599951 0.14260800182819369 8.5134153366088885 12.820896148681642 0.0086550000123679655 2.3745000362396245 6.6499998569488534 2.3895000219345097 0.94449999928474437 2129.5000000000005 27.811199188232425 209.68471527099612 0.010327000170946123 -0.089999999850988374 0.10045700147747995 0.089999999850988402 1236.5000000000002 8.678349971771242 2.1950000524520878 89.795001983642592 -0.074999999254941926 0.97349998354911815 5868.5000000000009 4.5185000896453866 5.0587627887725839 0.35719999670982366 1.2849999666213991 0.28954999148845678 0.0010150000452995302 14.84999990463257 15.867499828338625 0.39499999582767492 932.50000000000011 131.50000000000003 1.4049999713897707 290.85049438476568 47.768335342407234 8.149999848683366e-05 0.060499999672174461 10.716043472290041 6.4782400131225595 -0.089999999850988374 563.50000000000011 -0.10999999940395354 14.127814769744875 11.481150150299074 0.089069999754428877 13.586500167846681 2.995000004768372 2455210.6250000005 1.4049999713897707 3.4343861341476445 6439.0000000000009 7.0150001049041757
decision_type=2 2 2 2 2 2 2 2 2 2 2 2 2 2 2 2 2 2 2 2 2 2 2 2 2 2 2 2 2 2 2 2 2 2 2 2 2 2 2 2 2 2 2 2 2 2 2 2 2 2 2 2 2 2 2 2 2 2 2 2 2 2
left_child=1 7 3 38 9 6 -5 8 11 10 -2 -1 -8 16 -12 -16 21 19 32 35 -6 22 31 41 25 26 -25 -7 29 -17 48 -13 33 34 -4 -14 -23 -32 58 49 -41 42 43 -10 -26 -39 -33 -22 -31 50 51 -37 -51 -30 -45 56 -44 -43 -3 -9 -36 -11
right_child=4 2 18 5 20 27 12 59 23 61 14 13 17 -15 15 28 -18 -19 -20 -21 47 36 -24 24 44 -27 -28 -29 53 30 37 46 -34 -35 60 39 -38 45 -40 40 -42 57 55 54 -46 -47 -48 -49 -50 52 -52 -53 -54 -55 -56 -57 -58 -59 -60 -61 -62 -63
